################################################################################
# Neural network connection values (weights and biases).
################################################################################
# Col  Name       Description
################################################################################
# 1    connection Neural network connection value.
# 2    t          Connection type (a = weight, b = bias).
# 3    index      Index enumerating weights.
# 4    l_s        Starting point layer (end point layer for biases).
# 5    n_s        Starting point neuron in starting layer (end point neuron for biases).
# 6    l_e        End point layer.
# 7    n_e        End point neuron in end layer.
################################################################################
#                      1 2         3     4     5     6     7
#             connection t     index   l_s   n_s   l_e   n_e
############################################################
  4.4110030353339696E-01 a         1     0     1     1     1
  5.1595372505990678E-01 a         2     0     1     1     2
  2.6927270217691732E-02 a         3     0     1     1     3
 -7.9454191180279979E-02 a         4     0     1     1     4
  4.9233080639775889E-01 a         5     0     1     1     5
 -1.6038158465323304E-01 a         6     0     1     1     6
 -6.0969924428279598E-01 a         7     0     1     1     7
  9.3369509083063162E-01 a         8     0     1     1     8
 -1.3893146724918304E+00 a         9     0     1     1     9
 -2.0024419180081129E-01 a        10     0     1     1    10
  4.3649885353611895E-01 a        11     0     1     1    11
 -1.0232491185630919E-01 a        12     0     1     1    12
 -1.3849376785864951E+00 a        13     0     1     1    13
  4.3974748372206224E-01 a        14     0     1     1    14
  3.1773745513358104E-01 a        15     0     1     1    15
  4.3645141171538848E-01 a        16     0     1     1    16
 -9.9443439072697393E-01 a        17     0     1     1    17
 -3.0465459301765507E-01 a        18     0     1     1    18
  3.4737119409910477E-01 a        19     0     1     1    19
  1.3959750343815205E-01 a        20     0     1     1    20
 -7.0317922634855667E-01 a        21     0     1     1    21
  1.3977115951479374E-01 a        22     0     1     1    22
  1.2851406709698114E+00 a        23     0     2     1     1
  7.0625295054483639E-01 a        24     0     2     1     2
 -7.9144786778000339E-02 a        25     0     2     1     3
 -6.1434518314997999E-01 a        26     0     2     1     4
 -8.1104423674246903E-02 a        27     0     2     1     5
  6.0961448436882282E-01 a        28     0     2     1     6
  3.4757842179522919E-01 a        29     0     2     1     7
  1.0688528735252365E+00 a        30     0     2     1     8
 -1.7354556305603679E+00 a        31     0     2     1     9
  2.6330825256233986E-01 a        32     0     2     1    10
 -4.5808905008692447E-01 a        33     0     2     1    11
  1.0755054143882903E+00 a        34     0     2     1    12
 -1.5304544938253046E+00 a        35     0     2     1    13
 -1.1771151857777147E+00 a        36     0     2     1    14
 -1.0235637693957809E-01 a        37     0     2     1    15
  1.7769103997161801E+00 a        38     0     2     1    16
  1.0718671424070141E+00 a        39     0     2     1    17
  1.2653764482692167E+00 a        40     0     2     1    18
  5.2000323743529653E-01 a        41     0     2     1    19
 -5.5821174350420355E-01 a        42     0     2     1    20
 -3.3938144062487124E-01 a        43     0     2     1    21
 -4.8870134911351552E-02 a        44     0     2     1    22
  6.7030911350643618E-01 a        45     0     3     1     1
 -8.3671977895780780E-01 a        46     0     3     1     2
 -9.9343219879909447E-02 a        47     0     3     1     3
 -7.7555024396525230E-01 a        48     0     3     1     4
 -7.5826961518515823E-01 a        49     0     3     1     5
 -7.9690115292681785E-01 a        50     0     3     1     6
 -2.4817913215222051E-01 a        51     0     3     1     7
 -6.4233445998929195E-01 a        52     0     3     1     8
  8.3409826411991128E-01 a        53     0     3     1     9
  2.0529268816706236E-01 a        54     0     3     1    10
  2.9141528026266034E-01 a        55     0     3     1    11
 -2.8080688238775953E-01 a        56     0     3     1    12
  1.3594441452502077E+00 a        57     0     3     1    13
 -9.6827669348885437E-01 a        58     0     3     1    14
 -2.1329059378741089E-01 a        59     0     3     1    15
 -9.7962310985574363E-01 a        60     0     3     1    16
 -4.3687374877975083E-01 a        61     0     3     1    17
  6.4441643383207681E-02 a        62     0     3     1    18
 -2.9050912658693440E-01 a        63     0     3     1    19
 -4.5482640381496381E-01 a        64     0     3     1    20
  9.6456809950614453E-01 a        65     0     3     1    21
 -5.6984443397091245E-01 a        66     0     3     1    22
  8.0122298732829139E-02 a        67     0     4     1     1
 -2.3197889743935918E-01 a        68     0     4     1     2
  2.1281113840849068E-02 a        69     0     4     1     3
  4.3044994582918500E-01 a        70     0     4     1     4
  1.5196052930650177E+00 a        71     0     4     1     5
  1.1161243492619322E-01 a        72     0     4     1     6
  9.2825380272071967E-01 a        73     0     4     1     7
 -5.4112639600170120E-01 a        74     0     4     1     8
 -8.5369868268108906E-01 a        75     0     4     1     9
  4.1550410756145650E-01 a        76     0     4     1    10
 -3.4717674189585067E-02 a        77     0     4     1    11
 -9.7439643278823229E-01 a        78     0     4     1    12
 -2.1706226393869925E+00 a        79     0     4     1    13
  1.1417223470557005E+00 a        80     0     4     1    14
 -7.8020122382546087E-01 a        81     0     4     1    15
  1.2416665769144781E+00 a        82     0     4     1    16
 -1.0509845759755010E+00 a        83     0     4     1    17
 -7.2331498084284895E-01 a        84     0     4     1    18
 -8.8049215918163071E-01 a        85     0     4     1    19
 -7.0817102360166118E-01 a        86     0     4     1    20
 -9.8584441404207013E-01 a        87     0     4     1    21
 -1.2033258038453301E-01 a        88     0     4     1    22
 -5.1283382673003730E-01 a        89     0     5     1     1
 -8.7418360711023135E-01 a        90     0     5     1     2
 -4.2621615304386928E-01 a        91     0     5     1     3
 -3.8577276238438252E-01 a        92     0     5     1     4
  6.3607479559823751E-02 a        93     0     5     1     5
  8.7814735367667685E-01 a        94     0     5     1     6
  6.6259199228183541E-01 a        95     0     5     1     7
 -4.4998254648059594E-01 a        96     0     5     1     8
 -9.7764709123781179E-01 a        97     0     5     1     9
 -4.4459069626197240E-01 a        98     0     5     1    10
 -4.0062807916363824E-01 a        99     0     5     1    11
 -7.9093843998993929E-01 a       100     0     5     1    12
  5.5877730419874337E-02 a       101     0     5     1    13
  1.8454296588221536E-01 a       102     0     5     1    14
 -6.5434908683139081E-01 a       103     0     5     1    15
  6.8298772438778632E-01 a       104     0     5     1    16
 -3.3731177148538843E-01 a       105     0     5     1    17
  7.0587075780330655E-01 a       106     0     5     1    18
  6.4518529772458574E-02 a       107     0     5     1    19
 -1.1190322491039721E+00 a       108     0     5     1    20
  7.5189206748450550E-03 a       109     0     5     1    21
  3.0902748378555171E-02 a       110     0     5     1    22
  3.1240839609077803E-01 a       111     0     6     1     1
 -8.9708101380549177E-01 a       112     0     6     1     2
 -2.1366287211355728E-01 a       113     0     6     1     3
  4.1857441929184519E-01 a       114     0     6     1     4
  1.5411366474195032E+00 a       115     0     6     1     5
  1.5392646511850783E-01 a       116     0     6     1     6
  1.8999645127694501E-01 a       117     0     6     1     7
  6.0314793659800836E-01 a       118     0     6     1     8
 -5.8371935800172359E-01 a       119     0     6     1     9
  5.1445268326389104E-01 a       120     0     6     1    10
  9.1905824443587691E-01 a       121     0     6     1    11
 -1.0383386757633113E+00 a       122     0     6     1    12
 -1.7412756793114814E+00 a       123     0     6     1    13
 -8.1345449738785336E-01 a       124     0     6     1    14
 -2.8321975283406109E-01 a       125     0     6     1    15
  2.0953230812132972E-01 a       126     0     6     1    16
  2.3565881714390760E-01 a       127     0     6     1    17
  5.1748967352095609E-01 a       128     0     6     1    18
 -5.3276827819403283E-01 a       129     0     6     1    19
 -7.6243258624240973E-01 a       130     0     6     1    20
  9.7839450433386155E-01 a       131     0     6     1    21
  8.0287228398619270E-01 a       132     0     6     1    22
 -4.5860665436928272E-01 a       133     0     7     1     1
 -8.9932253817211849E-01 a       134     0     7     1     2
  9.0597841202403828E-01 a       135     0     7     1     3
  3.2573764654627586E-02 a       136     0     7     1     4
 -5.8404697619345158E-01 a       137     0     7     1     5
  3.4321982801976852E-01 a       138     0     7     1     6
 -5.8502635210015785E-01 a       139     0     7     1     7
 -9.1995593037867951E-01 a       140     0     7     1     8
 -1.0150569536007503E+00 a       141     0     7     1     9
  4.5643348263329442E-01 a       142     0     7     1    10
  8.9171908794626176E-01 a       143     0     7     1    11
 -1.6224658729244159E+00 a       144     0     7     1    12
 -7.9954571794428886E-01 a       145     0     7     1    13
 -1.2868610129060043E-01 a       146     0     7     1    14
  1.9289230631762442E-02 a       147     0     7     1    15
 -4.2322525069419625E-01 a       148     0     7     1    16
 -3.3154228708690875E-01 a       149     0     7     1    17
 -5.5880120758655349E-01 a       150     0     7     1    18
 -1.2851014015340231E-01 a       151     0     7     1    19
 -5.4201778864964345E-01 a       152     0     7     1    20
 -8.3372623382026356E-01 a       153     0     7     1    21
  2.1879692800399475E-01 a       154     0     7     1    22
  4.9214323065753690E-01 a       155     0     8     1     1
  3.8992547039500236E-01 a       156     0     8     1     2
  1.0015794338590830E-01 a       157     0     8     1     3
 -1.0343587308824886E-01 a       158     0     8     1     4
 -1.3370658382941896E+00 a       159     0     8     1     5
 -8.0729193306406888E-01 a       160     0     8     1     6
 -9.8369450889896026E-01 a       161     0     8     1     7
  1.7236424584117044E-01 a       162     0     8     1     8
  9.4707436528495570E-01 a       163     0     8     1     9
  1.0586638406679683E+00 a       164     0     8     1    10
 -8.8689099231621396E-02 a       165     0     8     1    11
 -1.0793302311560811E+00 a       166     0     8     1    12
  1.4302980675668109E+00 a       167     0     8     1    13
  7.5318581075764246E-01 a       168     0     8     1    14
  1.6153787241740866E-01 a       169     0     8     1    15
  4.4823096747120511E-01 a       170     0     8     1    16
 -6.0654234588387390E-01 a       171     0     8     1    17
  1.7096055312685404E-02 a       172     0     8     1    18
  8.9361581995666428E-01 a       173     0     8     1    19
 -4.4921166109918481E-01 a       174     0     8     1    20
 -3.8406403512616212E-02 a       175     0     8     1    21
 -7.7889987354181667E-01 a       176     0     8     1    22
 -1.4643289574138360E-02 a       177     0     9     1     1
 -2.8083971874459462E-01 a       178     0     9     1     2
  9.1268266891220895E-01 a       179     0     9     1     3
 -4.3002228428496420E-01 a       180     0     9     1     4
 -1.7475644730564310E-01 a       181     0     9     1     5
 -1.2329506025123067E-02 a       182     0     9     1     6
  8.4728577216006951E-01 a       183     0     9     1     7
 -9.1852705527499148E-02 a       184     0     9     1     8
 -3.5356804860861379E-01 a       185     0     9     1     9
  1.1361852128288398E-01 a       186     0     9     1    10
  5.2700465257061013E-01 a       187     0     9     1    11
 -6.3812292752571631E-01 a       188     0     9     1    12
 -1.1133892326928629E+00 a       189     0     9     1    13
  4.1165960583350786E-01 a       190     0     9     1    14
 -1.5134357811729033E+00 a       191     0     9     1    15
 -1.8027133091202058E-01 a       192     0     9     1    16
 -6.0384338230350820E-01 a       193     0     9     1    17
  8.1313692231236678E-01 a       194     0     9     1    18
 -7.4759735651615544E-01 a       195     0     9     1    19
  2.7652400852035114E-01 a       196     0     9     1    20
  8.0521668394757473E-01 a       197     0     9     1    21
 -6.3428447563335688E-01 a       198     0     9     1    22
  3.3233603335336698E-01 a       199     0    10     1     1
  9.1143560052058714E-01 a       200     0    10     1     2
 -6.0447434762097474E-01 a       201     0    10     1     3
 -1.2885517915520290E+00 a       202     0    10     1     4
  1.1995479211713054E+00 a       203     0    10     1     5
  1.2167692908337435E-01 a       204     0    10     1     6
 -3.0724138213209568E-01 a       205     0    10     1     7
 -6.8256416523433436E-02 a       206     0    10     1     8
 -9.3465794081764597E-01 a       207     0    10     1     9
  2.2639501291052777E-01 a       208     0    10     1    10
 -3.4958356106097314E-02 a       209     0    10     1    11
 -7.0640134331054172E-01 a       210     0    10     1    12
 -1.5237539376392073E+00 a       211     0    10     1    13
  3.1839842053631184E-01 a       212     0    10     1    14
 -1.0896603331788370E+00 a       213     0    10     1    15
 -1.3751134669373186E+00 a       214     0    10     1    16
 -1.1928618734776514E-01 a       215     0    10     1    17
 -2.5314998703117891E-01 a       216     0    10     1    18
 -8.1285925868462283E-01 a       217     0    10     1    19
 -1.0574614582271924E+00 a       218     0    10     1    20
 -9.3681266385758744E-01 a       219     0    10     1    21
  1.8989909114749412E-01 a       220     0    10     1    22
 -3.3968690267251922E-01 a       221     0    11     1     1
 -7.8055933517589715E-01 a       222     0    11     1     2
  6.7932519238884526E-01 a       223     0    11     1     3
 -5.9826587370207063E-01 a       224     0    11     1     4
  2.1295369259729219E-01 a       225     0    11     1     5
 -1.3668740837633733E-01 a       226     0    11     1     6
  5.6739586465148728E-01 a       227     0    11     1     7
  4.5323180828750875E-01 a       228     0    11     1     8
 -1.1770476863874504E+00 a       229     0    11     1     9
 -8.6079458284324561E-01 a       230     0    11     1    10
 -8.3044633712665339E-01 a       231     0    11     1    11
 -6.1795539527146126E-01 a       232     0    11     1    12
  2.2630250059203949E-01 a       233     0    11     1    13
  1.0588201645050439E-01 a       234     0    11     1    14
 -4.2128270308440352E-01 a       235     0    11     1    15
  2.6060339900911333E-01 a       236     0    11     1    16
 -9.6835818220839698E-01 a       237     0    11     1    17
  2.6035211632654254E-01 a       238     0    11     1    18
  5.7633561668445443E-01 a       239     0    11     1    19
  9.6651629450769072E-01 a       240     0    11     1    20
  3.7734284739170687E-01 a       241     0    11     1    21
  8.9668457853241212E-01 a       242     0    11     1    22
  4.7144145835725310E-01 a       243     0    12     1     1
 -7.1403792004456457E-01 a       244     0    12     1     2
  1.1116956983612085E+00 a       245     0    12     1     3
 -7.9540776402348334E-01 a       246     0    12     1     4
 -4.8912817615168039E-02 a       247     0    12     1     5
 -8.3381210890964425E-02 a       248     0    12     1     6
  5.8290000390498631E-01 a       249     0    12     1     7
 -5.0092279517957672E-01 a       250     0    12     1     8
  2.1346887832085931E-01 a       251     0    12     1     9
  8.6886778590286495E-01 a       252     0    12     1    10
  1.5730438339264123E+00 a       253     0    12     1    11
 -3.0108548621328457E-01 a       254     0    12     1    12
 -8.8494447544532706E-01 a       255     0    12     1    13
  5.8315726753210684E-01 a       256     0    12     1    14
 -1.8686602031412898E+00 a       257     0    12     1    15
  7.0265534819282427E-01 a       258     0    12     1    16
 -8.6344031014461808E-01 a       259     0    12     1    17
 -1.3091139344049407E-01 a       260     0    12     1    18
  1.5236361425364633E-01 a       261     0    12     1    19
  4.4234310525520731E-01 a       262     0    12     1    20
 -9.4223502315632945E-01 a       263     0    12     1    21
  3.4445531757907814E-02 a       264     0    12     1    22
 -8.9437603375641661E-02 a       265     0    13     1     1
  6.1608927867247898E-01 a       266     0    13     1     2
  1.0179783898239307E+00 a       267     0    13     1     3
 -4.0954675589030343E-01 a       268     0    13     1     4
 -3.8555622443062260E-01 a       269     0    13     1     5
  7.6293672694524550E-01 a       270     0    13     1     6
  2.0374220056979955E-01 a       271     0    13     1     7
 -5.4604354282109517E-02 a       272     0    13     1     8
  4.3632209638266428E-01 a       273     0    13     1     9
 -1.0911251339129178E+00 a       274     0    13     1    10
 -2.7860455576701626E-01 a       275     0    13     1    11
  1.2983459950981104E+00 a       276     0    13     1    12
 -3.8310214742525349E-02 a       277     0    13     1    13
  2.4440023124794388E-01 a       278     0    13     1    14
 -2.7789555390744758E-01 a       279     0    13     1    15
  1.5603107483839744E+00 a       280     0    13     1    16
 -6.1095642357427715E-01 a       281     0    13     1    17
 -1.1786347810827167E+00 a       282     0    13     1    18
 -9.3012636410357852E-01 a       283     0    13     1    19
 -6.3606256733541833E-01 a       284     0    13     1    20
 -8.3310656501736446E-01 a       285     0    13     1    21
 -1.6518368811956825E+00 a       286     0    13     1    22
  1.2274768499802577E+00 a       287     0    14     1     1
 -5.2429652851873898E-01 a       288     0    14     1     2
 -8.7840895249824058E-01 a       289     0    14     1     3
  4.6220694464269502E-01 a       290     0    14     1     4
  9.2417393559468752E-01 a       291     0    14     1     5
  4.8644465352148175E-01 a       292     0    14     1     6
  4.7666356795502296E-01 a       293     0    14     1     7
  9.4623080877068444E-01 a       294     0    14     1     8
 -8.5494222966077220E-03 a       295     0    14     1     9
  6.5833872624705428E-02 a       296     0    14     1    10
 -6.6220906298008264E-01 a       297     0    14     1    11
 -9.3072814667529391E-01 a       298     0    14     1    12
 -6.5828003763257148E-01 a       299     0    14     1    13
 -3.9719455914664227E-02 a       300     0    14     1    14
 -9.9035214675545780E-01 a       301     0    14     1    15
  1.3252436989188998E+00 a       302     0    14     1    16
  1.8303458033606185E-02 a       303     0    14     1    17
 -2.8447096415485412E-01 a       304     0    14     1    18
 -9.8958196169879442E-01 a       305     0    14     1    19
  8.3218518455892909E-01 a       306     0    14     1    20
 -2.6429914849221570E-01 a       307     0    14     1    21
 -4.6249581475052209E-01 a       308     0    14     1    22
  3.5914189139024444E-01 a       309     0    15     1     1
  5.9851501418474529E-01 a       310     0    15     1     2
 -1.0859604422707512E+00 a       311     0    15     1     3
 -1.0407809509203489E+00 a       312     0    15     1     4
  2.2360435957237410E-01 a       313     0    15     1     5
 -1.1454346264237052E+00 a       314     0    15     1     6
 -6.2593929798264414E-01 a       315     0    15     1     7
 -2.4144024130094524E-01 a       316     0    15     1     8
 -3.5094780677775678E-01 a       317     0    15     1     9
  9.6904960065752044E-01 a       318     0    15     1    10
 -4.2381644864911283E-01 a       319     0    15     1    11
 -1.9394683791575459E-01 a       320     0    15     1    12
  5.8298444230706549E-02 a       321     0    15     1    13
  2.1103051326988689E-01 a       322     0    15     1    14
 -1.1674854496857208E-01 a       323     0    15     1    15
  6.9149934452275208E-01 a       324     0    15     1    16
 -6.0008806171585094E-01 a       325     0    15     1    17
 -2.8065955103098884E-02 a       326     0    15     1    18
  1.2468634439928050E-01 a       327     0    15     1    19
 -5.2606151590112360E-01 a       328     0    15     1    20
 -2.6236645334806513E-01 a       329     0    15     1    21
 -4.3682783988566043E-01 a       330     0    15     1    22
 -3.9051822318314144E-01 a       331     0    16     1     1
  6.1470846423530556E-01 a       332     0    16     1     2
 -7.2784322490839748E-01 a       333     0    16     1     3
 -7.5280808000290333E-01 a       334     0    16     1     4
 -3.7679641403936809E-01 a       335     0    16     1     5
  1.1546795445929035E+00 a       336     0    16     1     6
  6.7862903751524206E-01 a       337     0    16     1     7
 -1.9038241832995129E-01 a       338     0    16     1     8
  3.0481905954877953E-01 a       339     0    16     1     9
 -1.0543681248245620E+00 a       340     0    16     1    10
  8.6943870690161562E-01 a       341     0    16     1    11
  5.2391470516358662E-01 a       342     0    16     1    12
  2.4666645761063197E-01 a       343     0    16     1    13
  8.8008989901622403E-01 a       344     0    16     1    14
  5.4319521988884643E-02 a       345     0    16     1    15
  2.6088158663372916E+00 a       346     0    16     1    16
 -1.0046216420677614E+00 a       347     0    16     1    17
 -1.2529580600975294E+00 a       348     0    16     1    18
 -8.6409652597593878E-01 a       349     0    16     1    19
 -8.5135924400311425E-01 a       350     0    16     1    20
 -4.4721221959616109E-01 a       351     0    16     1    21
 -4.9638091420230313E-01 a       352     0    16     1    22
  4.2625531705078115E-02 a       353     0    17     1     1
  4.8651532629787705E-02 a       354     0    17     1     2
 -1.0082209564853566E+00 a       355     0    17     1     3
 -8.9259953499845546E-01 a       356     0    17     1     4
 -1.5978770977607171E+00 a       357     0    17     1     5
  5.0072903317066408E-01 a       358     0    17     1     6
  3.4547067594094744E-01 a       359     0    17     1     7
 -4.8092934348352140E-01 a       360     0    17     1     8
  4.1792217068328802E-01 a       361     0    17     1     9
  4.8793991397795855E-01 a       362     0    17     1    10
 -5.2441201870455097E-02 a       363     0    17     1    11
  5.5426135435450052E-01 a       364     0    17     1    12
 -2.5439342410245691E-01 a       365     0    17     1    13
  9.5474955294938893E-02 a       366     0    17     1    14
 -5.4119498282875089E-01 a       367     0    17     1    15
 -1.2708641849146887E-01 a       368     0    17     1    16
 -7.4060690559942954E-01 a       369     0    17     1    17
  2.1581284364788403E-01 a       370     0    17     1    18
 -9.6425519094457790E-01 a       371     0    17     1    19
 -2.3890404221464751E-01 a       372     0    17     1    20
  9.0806457911159599E-02 a       373     0    17     1    21
 -1.2666336402164529E+00 a       374     0    17     1    22
  1.3554048126441121E+00 a       375     0    18     1     1
  1.2041971826937938E+00 a       376     0    18     1     2
 -9.5301710078075208E-01 a       377     0    18     1     3
 -7.0289883191413258E-02 a       378     0    18     1     4
 -2.6111036884341571E-01 a       379     0    18     1     5
  6.4997916380892728E-01 a       380     0    18     1     6
 -1.1511008530988929E+00 a       381     0    18     1     7
  1.0390531558032491E-01 a       382     0    18     1     8
 -1.1843593875701426E+00 a       383     0    18     1     9
 -1.2920987292368600E+00 a       384     0    18     1    10
  8.4627095068955038E-01 a       385     0    18     1    11
  7.8026155118609575E-01 a       386     0    18     1    12
 -5.9912706753086853E-01 a       387     0    18     1    13
 -8.1802394174305704E-01 a       388     0    18     1    14
  3.9094404108618239E-02 a       389     0    18     1    15
  2.4952081436481524E+00 a       390     0    18     1    16
  8.8800211044954680E-01 a       391     0    18     1    17
 -1.5566722340577151E-02 a       392     0    18     1    18
  1.0804484386970954E+00 a       393     0    18     1    19
 -2.8920055608134715E-01 a       394     0    18     1    20
 -2.4987566914560905E-01 a       395     0    18     1    21
  1.4493237529310530E-02 a       396     0    18     1    22
  9.6815001913967325E-01 a       397     0    19     1     1
  3.7631040405467620E-01 a       398     0    19     1     2
  5.0604804732121800E-01 a       399     0    19     1     3
  4.4510523185789180E-01 a       400     0    19     1     4
 -6.1885623731164230E-01 a       401     0    19     1     5
  2.7684662292575135E-01 a       402     0    19     1     6
 -5.8416894396034447E-01 a       403     0    19     1     7
 -2.7812090241788708E-02 a       404     0    19     1     8
 -2.9507355489300224E-01 a       405     0    19     1     9
  5.0997148507458867E-01 a       406     0    19     1    10
  1.5087274283729099E-01 a       407     0    19     1    11
  1.0142528244073592E+00 a       408     0    19     1    12
 -2.4695861648020009E-01 a       409     0    19     1    13
 -4.7709956654576802E-01 a       410     0    19     1    14
 -7.4478816141626891E-01 a       411     0    19     1    15
 -1.0860323127331228E+00 a       412     0    19     1    16
 -6.2653813852130938E-02 a       413     0    19     1    17
 -8.0497402293788456E-01 a       414     0    19     1    18
  4.8146971428745489E-01 a       415     0    19     1    19
 -3.0023414981404933E-01 a       416     0    19     1    20
  8.1682059988874245E-01 a       417     0    19     1    21
 -8.3777334278152360E-01 a       418     0    19     1    22
 -4.4511691564667821E-01 a       419     0    20     1     1
  1.2368485175988153E+00 a       420     0    20     1     2
 -4.4988953774519114E-02 a       421     0    20     1     3
  5.3220671200211803E-02 a       422     0    20     1     4
 -1.0670180794515356E+00 a       423     0    20     1     5
 -1.9161458278617410E-01 a       424     0    20     1     6
 -2.2420640760512953E-01 a       425     0    20     1     7
  7.3416717085083261E-01 a       426     0    20     1     8
 -9.7825368679880120E-01 a       427     0    20     1     9
 -1.2435562437478940E+00 a       428     0    20     1    10
  1.2608553992946470E+00 a       429     0    20     1    11
  1.0770965970623907E+00 a       430     0    20     1    12
 -1.0564747287804221E+00 a       431     0    20     1    13
  6.8823526677616675E-01 a       432     0    20     1    14
 -1.4703146468901980E+00 a       433     0    20     1    15
  2.0174853758639335E+00 a       434     0    20     1    16
  4.2034127579403796E-01 a       435     0    20     1    17
  6.3885878577361199E-01 a       436     0    20     1    18
  7.9992667397601080E-01 a       437     0    20     1    19
 -1.0171293233608603E-01 a       438     0    20     1    20
  7.6016323648524076E-01 a       439     0    20     1    21
  6.6935105320969224E-01 a       440     0    20     1    22
 -1.2870724927358850E+00 a       441     0    21     1     1
 -1.4251841092756892E-01 a       442     0    21     1     2
  7.8232778804688907E-01 a       443     0    21     1     3
 -1.4455376804646645E-02 a       444     0    21     1     4
 -6.4307256388906131E-01 a       445     0    21     1     5
 -1.8108962385938749E-02 a       446     0    21     1     6
  4.5675044991079966E-01 a       447     0    21     1     7
 -2.9934254300260466E-01 a       448     0    21     1     8
  3.3127060472931874E-01 a       449     0    21     1     9
 -1.0614340498744788E+00 a       450     0    21     1    10
  8.8518374031495720E-02 a       451     0    21     1    11
  4.9624162233722224E-01 a       452     0    21     1    12
 -1.4431315865550232E+00 a       453     0    21     1    13
  5.3562114364743903E-02 a       454     0    21     1    14
  1.3461041375360433E-01 a       455     0    21     1    15
 -1.1802142928867232E+00 a       456     0    21     1    16
 -3.4150798706884894E-01 a       457     0    21     1    17
 -1.5639629801481583E+00 a       458     0    21     1    18
 -1.3781815867386035E-01 a       459     0    21     1    19
 -2.0786304429381941E-01 a       460     0    21     1    20
 -7.1309353806901166E-01 a       461     0    21     1    21
 -2.3965539436517416E-01 a       462     0    21     1    22
 -9.0387178367184173E-01 a       463     0    22     1     1
 -5.2815780319555561E-01 a       464     0    22     1     2
 -3.3165766860068294E-03 a       465     0    22     1     3
  7.8140814486808818E-01 a       466     0    22     1     4
  2.0757748144707713E+00 a       467     0    22     1     5
 -1.7615330049188418E+00 a       468     0    22     1     6
  8.7999922282758269E-01 a       469     0    22     1     7
 -5.6178554147619209E-01 a       470     0    22     1     8
 -1.0833216355742130E+00 a       471     0    22     1     9
  3.7050750231356844E-02 a       472     0    22     1    10
 -6.3428148042627497E-01 a       473     0    22     1    11
  1.7211160555786742E+00 a       474     0    22     1    12
 -5.6617919891930979E-01 a       475     0    22     1    13
 -7.4367773553185590E-01 a       476     0    22     1    14
 -8.5996499600802034E-01 a       477     0    22     1    15
 -1.7057740372631616E+00 a       478     0    22     1    16
  7.8236185665399405E-01 a       479     0    22     1    17
  1.3936377342796877E+00 a       480     0    22     1    18
 -1.1191397896003090E+00 a       481     0    22     1    19
 -3.8264853408811655E-01 a       482     0    22     1    20
 -7.7241098257974317E-01 a       483     0    22     1    21
  6.6723402207673244E-01 a       484     0    22     1    22
  3.1474447134264416E-01 a       485     0    23     1     1
 -7.0736000048219871E-01 a       486     0    23     1     2
  3.6117914694990044E-01 a       487     0    23     1     3
  9.3406801383421023E-01 a       488     0    23     1     4
  1.0762461424795957E+00 a       489     0    23     1     5
 -2.0994274390252532E-01 a       490     0    23     1     6
 -1.6889467867402172E-01 a       491     0    23     1     7
  6.6416748247597013E-01 a       492     0    23     1     8
 -3.2798989726368633E-01 a       493     0    23     1     9
  3.5006541301897848E-01 a       494     0    23     1    10
  4.0768201343646060E-01 a       495     0    23     1    11
  2.9862590530784511E-01 a       496     0    23     1    12
 -2.2717805600590486E+00 a       497     0    23     1    13
  7.1879168463795040E-01 a       498     0    23     1    14
  9.2961693136891654E-01 a       499     0    23     1    15
 -2.5998086470472165E-01 a       500     0    23     1    16
 -7.5539096190734055E-03 a       501     0    23     1    17
 -1.0832028352098881E+00 a       502     0    23     1    18
 -5.3495392964209222E-02 a       503     0    23     1    19
  4.2546203526725906E-01 a       504     0    23     1    20
  1.4579985980987020E-01 a       505     0    23     1    21
  1.6841679225214815E-01 a       506     0    23     1    22
  9.7487801482316860E-01 a       507     0    24     1     1
  4.8934882186155448E-01 a       508     0    24     1     2
  2.2616047954805227E-01 a       509     0    24     1     3
  1.2430611406623810E+00 a       510     0    24     1     4
  1.0268541388361467E+00 a       511     0    24     1     5
 -5.5412005321109825E-01 a       512     0    24     1     6
  1.8028940893434917E+00 a       513     0    24     1     7
 -7.0264025392918705E-01 a       514     0    24     1     8
 -3.5711539204204965E+00 a       515     0    24     1     9
  8.9444287940946698E-01 a       516     0    24     1    10
 -1.8686215027742947E+00 a       517     0    24     1    11
  2.8371573245598131E-01 a       518     0    24     1    12
 -1.1508997646974020E+00 a       519     0    24     1    13
  3.3868653852717484E-01 a       520     0    24     1    14
 -1.2604164154492583E+00 a       521     0    24     1    15
 -3.0594866372176637E+00 a       522     0    24     1    16
  1.2298913553951216E+00 a       523     0    24     1    17
  3.2116425024896276E+00 a       524     0    24     1    18
  3.4420837237672836E-01 a       525     0    24     1    19
 -4.6847487377774544E-01 a       526     0    24     1    20
  1.2223244162679878E+00 a       527     0    24     1    21
 -5.9687847125934546E-01 a       528     0    24     1    22
 -4.9204717589240871E-01 a       529     0    25     1     1
  3.1675146651162478E-01 a       530     0    25     1     2
  4.4696119414610908E-01 a       531     0    25     1     3
  3.2411441008213160E-01 a       532     0    25     1     4
  3.1625059891800844E-01 a       533     0    25     1     5
  2.6717922623658458E-01 a       534     0    25     1     6
  5.3254777266079001E-01 a       535     0    25     1     7
  1.9851300475445396E-01 a       536     0    25     1     8
  4.0942658280076205E-01 a       537     0    25     1     9
  8.4819487986552666E-01 a       538     0    25     1    10
 -8.8568381665736029E-01 a       539     0    25     1    11
 -7.1645157401341558E-02 a       540     0    25     1    12
  3.1068024992111143E-02 a       541     0    25     1    13
 -9.2950016576149652E-02 a       542     0    25     1    14
  1.0573782081839912E-01 a       543     0    25     1    15
 -8.1151013132109900E-02 a       544     0    25     1    16
  2.0042679030708790E-01 a       545     0    25     1    17
  2.2234888357859614E-01 a       546     0    25     1    18
  7.3274132808665871E-01 a       547     0    25     1    19
  2.8761531640096888E-01 a       548     0    25     1    20
  1.0560268325834465E+00 a       549     0    25     1    21
  1.4509118595348539E-01 a       550     0    25     1    22
  3.6715318301075950E-01 a       551     0    26     1     1
  7.6234246225851743E-01 a       552     0    26     1     2
 -7.7378957527053782E-01 a       553     0    26     1     3
  1.3049949816950663E+00 a       554     0    26     1     4
  9.9452367109520656E-01 a       555     0    26     1     5
 -6.9914507608263649E-02 a       556     0    26     1     6
 -2.3901096275861208E-01 a       557     0    26     1     7
  5.9366538751159881E-01 a       558     0    26     1     8
 -8.9442081686053643E-01 a       559     0    26     1     9
 -1.9887626878160181E-01 a       560     0    26     1    10
 -1.2371955855323186E-01 a       561     0    26     1    11
 -5.1513878134805055E-02 a       562     0    26     1    12
 -2.2761305017653370E+00 a       563     0    26     1    13
  1.2093093941906425E+00 a       564     0    26     1    14
 -8.4205473519440421E-01 a       565     0    26     1    15
  2.2531505429760754E+00 a       566     0    26     1    16
 -9.7105551283253955E-01 a       567     0    26     1    17
  6.3827709894624385E-02 a       568     0    26     1    18
 -5.8184127897581195E-01 a       569     0    26     1    19
  6.4458291113149069E-01 a       570     0    26     1    20
 -3.0343141707841065E-01 a       571     0    26     1    21
 -1.5121405916979427E-01 a       572     0    26     1    22
  1.8244467455265461E+00 a       573     0    27     1     1
 -1.2804095235223989E-01 a       574     0    27     1     2
 -5.7818896282528942E-01 a       575     0    27     1     3
 -2.7798179583703142E-01 a       576     0    27     1     4
  5.0337534460381550E-01 a       577     0    27     1     5
 -4.2230471463847181E-02 a       578     0    27     1     6
  1.5577315008452705E-01 a       579     0    27     1     7
 -5.3537215913345670E-01 a       580     0    27     1     8
 -2.0576858729251719E+00 a       581     0    27     1     9
  6.2730570336726843E-01 a       582     0    27     1    10
  6.9746381247300177E-02 a       583     0    27     1    11
 -2.2118319681572207E+00 a       584     0    27     1    12
 -1.2833886638856880E+00 a       585     0    27     1    13
 -1.6039000404965043E+00 a       586     0    27     1    14
  5.7029331477328560E-01 a       587     0    27     1    15
  8.7155262465833480E-02 a       588     0    27     1    16
 -2.1488138561990169E-01 a       589     0    27     1    17
  3.7687770655509240E-01 a       590     0    27     1    18
 -9.2754814780628114E-01 a       591     0    27     1    19
  9.0728466733195856E-01 a       592     0    27     1    20
 -2.2581835825617122E-01 a       593     0    27     1    21
  7.9910448781203014E-02 a       594     0    27     1    22
 -8.3202424406383799E-02 a       595     0    28     1     1
  2.4895618072837197E-01 a       596     0    28     1     2
  6.1691951561612557E-01 a       597     0    28     1     3
 -4.9964338211621456E-01 a       598     0    28     1     4
  4.2786518917627678E-02 a       599     0    28     1     5
 -2.7081115330490035E-01 a       600     0    28     1     6
 -2.6744746964957972E-01 a       601     0    28     1     7
 -5.2140655739375619E-01 a       602     0    28     1     8
 -1.9208258397021036E-01 a       603     0    28     1     9
 -3.0657849489328520E-01 a       604     0    28     1    10
  6.5056672051828046E-01 a       605     0    28     1    11
  4.8839265774714335E-01 a       606     0    28     1    12
  7.3968148016840138E-02 a       607     0    28     1    13
 -1.2643062406598427E+00 a       608     0    28     1    14
 -2.4654431368237084E-01 a       609     0    28     1    15
  9.1595445218431104E-02 a       610     0    28     1    16
  2.7722871320322212E-01 a       611     0    28     1    17
 -2.6883840222460842E-01 a       612     0    28     1    18
 -6.4547072550202611E-01 a       613     0    28     1    19
 -1.1344208174528276E+00 a       614     0    28     1    20
 -5.9189506624693888E-01 a       615     0    28     1    21
 -7.7965962092595509E-01 a       616     0    28     1    22
 -7.9121159791959805E-01 a       617     0    29     1     1
  2.5864347729591225E-01 a       618     0    29     1     2
 -3.1269099944744344E-01 a       619     0    29     1     3
  8.1752597666217919E-01 a       620     0    29     1     4
 -1.2425126395115098E-01 a       621     0    29     1     5
 -2.3867994394222991E-01 a       622     0    29     1     6
 -2.9112294958200235E-01 a       623     0    29     1     7
  1.7929803148501636E-01 a       624     0    29     1     8
 -1.3144531763408362E+00 a       625     0    29     1     9
  9.1748617097622009E-01 a       626     0    29     1    10
  2.5665654162908697E-01 a       627     0    29     1    11
 -9.9348042460653962E-01 a       628     0    29     1    12
 -1.1032139067956144E+00 a       629     0    29     1    13
  3.5639524705854980E-01 a       630     0    29     1    14
 -9.7787999447451168E-01 a       631     0    29     1    15
  1.7796784959572787E+00 a       632     0    29     1    16
 -4.8427124716090353E-01 a       633     0    29     1    17
  5.7653014226880583E-01 a       634     0    29     1    18
  8.6967994577655738E-01 a       635     0    29     1    19
 -3.7650033958410511E-01 a       636     0    29     1    20
  4.1911094067623672E-01 a       637     0    29     1    21
 -8.3748853772609755E-01 a       638     0    29     1    22
  1.3933805789851730E+00 a       639     0    30     1     1
  2.6108626180646471E-01 a       640     0    30     1     2
  3.0100994460530481E-02 a       641     0    30     1     3
  1.9052464868197791E-01 a       642     0    30     1     4
  1.3761416973499125E+00 a       643     0    30     1     5
 -5.2067163259703098E-01 a       644     0    30     1     6
  5.7877792862666408E-02 a       645     0    30     1     7
  5.2290339276282938E-01 a       646     0    30     1     8
 -6.2047301042475800E-01 a       647     0    30     1     9
 -3.3604549680657841E-01 a       648     0    30     1    10
  4.8546661991594320E-01 a       649     0    30     1    11
 -1.0641778216362072E+00 a       650     0    30     1    12
  5.0735913954510159E-01 a       651     0    30     1    13
 -1.4562118740704599E+00 a       652     0    30     1    14
  2.6692999084459584E-01 a       653     0    30     1    15
  5.3192912981468554E-01 a       654     0    30     1    16
  3.6388318034395561E-01 a       655     0    30     1    17
  1.2503133363990457E+00 a       656     0    30     1    18
  2.3839833308139552E-01 a       657     0    30     1    19
  9.6281092657042788E-01 a       658     0    30     1    20
 -3.4127866791836006E-02 a       659     0    30     1    21
  1.8644049829947802E+00 a       660     0    30     1    22
  3.5490859548742304E-01 a       661     0    31     1     1
  7.3114810130577579E-01 a       662     0    31     1     2
 -5.2955933025530555E-01 a       663     0    31     1     3
 -8.4937685288822506E-01 a       664     0    31     1     4
 -1.2112397715551404E-01 a       665     0    31     1     5
 -5.2553635186893288E-01 a       666     0    31     1     6
 -5.9863289410649179E-01 a       667     0    31     1     7
 -2.9386837820223410E-01 a       668     0    31     1     8
 -5.9212321409300539E-01 a       669     0    31     1     9
  4.6067960750101755E-01 a       670     0    31     1    10
  7.1884312351214597E-01 a       671     0    31     1    11
  7.9127449946659412E-01 a       672     0    31     1    12
  8.0392066978513477E-02 a       673     0    31     1    13
 -1.0329236615767874E+00 a       674     0    31     1    14
  4.5631729523495444E-02 a       675     0    31     1    15
 -4.1508071310430816E-01 a       676     0    31     1    16
  9.5078365334125792E-01 a       677     0    31     1    17
 -4.8499886770618478E-01 a       678     0    31     1    18
 -8.7262300965105544E-01 a       679     0    31     1    19
  4.9345540156944612E-01 a       680     0    31     1    20
  7.4317662127722672E-01 a       681     0    31     1    21
 -6.8591632949447123E-01 a       682     0    31     1    22
 -6.0370771238419174E-01 a       683     0    32     1     1
  9.3506227967584832E-01 a       684     0    32     1     2
  9.3925495722079455E-01 a       685     0    32     1     3
  1.2170126329683515E+00 a       686     0    32     1     4
  1.2192752905036747E-01 a       687     0    32     1     5
  7.5806365303204426E-01 a       688     0    32     1     6
  4.1278035665951335E-01 a       689     0    32     1     7
  2.7224814434380346E-01 a       690     0    32     1     8
 -3.0745382341831518E-01 a       691     0    32     1     9
 -5.1367538342187047E-01 a       692     0    32     1    10
  1.7388834626169852E-01 a       693     0    32     1    11
 -3.3169286413235882E-02 a       694     0    32     1    12
 -3.8016974090548211E-01 a       695     0    32     1    13
  1.0841619513138381E+00 a       696     0    32     1    14
 -1.4303137716196919E+00 a       697     0    32     1    15
 -2.8939586168973680E-01 a       698     0    32     1    16
  8.7979909499382591E-01 a       699     0    32     1    17
  6.3705212420259533E-02 a       700     0    32     1    18
  5.8793593638950914E-01 a       701     0    32     1    19
  8.1778800668182189E-02 a       702     0    32     1    20
  5.0475620195820226E-01 a       703     0    32     1    21
 -9.3258621957700993E-01 a       704     0    32     1    22
 -8.2440852671002895E-01 a       705     0    33     1     1
 -5.5484700664183950E-01 a       706     0    33     1     2
  8.3169503296742009E-01 a       707     0    33     1     3
  8.0086060999755959E-02 a       708     0    33     1     4
 -1.1098501649219634E+00 a       709     0    33     1     5
  1.6974088867762189E+00 a       710     0    33     1     6
 -4.0888841444898294E-01 a       711     0    33     1     7
  6.7857758728657980E-01 a       712     0    33     1     8
  1.6877165239582215E+00 a       713     0    33     1     9
 -4.1639622720721012E-02 a       714     0    33     1    10
  1.1325748963808566E+00 a       715     0    33     1    11
  9.1516461426264861E-01 a       716     0    33     1    12
 -3.1893745495978620E-01 a       717     0    33     1    13
  5.0146290318857789E-01 a       718     0    33     1    14
 -3.6795840866669577E-01 a       719     0    33     1    15
 -8.3743001444869580E-01 a       720     0    33     1    16
 -1.3351653851270631E-01 a       721     0    33     1    17
 -7.7163689823295634E-02 a       722     0    33     1    18
  6.9197076427643867E-01 a       723     0    33     1    19
 -7.2799809708039254E-01 a       724     0    33     1    20
  7.8800539008649451E-01 a       725     0    33     1    21
 -4.1679648371492700E-01 a       726     0    33     1    22
 -5.8323323449100273E-01 a       727     0    34     1     1
 -2.6161091854141433E-01 a       728     0    34     1     2
 -5.5267695440180242E-01 a       729     0    34     1     3
  6.1425406396629800E-01 a       730     0    34     1     4
 -3.6355692080090024E-01 a       731     0    34     1     5
  3.1500520453153014E-01 a       732     0    34     1     6
  1.8092756704331056E-01 a       733     0    34     1     7
 -6.9828819456745650E-01 a       734     0    34     1     8
 -1.1312194412419621E-01 a       735     0    34     1     9
  1.6974106918891060E-01 a       736     0    34     1    10
  1.0633338781103963E+00 a       737     0    34     1    11
 -1.9184217134879247E-01 a       738     0    34     1    12
 -2.3905775949342883E-01 a       739     0    34     1    13
  3.1109531784442124E-01 a       740     0    34     1    14
 -7.1864097640090163E-01 a       741     0    34     1    15
  1.0527816526564311E+00 a       742     0    34     1    16
 -8.4073551073784036E-01 a       743     0    34     1    17
 -5.8995039865532428E-01 a       744     0    34     1    18
  3.2269943708933801E-01 a       745     0    34     1    19
  4.7234832030002638E-01 a       746     0    34     1    20
  2.7649363466524518E-01 a       747     0    34     1    21
 -4.3378273514411059E-01 a       748     0    34     1    22
 -8.2552482314277753E-01 a       749     0    35     1     1
 -1.6733035189172457E-01 a       750     0    35     1     2
  9.5401231886724003E-01 a       751     0    35     1     3
  1.2679449707686088E+00 a       752     0    35     1     4
  2.1116372650627699E+00 a       753     0    35     1     5
  1.8384318664510353E+00 a       754     0    35     1     6
 -1.0827531222157039E-02 a       755     0    35     1     7
  6.1076090478472933E-01 a       756     0    35     1     8
 -1.5136979763146219E-01 a       757     0    35     1     9
 -8.4606823617867799E-01 a       758     0    35     1    10
 -5.3111139362524895E-01 a       759     0    35     1    11
  1.0979236227011659E+00 a       760     0    35     1    12
 -5.6986657375712424E-01 a       761     0    35     1    13
  5.4227936638437213E-01 a       762     0    35     1    14
  5.0749801962271901E-01 a       763     0    35     1    15
 -9.9231149622949322E-01 a       764     0    35     1    16
 -1.2670074875712964E+00 a       765     0    35     1    17
  9.0519427987800716E-01 a       766     0    35     1    18
  2.4396770594715175E-01 a       767     0    35     1    19
 -2.6726267953575533E-01 a       768     0    35     1    20
  3.4864402911342762E-01 a       769     0    35     1    21
  2.7802036062478874E-01 a       770     0    35     1    22
 -6.2847785620856078E-01 a       771     0    36     1     1
  7.3623761181765679E-01 a       772     0    36     1     2
  9.5201586311402375E-01 a       773     0    36     1     3
  6.7759620158761358E-01 a       774     0    36     1     4
  1.0122581300716500E-01 a       775     0    36     1     5
 -3.7393318933036745E-01 a       776     0    36     1     6
  4.5905497893441927E-01 a       777     0    36     1     7
 -6.5664396393995639E-01 a       778     0    36     1     8
 -5.5549921068265100E-04 a       779     0    36     1     9
 -1.8076958548702096E-01 a       780     0    36     1    10
  1.0032816613215356E+00 a       781     0    36     1    11
  1.8998701973311333E-01 a       782     0    36     1    12
 -4.7840321878524733E-01 a       783     0    36     1    13
 -4.7853489457799014E-01 a       784     0    36     1    14
 -2.1929326822505590E+00 a       785     0    36     1    15
  4.6165237437875306E-01 a       786     0    36     1    16
  2.9626808154525269E-01 a       787     0    36     1    17
  2.3014275866405265E-01 a       788     0    36     1    18
 -8.9567628434464119E-01 a       789     0    36     1    19
  5.4841971946780188E-01 a       790     0    36     1    20
 -6.4935914691780439E-01 a       791     0    36     1    21
 -1.7340591575881406E-01 a       792     0    36     1    22
 -3.6849957510150017E-01 a       793     0    37     1     1
 -5.6548284411377447E-01 a       794     0    37     1     2
  4.5161425407961964E-01 a       795     0    37     1     3
  1.8650911087368274E-01 a       796     0    37     1     4
 -9.5000732327957152E-02 a       797     0    37     1     5
 -9.9446846716126958E-01 a       798     0    37     1     6
  5.4639169576784684E-02 a       799     0    37     1     7
  8.5349754104518216E-01 a       800     0    37     1     8
  9.5540466707395111E-01 a       801     0    37     1     9
  8.5046338298867863E-01 a       802     0    37     1    10
  4.5883015607566868E-01 a       803     0    37     1    11
  8.6156640029339870E-01 a       804     0    37     1    12
  1.1707015044313041E+00 a       805     0    37     1    13
 -6.7501414854562547E-01 a       806     0    37     1    14
  5.8794830016161215E-01 a       807     0    37     1    15
 -7.9106333608337742E-01 a       808     0    37     1    16
  8.3838042475543684E-01 a       809     0    37     1    17
  3.2938004230182516E-01 a       810     0    37     1    18
 -4.0835621014909423E-01 a       811     0    37     1    19
  1.1391994196759491E-02 a       812     0    37     1    20
  3.5969717919746202E-01 a       813     0    37     1    21
 -1.5482309894845900E-01 a       814     0    37     1    22
 -4.2459027646784542E-01 a       815     0    38     1     1
 -5.2460648261446141E-01 a       816     0    38     1     2
  9.1103820489394216E-01 a       817     0    38     1     3
 -6.8423178958844075E-02 a       818     0    38     1     4
 -1.0919962696867802E-01 a       819     0    38     1     5
  9.9351127678135720E-01 a       820     0    38     1     6
  1.0372613942275136E-01 a       821     0    38     1     7
 -6.1801929700974279E-01 a       822     0    38     1     8
 -1.0400482758128291E+00 a       823     0    38     1     9
 -7.3871592473952274E-01 a       824     0    38     1    10
  7.4890259534508219E-01 a       825     0    38     1    11
 -7.2545453374660362E-01 a       826     0    38     1    12
 -1.2769088174150336E+00 a       827     0    38     1    13
 -4.0449897903652215E-01 a       828     0    38     1    14
  4.4604244454536163E-01 a       829     0    38     1    15
  2.5977786781424506E-01 a       830     0    38     1    16
  4.7027592803328616E-01 a       831     0    38     1    17
  1.6673887319023070E-01 a       832     0    38     1    18
  8.8706946249763630E-01 a       833     0    38     1    19
 -6.2106236965449535E-02 a       834     0    38     1    20
 -4.3712628418012760E-02 a       835     0    38     1    21
 -1.4267966989683687E-02 a       836     0    38     1    22
  7.3419472768902561E-01 a       837     0    39     1     1
  2.3631118068598586E-01 a       838     0    39     1     2
 -1.2380710095777292E-01 a       839     0    39     1     3
 -6.0218495777848635E-01 a       840     0    39     1     4
 -2.2229342656967224E-01 a       841     0    39     1     5
 -3.2421940979642677E-01 a       842     0    39     1     6
  2.7618761089286292E-01 a       843     0    39     1     7
 -2.0910025590577602E-01 a       844     0    39     1     8
 -5.4612515413313474E-02 a       845     0    39     1     9
 -4.4278131417549077E-01 a       846     0    39     1    10
 -4.6471082889966164E-01 a       847     0    39     1    11
 -1.2123526524483219E+00 a       848     0    39     1    12
 -6.2291441577569129E-01 a       849     0    39     1    13
 -6.4088554901820069E-02 a       850     0    39     1    14
 -5.4246099687652372E-01 a       851     0    39     1    15
  1.5101022942613687E+00 a       852     0    39     1    16
 -3.0141340910151687E-01 a       853     0    39     1    17
  3.6980097935025513E-01 a       854     0    39     1    18
  9.6933109547569052E-01 a       855     0    39     1    19
  4.3041466595276506E-01 a       856     0    39     1    20
  8.0951310890002071E-01 a       857     0    39     1    21
 -7.9484955857212780E-01 a       858     0    39     1    22
 -8.8761518039181586E-01 a       859     0    40     1     1
  2.2259212433536060E-01 a       860     0    40     1     2
 -7.5020279386061628E-01 a       861     0    40     1     3
 -1.0425790696118289E+00 a       862     0    40     1     4
 -9.1291031639565301E-01 a       863     0    40     1     5
 -1.0605218605203723E+00 a       864     0    40     1     6
 -5.8394108570917092E-01 a       865     0    40     1     7
  1.8377948331936958E-01 a       866     0    40     1     8
  8.1359992198486308E-01 a       867     0    40     1     9
  1.1626487092245392E+00 a       868     0    40     1    10
  2.9498629178601898E-01 a       869     0    40     1    11
  1.1345806460880692E-01 a       870     0    40     1    12
  6.6850083559693274E-01 a       871     0    40     1    13
 -2.2849641172509480E-01 a       872     0    40     1    14
 -7.0830197038297391E-02 a       873     0    40     1    15
 -1.1294238563100634E+00 a       874     0    40     1    16
 -3.2093584049222290E-01 a       875     0    40     1    17
  7.6577298322772758E-01 a       876     0    40     1    18
 -5.6691121813294498E-01 a       877     0    40     1    19
  8.7385651791123076E-01 a       878     0    40     1    20
  8.9558197552759888E-01 a       879     0    40     1    21
 -1.8704212436543834E-02 a       880     0    40     1    22
 -4.6482724996916464E-01 a       881     0    41     1     1
  1.6724672179805730E-01 a       882     0    41     1     2
  2.1503606179495477E-01 a       883     0    41     1     3
 -3.5564067104110109E-01 a       884     0    41     1     4
 -2.0895969714496246E-01 a       885     0    41     1     5
 -1.9763091991014362E-01 a       886     0    41     1     6
  1.2156209267392611E-01 a       887     0    41     1     7
 -2.1481389937465781E-01 a       888     0    41     1     8
 -4.2113325877558927E-01 a       889     0    41     1     9
  4.4189081012169779E-01 a       890     0    41     1    10
 -1.2558448505983993E-01 a       891     0    41     1    11
 -1.8751505475182612E-01 a       892     0    41     1    12
  1.0944977461772820E+00 a       893     0    41     1    13
 -2.8947174398264046E-02 a       894     0    41     1    14
  1.0803826301527892E+00 a       895     0    41     1    15
 -1.0124390084430870E+00 a       896     0    41     1    16
  4.4756778128671171E-01 a       897     0    41     1    17
 -5.1509207573138177E-02 a       898     0    41     1    18
  7.6551936425044453E-01 a       899     0    41     1    19
  5.4055862619828576E-01 a       900     0    41     1    20
  4.3897516692241112E-01 a       901     0    41     1    21
 -4.0403753089694688E-01 a       902     0    41     1    22
 -3.7513185539685429E-01 a       903     0    42     1     1
 -1.4220707202671851E-02 a       904     0    42     1     2
  1.1232982377736397E-01 a       905     0    42     1     3
 -8.9391546425147794E-01 a       906     0    42     1     4
 -3.9096050170598182E-02 a       907     0    42     1     5
  7.8034520355616588E-01 a       908     0    42     1     6
  4.5432754251241358E-01 a       909     0    42     1     7
 -1.2692884383549523E+00 a       910     0    42     1     8
 -1.0834305487977940E+00 a       911     0    42     1     9
  2.3879042192246536E-01 a       912     0    42     1    10
 -5.1252093655081254E-01 a       913     0    42     1    11
 -8.6717655656799197E-01 a       914     0    42     1    12
 -1.2642302576640885E+00 a       915     0    42     1    13
  4.4577467584422137E-01 a       916     0    42     1    14
 -1.2596218334645852E+00 a       917     0    42     1    15
 -3.9957824930534430E-01 a       918     0    42     1    16
  4.5148307539474730E-01 a       919     0    42     1    17
  5.1777146948861735E-02 a       920     0    42     1    18
 -6.3011089154399014E-01 a       921     0    42     1    19
  4.3292097270366908E-01 a       922     0    42     1    20
  4.7099510819071305E-01 a       923     0    42     1    21
  8.0800978809379156E-02 a       924     0    42     1    22
 -1.8658199726078992E-01 a       925     0    43     1     1
 -2.5689192948251027E-01 a       926     0    43     1     2
  6.0190697611320210E-01 a       927     0    43     1     3
 -2.4752435246543913E-01 a       928     0    43     1     4
  7.7210604101507707E-01 a       929     0    43     1     5
  6.6325894182148751E-02 a       930     0    43     1     6
 -1.6047985165900783E-02 a       931     0    43     1     7
 -3.7825869916426075E-01 a       932     0    43     1     8
 -3.1518837502034125E-01 a       933     0    43     1     9
 -9.0673192435819505E-01 a       934     0    43     1    10
  4.9720733275167822E-01 a       935     0    43     1    11
 -5.9616266894881187E-01 a       936     0    43     1    12
 -1.1423907707759811E+00 a       937     0    43     1    13
  5.6416740071013417E-02 a       938     0    43     1    14
  9.9635665518814787E-01 a       939     0    43     1    15
  8.9538230769371077E-02 a       940     0    43     1    16
 -5.6633094472841317E-01 a       941     0    43     1    17
  1.1147574161132856E+00 a       942     0    43     1    18
  9.2602175358619276E-01 a       943     0    43     1    19
  4.2229143310970740E-01 a       944     0    43     1    20
 -2.0900889384458870E-02 a       945     0    43     1    21
 -6.9666487646082176E-01 a       946     0    43     1    22
 -1.5863697907596281E+00 a       947     0    44     1     1
 -1.6249880508796060E-03 a       948     0    44     1     2
  7.2805197920629372E-01 a       949     0    44     1     3
 -2.1890027553301170E-01 a       950     0    44     1     4
  6.4061376726200636E-01 a       951     0    44     1     5
 -1.8002880403553090E-01 a       952     0    44     1     6
  2.6478043105687582E-01 a       953     0    44     1     7
 -9.3034630947368691E-01 a       954     0    44     1     8
 -5.7327727850965704E-01 a       955     0    44     1     9
  7.2851580626605972E-01 a       956     0    44     1    10
  1.0243145454133864E+00 a       957     0    44     1    11
 -4.0730938302670477E-01 a       958     0    44     1    12
 -1.5397027299030726E-02 a       959     0    44     1    13
 -6.0877103417078415E-01 a       960     0    44     1    14
 -5.3755957024485301E-01 a       961     0    44     1    15
  4.8767897859311632E-01 a       962     0    44     1    16
  6.0955852591084998E-02 a       963     0    44     1    17
 -1.7925874191943003E-01 a       964     0    44     1    18
 -8.7438567591950622E-01 a       965     0    44     1    19
 -1.4846578123336024E-01 a       966     0    44     1    20
 -1.0166870677600237E+00 a       967     0    44     1    21
  5.8991047649097317E-01 a       968     0    44     1    22
 -1.3412824977102186E-01 a       969     0    45     1     1
 -3.4522358969675138E-01 a       970     0    45     1     2
 -4.6321875565903298E-01 a       971     0    45     1     3
  2.0988208373170647E-01 a       972     0    45     1     4
  7.0521272137494928E-01 a       973     0    45     1     5
 -3.3422910593351496E-01 a       974     0    45     1     6
 -1.4334403754658478E-01 a       975     0    45     1     7
 -1.1877016868473684E+00 a       976     0    45     1     8
 -4.3970045868976554E-01 a       977     0    45     1     9
 -4.9185804973878694E-01 a       978     0    45     1    10
  1.2495870447246522E-02 a       979     0    45     1    11
  4.8996642030468207E-01 a       980     0    45     1    12
  5.5348722571533115E-01 a       981     0    45     1    13
  1.1818358193786753E+00 a       982     0    45     1    14
 -5.9889689386137283E-03 a       983     0    45     1    15
 -1.6722617246715896E-01 a       984     0    45     1    16
 -2.9079007815221775E-01 a       985     0    45     1    17
 -1.4770318385975381E+00 a       986     0    45     1    18
  6.6047358840200243E-01 a       987     0    45     1    19
  5.6333432210977530E-01 a       988     0    45     1    20
  4.5203345159993735E-01 a       989     0    45     1    21
  1.0687521588063484E+00 a       990     0    45     1    22
  3.6061001855550073E-01 a       991     0    46     1     1
  6.9834840222184569E-01 a       992     0    46     1     2
  8.0007915741117097E-01 a       993     0    46     1     3
 -4.8933381347658073E-01 a       994     0    46     1     4
  9.6906477791457668E-01 a       995     0    46     1     5
  1.0257245510395752E-01 a       996     0    46     1     6
 -4.1801703617820724E-01 a       997     0    46     1     7
 -4.8087783994815053E-01 a       998     0    46     1     8
 -6.1754664695017480E-01 a       999     0    46     1     9
  1.0060071237106956E+00 a      1000     0    46     1    10
  4.8230390931635794E-02 a      1001     0    46     1    11
  3.6042754012728873E-01 a      1002     0    46     1    12
 -9.6951575315636163E-01 a      1003     0    46     1    13
  1.7467750090449391E-01 a      1004     0    46     1    14
  3.8807555101022873E-01 a      1005     0    46     1    15
  2.3916465188327410E-01 a      1006     0    46     1    16
  5.9732308699498804E-01 a      1007     0    46     1    17
  2.8124259994666806E-01 a      1008     0    46     1    18
  4.9777035783875484E-01 a      1009     0    46     1    19
 -4.2589607542401481E-01 a      1010     0    46     1    20
  4.2868201100214992E-01 a      1011     0    46     1    21
  1.3451050069891404E-01 a      1012     0    46     1    22
 -2.0470135692537117E-01 a      1013     0    47     1     1
 -5.0687430678173351E-01 a      1014     0    47     1     2
 -8.6205928110680763E-01 a      1015     0    47     1     3
 -1.3007581908521840E-01 a      1016     0    47     1     4
  1.6369137884796956E+00 a      1017     0    47     1     5
  2.6551645314883920E-01 a      1018     0    47     1     6
  5.7650233172596921E-01 a      1019     0    47     1     7
  1.2641184195068464E+00 a      1020     0    47     1     8
 -1.1868323701765995E+00 a      1021     0    47     1     9
  1.3689469464708450E-02 a      1022     0    47     1    10
  5.8017542695607471E-01 a      1023     0    47     1    11
 -8.4321476805987605E-01 a      1024     0    47     1    12
 -1.1606448894737146E-02 a      1025     0    47     1    13
  1.7575254812648275E-03 a      1026     0    47     1    14
 -6.2319305238756784E-01 a      1027     0    47     1    15
  7.4231116380551609E-01 a      1028     0    47     1    16
 -3.4911630870401333E-01 a      1029     0    47     1    17
 -1.1006187872763167E+00 a      1030     0    47     1    18
 -1.4457152046448160E-01 a      1031     0    47     1    19
 -1.9567892654621732E-01 a      1032     0    47     1    20
 -1.0797728996489311E-01 a      1033     0    47     1    21
  6.6308411154761404E-01 a      1034     0    47     1    22
  6.9413529509994809E-01 a      1035     0    48     1     1
 -1.9407801386146600E-01 a      1036     0    48     1     2
  4.2768475326407879E-01 a      1037     0    48     1     3
  8.1622834050360560E-01 a      1038     0    48     1     4
  3.3191548455442477E-01 a      1039     0    48     1     5
  3.0046861035276123E-01 a      1040     0    48     1     6
  3.1099290607383590E-02 a      1041     0    48     1     7
  1.4633449784009394E-03 a      1042     0    48     1     8
  7.4707845580458832E-01 a      1043     0    48     1     9
 -6.5866585734383165E-01 a      1044     0    48     1    10
  1.7068294357597871E+00 a      1045     0    48     1    11
  3.5698525931219316E-01 a      1046     0    48     1    12
 -1.8651786613435725E-01 a      1047     0    48     1    13
 -2.6414951903436068E-01 a      1048     0    48     1    14
 -1.4295509222874081E+00 a      1049     0    48     1    15
 -5.2214616013903849E-02 a      1050     0    48     1    16
 -4.4435071686066346E-01 a      1051     0    48     1    17
 -4.7020134156383248E-01 a      1052     0    48     1    18
  8.8629021378328476E-01 a      1053     0    48     1    19
 -6.9548744416033925E-01 a      1054     0    48     1    20
 -9.2832732966271081E-01 a      1055     0    48     1    21
  2.3292118577787008E-01 a      1056     0    48     1    22
 -1.0219320870072770E+00 a      1057     0    49     1     1
 -3.1986836760711213E-01 a      1058     0    49     1     2
 -5.5936514439734542E-01 a      1059     0    49     1     3
 -4.9552903944184340E-01 a      1060     0    49     1     4
 -6.8799873968575653E-01 a      1061     0    49     1     5
  1.9885894792085867E-02 a      1062     0    49     1     6
  1.9805223075091355E-01 a      1063     0    49     1     7
 -7.9413333700697597E-01 a      1064     0    49     1     8
  1.2112566996182818E-01 a      1065     0    49     1     9
  7.4972115348772839E-01 a      1066     0    49     1    10
  6.6071012266944440E-01 a      1067     0    49     1    11
 -6.8624317154392123E-01 a      1068     0    49     1    12
  1.4221930594140357E+00 a      1069     0    49     1    13
 -1.2349593184148612E-01 a      1070     0    49     1    14
 -9.4843757330001099E-01 a      1071     0    49     1    15
 -2.5013937907352229E-01 a      1072     0    49     1    16
  1.4396086764630708E-01 a      1073     0    49     1    17
 -7.0917737307188228E-02 a      1074     0    49     1    18
  3.5429471058250050E-01 a      1075     0    49     1    19
  3.1150706067543277E-01 a      1076     0    49     1    20
 -6.3075571962152277E-01 a      1077     0    49     1    21
  9.0245810144931826E-01 a      1078     0    49     1    22
 -4.8565561106583488E-01 a      1079     0    50     1     1
 -3.3744422590601442E-01 a      1080     0    50     1     2
  2.8119500127710445E-01 a      1081     0    50     1     3
  9.6537419632408439E-01 a      1082     0    50     1     4
 -1.7334217637671706E-01 a      1083     0    50     1     5
 -4.1643904979021579E-01 a      1084     0    50     1     6
  1.0010867374700851E+00 a      1085     0    50     1     7
  6.7932920672027364E-01 a      1086     0    50     1     8
 -7.0128674412795233E-01 a      1087     0    50     1     9
  1.8348101420468757E-01 a      1088     0    50     1    10
  6.9402588066589888E-01 a      1089     0    50     1    11
  9.4943228211422248E-01 a      1090     0    50     1    12
 -6.6551887369762897E-01 a      1091     0    50     1    13
 -3.0650327534138638E-01 a      1092     0    50     1    14
  3.8916891464088284E-02 a      1093     0    50     1    15
 -8.5837899721297947E-02 a      1094     0    50     1    16
  3.9150992976005505E-01 a      1095     0    50     1    17
 -4.9444161865449282E-01 a      1096     0    50     1    18
  3.7871530216637289E-01 a      1097     0    50     1    19
  2.7461660497585760E-01 a      1098     0    50     1    20
  4.7701771301089091E-01 a      1099     0    50     1    21
 -6.6987019393711789E-01 a      1100     0    50     1    22
  1.5809562232145404E+00 a      1101     0    51     1     1
 -1.1824331413241969E+00 a      1102     0    51     1     2
 -8.6705066438451842E-02 a      1103     0    51     1     3
 -6.4732128653540488E-01 a      1104     0    51     1     4
 -1.4885388863459750E-01 a      1105     0    51     1     5
 -1.0128637112736103E+00 a      1106     0    51     1     6
 -1.5157707032654796E-01 a      1107     0    51     1     7
 -8.1430559236577704E-01 a      1108     0    51     1     8
  9.4315882945361362E-01 a      1109     0    51     1     9
  4.6730117264329840E-01 a      1110     0    51     1    10
 -5.6192141556861579E-02 a      1111     0    51     1    11
  2.9813494655366374E-01 a      1112     0    51     1    12
  7.4726900000078189E-01 a      1113     0    51     1    13
  7.3310975888690577E-01 a      1114     0    51     1    14
  7.9261806206973387E-02 a      1115     0    51     1    15
  1.1056475586562216E+00 a      1116     0    51     1    16
 -1.5995108557925908E-01 a      1117     0    51     1    17
  2.0241413025905799E-01 a      1118     0    51     1    18
 -7.4628235710614321E-01 a      1119     0    51     1    19
 -1.9670515984619452E-01 a      1120     0    51     1    20
 -9.0346744026407710E-01 a      1121     0    51     1    21
  8.9146128707774663E-01 a      1122     0    51     1    22
  1.1314974252083070E-01 a      1123     0    52     1     1
 -6.7653961042720079E-01 a      1124     0    52     1     2
  8.7501136336180430E-01 a      1125     0    52     1     3
 -8.6305125203992583E-01 a      1126     0    52     1     4
 -1.5552509261737748E+00 a      1127     0    52     1     5
  1.3770127322912440E-01 a      1128     0    52     1     6
 -1.1425288731678328E-03 a      1129     0    52     1     7
  6.6873743128367402E-01 a      1130     0    52     1     8
  2.6316273699824468E+00 a      1131     0    52     1     9
  8.5576111356558660E-01 a      1132     0    52     1    10
 -4.9569583183284954E-01 a      1133     0    52     1    11
 -1.1762756888204404E+00 a      1134     0    52     1    12
  8.1458278129821204E-01 a      1135     0    52     1    13
  7.6227069785508261E-01 a      1136     0    52     1    14
 -3.7696735097169509E-01 a      1137     0    52     1    15
  1.5019565643962141E-01 a      1138     0    52     1    16
  9.0045323546309608E-01 a      1139     0    52     1    17
  1.7514503488310507E+00 a      1140     0    52     1    18
  1.3060968188388589E-01 a      1141     0    52     1    19
 -7.2145518156607513E-01 a      1142     0    52     1    20
 -7.6191770446201723E-01 a      1143     0    52     1    21
 -2.4938560965793247E-01 a      1144     0    52     1    22
  7.7796631870905697E-01 a      1145     0    53     1     1
  7.0835877124536339E-01 a      1146     0    53     1     2
 -3.5377541914387289E-01 a      1147     0    53     1     3
 -3.3300999577971158E-01 a      1148     0    53     1     4
  2.6483974550660322E-01 a      1149     0    53     1     5
  4.6097397283206432E-01 a      1150     0    53     1     6
 -1.7928663101900535E-01 a      1151     0    53     1     7
 -8.2555082267163182E-01 a      1152     0    53     1     8
  3.9216789494132442E-01 a      1153     0    53     1     9
 -9.4215433194828024E-01 a      1154     0    53     1    10
 -1.9458061078629016E-01 a      1155     0    53     1    11
  1.4752453775415308E-01 a      1156     0    53     1    12
  7.1817243572511191E-01 a      1157     0    53     1    13
  3.3169495768424401E-01 a      1158     0    53     1    14
 -1.0047207322399110E+00 a      1159     0    53     1    15
  9.9817976232618422E-01 a      1160     0    53     1    16
  1.7396055839314348E-01 a      1161     0    53     1    17
  5.8084015580353199E-02 a      1162     0    53     1    18
 -6.8731771388143403E-01 a      1163     0    53     1    19
  8.5287254209422880E-01 a      1164     0    53     1    20
  7.6295220214325499E-01 a      1165     0    53     1    21
 -6.5316899358967923E-02 a      1166     0    53     1    22
  1.0426278121327594E-01 a      1167     0    54     1     1
 -6.1176372478355923E-01 a      1168     0    54     1     2
 -1.2766119656876626E-01 a      1169     0    54     1     3
 -5.3980605614365262E-01 a      1170     0    54     1     4
 -1.0722868494593711E+00 a      1171     0    54     1     5
  1.0483166108731938E+00 a      1172     0    54     1     6
 -2.0957502272599231E-02 a      1173     0    54     1     7
 -1.3830926350927899E+00 a      1174     0    54     1     8
  1.1715683833131827E+00 a      1175     0    54     1     9
  1.1916340415953000E+00 a      1176     0    54     1    10
 -1.6205291259649598E-01 a      1177     0    54     1    11
 -1.5443057781874311E-01 a      1178     0    54     1    12
  2.2032834559886216E-01 a      1179     0    54     1    13
 -9.5374612924317670E-01 a      1180     0    54     1    14
  4.1438794709701748E-01 a      1181     0    54     1    15
  5.9293029478245796E-01 a      1182     0    54     1    16
 -1.6604337156440382E-01 a      1183     0    54     1    17
  1.2988347694295512E+00 a      1184     0    54     1    18
  8.7187597233928871E-01 a      1185     0    54     1    19
 -7.6619425351730608E-01 a      1186     0    54     1    20
  3.3576333278065085E-01 a      1187     0    54     1    21
 -5.4879411747252138E-01 a      1188     0    54     1    22
 -3.5772317498305939E-01 a      1189     0    55     1     1
  8.1382136770903835E-01 a      1190     0    55     1     2
  5.7634262979526307E-01 a      1191     0    55     1     3
  1.7689475349891384E-03 a      1192     0    55     1     4
 -1.8659816974907417E+00 a      1193     0    55     1     5
 -5.8802160425904360E-01 a      1194     0    55     1     6
 -6.5476501022457922E-01 a      1195     0    55     1     7
 -1.3914084167137684E+00 a      1196     0    55     1     8
  2.1967080583150449E+00 a      1197     0    55     1     9
 -6.6210965881053616E-02 a      1198     0    55     1    10
 -1.0682638893924068E+00 a      1199     0    55     1    11
 -7.1853603749572159E-01 a      1200     0    55     1    12
  1.6086866054708022E+00 a      1201     0    55     1    13
  3.1620333264058637E-01 a      1202     0    55     1    14
  1.6303053858479553E-02 a      1203     0    55     1    15
 -5.2634276057536650E-02 a      1204     0    55     1    16
  1.2023171035364506E+00 a      1205     0    55     1    17
  1.5714976569983927E+00 a      1206     0    55     1    18
  4.4559264498716666E-02 a      1207     0    55     1    19
 -5.6562549866578035E-02 a      1208     0    55     1    20
 -8.0967910333538740E-01 a      1209     0    55     1    21
 -6.9490675906910904E-01 a      1210     0    55     1    22
 -6.8941224819650940E-02 a      1211     0    56     1     1
 -1.5423740331029093E-01 a      1212     0    56     1     2
  6.2664652884054628E-01 a      1213     0    56     1     3
  3.0291091496775691E-01 a      1214     0    56     1     4
  1.9052268843019036E+00 a      1215     0    56     1     5
  7.8865783591529437E-01 a      1216     0    56     1     6
  6.6122986511951709E-01 a      1217     0    56     1     7
 -9.1296956405268703E-01 a      1218     0    56     1     8
  2.8616922269924483E-01 a      1219     0    56     1     9
 -1.0089195879341644E+00 a      1220     0    56     1    10
 -6.6528046869472879E-01 a      1221     0    56     1    11
 -6.1764400289063603E-01 a      1222     0    56     1    12
 -2.9978725617496843E-01 a      1223     0    56     1    13
  2.4586399747441290E-01 a      1224     0    56     1    14
 -7.0792104220343777E-01 a      1225     0    56     1    15
 -6.2841651985764746E-02 a      1226     0    56     1    16
  9.1960237307554926E-01 a      1227     0    56     1    17
 -4.4725867304232297E-01 a      1228     0    56     1    18
 -6.0423402183031560E-01 a      1229     0    56     1    19
  1.7956912867145289E-01 a      1230     0    56     1    20
 -1.3325887602731092E-02 a      1231     0    56     1    21
 -1.3974991935472296E+00 a      1232     0    56     1    22
 -3.8724356182233022E-01 a      1233     0    57     1     1
 -6.6251576510166355E-01 a      1234     0    57     1     2
  9.5980029046755289E-01 a      1235     0    57     1     3
  8.8721893000068386E-01 a      1236     0    57     1     4
  1.4965845339329595E-01 a      1237     0    57     1     5
 -4.1674424402223492E-01 a      1238     0    57     1     6
 -2.1592135532770954E-01 a      1239     0    57     1     7
 -8.7990540653151372E-01 a      1240     0    57     1     8
 -1.0049459027325216E+00 a      1241     0    57     1     9
  1.6925174910040350E-01 a      1242     0    57     1    10
 -5.4097172721868814E-01 a      1243     0    57     1    11
 -2.0562399210565134E+00 a      1244     0    57     1    12
 -1.5074402090262240E+00 a      1245     0    57     1    13
  9.8160242745729387E-01 a      1246     0    57     1    14
 -6.6208098651875769E-01 a      1247     0    57     1    15
  2.9032178514157403E-01 a      1248     0    57     1    16
  1.0530347370165254E+00 a      1249     0    57     1    17
  6.9274260532837939E-01 a      1250     0    57     1    18
 -3.2971901892379429E-01 a      1251     0    57     1    19
 -7.0562286885635106E-01 a      1252     0    57     1    20
  9.6931622728090139E-02 a      1253     0    57     1    21
  8.1552290087536339E-01 a      1254     0    57     1    22
  2.4178108684152302E-01 a      1255     0    58     1     1
  3.4441225004346993E-01 a      1256     0    58     1     2
 -1.0484723836272951E+00 a      1257     0    58     1     3
 -5.2008632501620589E-01 a      1258     0    58     1     4
  4.6162210949999583E-01 a      1259     0    58     1     5
  1.2686530831907325E-01 a      1260     0    58     1     6
 -1.1362067957856168E+00 a      1261     0    58     1     7
  3.6283032129634468E-01 a      1262     0    58     1     8
 -9.1555895459127767E-01 a      1263     0    58     1     9
 -1.4838605465739985E+00 a      1264     0    58     1    10
 -9.3710196860737882E-01 a      1265     0    58     1    11
 -2.1035208441189499E-01 a      1266     0    58     1    12
  5.5485977819891574E-01 a      1267     0    58     1    13
 -1.7204111976704117E+00 a      1268     0    58     1    14
 -4.5008741025097843E-01 a      1269     0    58     1    15
  3.3051274669661984E-01 a      1270     0    58     1    16
 -1.0194297800441516E+00 a      1271     0    58     1    17
 -8.1977864067412642E-01 a      1272     0    58     1    18
  1.2380481017881577E+00 a      1273     0    58     1    19
 -4.1619806967052037E-01 a      1274     0    58     1    20
  5.0404662438960424E-01 a      1275     0    58     1    21
  4.8615859655229005E-01 a      1276     0    58     1    22
 -7.5802297017400422E-01 a      1277     0    59     1     1
  5.0694076074281758E-01 a      1278     0    59     1     2
  3.8588614817309375E-01 a      1279     0    59     1     3
  6.3484758095197047E-02 a      1280     0    59     1     4
  8.0645385367379652E-01 a      1281     0    59     1     5
  1.2444220775226815E-01 a      1282     0    59     1     6
  7.1917742531700635E-01 a      1283     0    59     1     7
 -1.0659045107858103E-01 a      1284     0    59     1     8
  6.0216980338356352E-01 a      1285     0    59     1     9
 -3.8728462312943447E-02 a      1286     0    59     1    10
  4.7750521423418596E-01 a      1287     0    59     1    11
  4.5000838690391137E-01 a      1288     0    59     1    12
 -3.2155246180181202E-01 a      1289     0    59     1    13
 -9.3732616909611460E-02 a      1290     0    59     1    14
 -1.1629150382395738E-01 a      1291     0    59     1    15
  2.9436498345700091E-01 a      1292     0    59     1    16
  1.6296137877226599E-01 a      1293     0    59     1    17
  2.7966525998057729E-02 a      1294     0    59     1    18
  4.7825975335478010E-01 a      1295     0    59     1    19
  1.9125341185245717E-01 a      1296     0    59     1    20
 -3.5532651324240516E-01 a      1297     0    59     1    21
 -1.0620878400547296E+00 a      1298     0    59     1    22
  1.2814032351777269E+00 a      1299     0    60     1     1
  9.5614423882187083E-01 a      1300     0    60     1     2
 -1.0713786068536183E-02 a      1301     0    60     1     3
 -6.1763679324434428E-01 a      1302     0    60     1     4
 -6.4413752293357029E-01 a      1303     0    60     1     5
  4.2001692138726693E-01 a      1304     0    60     1     6
 -8.2543736556509373E-02 a      1305     0    60     1     7
 -1.5050596612685196E+00 a      1306     0    60     1     8
  7.5589197713648137E-01 a      1307     0    60     1     9
  1.5890413264900721E-01 a      1308     0    60     1    10
  1.4162138477871014E+00 a      1309     0    60     1    11
 -1.6858547343652714E+00 a      1310     0    60     1    12
  7.3640023529523813E-01 a      1311     0    60     1    13
 -5.8575131701683814E-01 a      1312     0    60     1    14
 -2.6100144335272235E+00 a      1313     0    60     1    15
  1.4008562612219522E+00 a      1314     0    60     1    16
 -4.8287591143558314E-03 a      1315     0    60     1    17
  1.6765767928857991E+00 a      1316     0    60     1    18
  1.2914359432625304E+00 a      1317     0    60     1    19
 -2.0364330399654329E-01 a      1318     0    60     1    20
  6.4305934358037953E-01 a      1319     0    60     1    21
  2.9335579129919270E-01 a      1320     0    60     1    22
  8.7902846537646873E-01 a      1321     0    61     1     1
 -4.8639026153890631E-02 a      1322     0    61     1     2
  6.5611473689122990E-01 a      1323     0    61     1     3
  1.8063647034859817E-01 a      1324     0    61     1     4
 -5.2006476390894274E-01 a      1325     0    61     1     5
 -9.4120656897556054E-02 a      1326     0    61     1     6
 -1.2756246738313819E+00 a      1327     0    61     1     7
  2.6300331116699543E-01 a      1328     0    61     1     8
 -3.5306702594168088E-01 a      1329     0    61     1     9
  1.5008746756158159E-02 a      1330     0    61     1    10
 -1.0540582482068737E+00 a      1331     0    61     1    11
 -4.4572957927251461E-01 a      1332     0    61     1    12
  6.5596513893239047E-02 a      1333     0    61     1    13
 -1.5866594507019895E+00 a      1334     0    61     1    14
 -6.8669495093733091E-01 a      1335     0    61     1    15
 -1.0842959494656066E+00 a      1336     0    61     1    16
  3.0417363186330376E-01 a      1337     0    61     1    17
  7.2440990308501241E-01 a      1338     0    61     1    18
  2.7296024101956795E-01 a      1339     0    61     1    19
 -1.0092376790030961E-02 a      1340     0    61     1    20
  7.1519149140197080E-01 a      1341     0    61     1    21
  4.9876730203026770E-01 a      1342     0    61     1    22
  1.3535565669133000E-02 a      1343     0    62     1     1
 -9.3610378324247678E-01 a      1344     0    62     1     2
 -1.8460320536657510E-01 a      1345     0    62     1     3
  5.8833825415268159E-01 a      1346     0    62     1     4
 -6.9717224644250964E-01 a      1347     0    62     1     5
  1.0856227520113559E+00 a      1348     0    62     1     6
  2.4368053924447247E-01 a      1349     0    62     1     7
 -5.0589338286474550E-01 a      1350     0    62     1     8
 -7.2817653308787200E-01 a      1351     0    62     1     9
  1.0880318397117497E+00 a      1352     0    62     1    10
  3.8679808934363108E-01 a      1353     0    62     1    11
 -5.1926542667103170E-01 a      1354     0    62     1    12
 -2.1502342117344915E+00 a      1355     0    62     1    13
  4.3236051261231434E-01 a      1356     0    62     1    14
  9.0221975670633092E-01 a      1357     0    62     1    15
  4.6690294353876249E-01 a      1358     0    62     1    16
  6.4520283551803670E-01 a      1359     0    62     1    17
  1.6228582166188604E-01 a      1360     0    62     1    18
  3.8071241551266394E-01 a      1361     0    62     1    19
 -7.6131854141732624E-01 a      1362     0    62     1    20
  2.3529694224056949E-01 a      1363     0    62     1    21
  1.2286000211388375E+00 a      1364     0    62     1    22
  7.5375990027105544E-01 a      1365     0    63     1     1
  5.2136733458203591E-02 a      1366     0    63     1     2
 -8.5629259391631540E-01 a      1367     0    63     1     3
 -6.3740352888211516E-01 a      1368     0    63     1     4
  9.1377611005395654E-01 a      1369     0    63     1     5
 -1.1665444186655001E-01 a      1370     0    63     1     6
  9.2811820914060383E-01 a      1371     0    63     1     7
  9.1072487862571117E-01 a      1372     0    63     1     8
  1.9267954399277771E+00 a      1373     0    63     1     9
  1.9361695726117512E-01 a      1374     0    63     1    10
 -4.2990332748292692E-01 a      1375     0    63     1    11
 -1.1285666394483147E-01 a      1376     0    63     1    12
  8.7008903889925460E-01 a      1377     0    63     1    13
  8.0261119918873958E-01 a      1378     0    63     1    14
 -8.1479823258952533E-01 a      1379     0    63     1    15
 -1.3545364781300995E-02 a      1380     0    63     1    16
  8.8809481568257287E-01 a      1381     0    63     1    17
  5.3887233286074421E-01 a      1382     0    63     1    18
 -5.3013053753797550E-02 a      1383     0    63     1    19
  1.8779973371361836E-01 a      1384     0    63     1    20
  1.0765926245504598E+00 a      1385     0    63     1    21
  4.2620488216447899E-01 a      1386     0    63     1    22
  5.8563156578544129E-01 a      1387     0    64     1     1
  7.4731609156934631E-01 a      1388     0    64     1     2
 -1.6998239430338749E-01 a      1389     0    64     1     3
  3.2076412698158463E-01 a      1390     0    64     1     4
  1.0193749984959047E-01 a      1391     0    64     1     5
 -9.7715912359829044E-02 a      1392     0    64     1     6
  6.0428577012743445E-01 a      1393     0    64     1     7
  6.3990329305632310E-01 a      1394     0    64     1     8
 -3.8097496965776212E-01 a      1395     0    64     1     9
 -6.9155148732054150E-01 a      1396     0    64     1    10
  7.7839089265991435E-01 a      1397     0    64     1    11
 -9.1651740698737535E-02 a      1398     0    64     1    12
  2.8497880831120781E-01 a      1399     0    64     1    13
  4.5541446930327872E-01 a      1400     0    64     1    14
 -1.8377233071546367E-01 a      1401     0    64     1    15
 -6.6582318017635889E-01 a      1402     0    64     1    16
  1.6804720138281232E-01 a      1403     0    64     1    17
 -8.6624496289035802E-01 a      1404     0    64     1    18
 -9.9380107819748065E-01 a      1405     0    64     1    19
 -1.4174375241679404E-01 a      1406     0    64     1    20
 -3.5751349887184547E-01 a      1407     0    64     1    21
 -2.5106839223859018E-01 a      1408     0    64     1    22
  1.1810557512343958E-01 a      1409     0    65     1     1
  5.5377975725130024E-01 a      1410     0    65     1     2
 -9.4175965696910569E-01 a      1411     0    65     1     3
  1.1954223074826638E+00 a      1412     0    65     1     4
  9.9372098355808924E-01 a      1413     0    65     1     5
 -2.0836069084975661E-01 a      1414     0    65     1     6
 -1.9154840327674905E-01 a      1415     0    65     1     7
  7.4932138570769205E-02 a      1416     0    65     1     8
  3.1806435688902668E+00 a      1417     0    65     1     9
  8.5465537630270083E-01 a      1418     0    65     1    10
  1.3527449004017240E+00 a      1419     0    65     1    11
 -1.1532030788689431E+00 a      1420     0    65     1    12
 -2.3605374711723734E+00 a      1421     0    65     1    13
  1.9292153795939918E-01 a      1422     0    65     1    14
 -6.0432631913731927E-01 a      1423     0    65     1    15
 -6.3737236853475071E-02 a      1424     0    65     1    16
  3.7708322908164288E-01 a      1425     0    65     1    17
  1.3840596361435911E+00 a      1426     0    65     1    18
 -3.6492201280745812E-01 a      1427     0    65     1    19
  5.8283116155869941E-01 a      1428     0    65     1    20
 -9.0402059525059209E-01 a      1429     0    65     1    21
  1.0633287191544678E+00 a      1430     0    65     1    22
 -5.8569525736635464E-01 a      1431     0    66     1     1
  7.4134753200592840E-01 a      1432     0    66     1     2
  1.3511087085934939E-01 a      1433     0    66     1     3
  1.2119527450246148E+00 a      1434     0    66     1     4
  1.5937707764131983E+00 a      1435     0    66     1     5
  2.3158395254320016E-01 a      1436     0    66     1     6
 -1.7651605135302875E-01 a      1437     0    66     1     7
  7.5706219190621316E-01 a      1438     0    66     1     8
 -4.0907668555190302E+00 a      1439     0    66     1     9
 -2.7449082957286386E-01 a      1440     0    66     1    10
  1.3276880208728272E+00 a      1441     0    66     1    11
  1.5685209815873593E-02 a      1442     0    66     1    12
  1.3360905736073301E+00 a      1443     0    66     1    13
 -5.3732182910186366E-01 a      1444     0    66     1    14
 -2.7585231887058387E-01 a      1445     0    66     1    15
  1.3037833312307840E+00 a      1446     0    66     1    16
  2.9993839648921175E-02 a      1447     0    66     1    17
  1.0887723557811453E+00 a      1448     0    66     1    18
  3.4676824941841589E-01 a      1449     0    66     1    19
  1.0198833361970412E+00 a      1450     0    66     1    20
 -7.2710722128759953E-01 a      1451     0    66     1    21
  4.3819383301134140E-01 a      1452     0    66     1    22
  3.0126417755083108E+00 a      1453     0    67     1     1
  1.0536774305147059E+00 a      1454     0    67     1     2
 -5.8014104883980777E-01 a      1455     0    67     1     3
 -2.3116772685967830E+00 a      1456     0    67     1     4
 -3.2323355523555972E+00 a      1457     0    67     1     5
  1.7523732467556146E+00 a      1458     0    67     1     6
 -1.0857122775164865E+00 a      1459     0    67     1     7
  1.2724273411345293E+00 a      1460     0    67     1     8
 -6.5893010842914448E+00 a      1461     0    67     1     9
  1.5711229698284890E+00 a      1462     0    67     1    10
 -1.9312020784152337E+00 a      1463     0    67     1    11
  1.3368788387885260E+00 a      1464     0    67     1    12
  5.6105622670731030E+00 a      1465     0    67     1    13
  2.4689718790233597E+00 a      1466     0    67     1    14
 -7.6188808627858609E-02 a      1467     0    67     1    15
  4.3609230918012125E+00 a      1468     0    67     1    16
  8.7621145624284691E-01 a      1469     0    67     1    17
  3.5421561564248325E+00 a      1470     0    67     1    18
 -7.0842542716516843E-01 a      1471     0    67     1    19
 -3.6577029133510464E-01 a      1472     0    67     1    20
 -6.2968036349567824E-01 a      1473     0    67     1    21
 -1.1591990534856622E+00 a      1474     0    67     1    22
 -4.3402146799353419E-01 a      1475     0    68     1     1
  8.1449949740788530E-01 a      1476     0    68     1     2
 -1.3617731472816605E-01 a      1477     0    68     1     3
  8.2664396849382904E-01 a      1478     0    68     1     4
  1.6305079858524423E+00 a      1479     0    68     1     5
 -6.4893131392004519E-02 a      1480     0    68     1     6
  2.8891717495430536E-01 a      1481     0    68     1     7
  1.7842846511826695E+00 a      1482     0    68     1     8
  2.8938361392617601E-02 a      1483     0    68     1     9
  3.9493882076016801E-01 a      1484     0    68     1    10
  1.2637872297677732E+00 a      1485     0    68     1    11
  4.5703838673811548E-01 a      1486     0    68     1    12
  1.0507015297186317E+00 a      1487     0    68     1    13
 -3.6971092662319488E-01 a      1488     0    68     1    14
  5.0630638409715290E-01 a      1489     0    68     1    15
  2.3057815667737587E+00 a      1490     0    68     1    16
 -8.2927689669596216E-01 a      1491     0    68     1    17
 -4.2738558189007375E-01 a      1492     0    68     1    18
  3.3681218038837196E-01 a      1493     0    68     1    19
  9.7796985546903570E-01 a      1494     0    68     1    20
  7.9094387756227513E-01 a      1495     0    68     1    21
  5.3096797757515402E-01 a      1496     0    68     1    22
 -6.1840745090667515E-01 a      1497     0    69     1     1
  3.8256436211103134E-01 a      1498     0    69     1     2
 -7.3394692512149184E-01 a      1499     0    69     1     3
  8.9474719121991020E-01 a      1500     0    69     1     4
  1.2376675601765763E+00 a      1501     0    69     1     5
 -1.0288570212545376E+00 a      1502     0    69     1     6
  1.1908637434648250E+00 a      1503     0    69     1     7
 -1.2459268327419781E+00 a      1504     0    69     1     8
  4.3267639780608524E-01 a      1505     0    69     1     9
 -8.4601640618065588E-01 a      1506     0    69     1    10
  7.9217741496290939E-01 a      1507     0    69     1    11
 -1.5501631890530692E+00 a      1508     0    69     1    12
 -1.1101842564171642E+00 a      1509     0    69     1    13
 -5.4888621125123438E-01 a      1510     0    69     1    14
 -1.6895350331303427E+00 a      1511     0    69     1    15
 -2.6374702800579310E+00 a      1512     0    69     1    16
 -3.5282160518702110E-01 a      1513     0    69     1    17
  2.0497425825072448E+00 a      1514     0    69     1    18
 -5.2216850122562619E-01 a      1515     0    69     1    19
 -6.6551078675850184E-01 a      1516     0    69     1    20
 -4.6586820941707446E-01 a      1517     0    69     1    21
 -8.8810236940203113E-01 a      1518     0    69     1    22
 -2.5291953756272187E+00 a      1519     0    70     1     1
 -5.5978980026519911E-03 a      1520     0    70     1     2
 -1.1781495717832824E-01 a      1521     0    70     1     3
 -2.6103623507151004E+00 a      1522     0    70     1     4
 -5.7105051587553248E+00 a      1523     0    70     1     5
  4.3565401028773765E-01 a      1524     0    70     1     6
 -2.1131195272435206E+00 a      1525     0    70     1     7
  5.0360565539229807E-01 a      1526     0    70     1     8
  1.0090504023443801E+01 a      1527     0    70     1     9
 -1.5106079551078098E+00 a      1528     0    70     1    10
 -2.0211429994693759E+00 a      1529     0    70     1    11
  2.2036680947837546E+00 a      1530     0    70     1    12
 -3.9526630724765845E+00 a      1531     0    70     1    13
  8.0594055845761337E-01 a      1532     0    70     1    14
  1.6474389919443760E-01 a      1533     0    70     1    15
 -1.2201297644378613E+00 a      1534     0    70     1    16
 -1.4026723626327504E+00 a      1535     0    70     1    17
  1.7745138582398221E+00 a      1536     0    70     1    18
  2.9494543267091899E-01 a      1537     0    70     1    19
 -7.3822208522610094E-02 a      1538     0    70     1    20
  1.8819009068177564E-01 a      1539     0    70     1    21
  5.8087214068198667E-01 a      1540     0    70     1    22
 -1.0433299998880616E+00 a      1541     0    71     1     1
  2.2847313861755572E-01 a      1542     0    71     1     2
 -1.3435975444812948E-01 a      1543     0    71     1     3
  1.3244470693808238E-02 a      1544     0    71     1     4
  6.8572640167402055E-01 a      1545     0    71     1     5
 -1.0639503438642270E+00 a      1546     0    71     1     6
 -3.2666316143876384E-01 a      1547     0    71     1     7
  2.3974357476717983E-01 a      1548     0    71     1     8
 -9.4119774797418188E-01 a      1549     0    71     1     9
  1.0489353839855644E+00 a      1550     0    71     1    10
  7.8262415400124041E-01 a      1551     0    71     1    11
 -3.1779337128461188E-01 a      1552     0    71     1    12
 -5.4207339005477351E-01 a      1553     0    71     1    13
 -3.1260669074642805E-01 a      1554     0    71     1    14
  8.6839561807568411E-01 a      1555     0    71     1    15
  9.6810209808342512E-02 a      1556     0    71     1    16
 -7.4932299045552764E-01 a      1557     0    71     1    17
 -4.6874834977598495E-01 a      1558     0    71     1    18
  3.6540555225263321E-01 a      1559     0    71     1    19
 -4.0181986858462682E-01 a      1560     0    71     1    20
  3.4012907902060657E-01 a      1561     0    71     1    21
 -1.1945818636237635E+00 a      1562     0    71     1    22
 -6.0124586398704016E-01 a      1563     0    72     1     1
  1.4023629297292836E-01 a      1564     0    72     1     2
 -4.8973186452024253E-01 a      1565     0    72     1     3
 -4.5519804399524649E-01 a      1566     0    72     1     4
  6.9799917345356699E-01 a      1567     0    72     1     5
  6.6667028564587760E-01 a      1568     0    72     1     6
 -9.4673557581076861E-01 a      1569     0    72     1     7
 -1.9566519654165046E-01 a      1570     0    72     1     8
 -2.1115376689451471E+00 a      1571     0    72     1     9
 -5.7333181785131015E-01 a      1572     0    72     1    10
  1.9291289482946341E+00 a      1573     0    72     1    11
  1.7277558267687774E+00 a      1574     0    72     1    12
  7.4391599525146279E-01 a      1575     0    72     1    13
  7.2522861638724490E-01 a      1576     0    72     1    14
  1.5035407163268624E-01 a      1577     0    72     1    15
 -6.0421997104233016E-01 a      1578     0    72     1    16
  5.6815224017796939E-01 a      1579     0    72     1    17
  1.3462520015177657E+00 a      1580     0    72     1    18
  5.6753700243780636E-01 a      1581     0    72     1    19
  8.2762511007871942E-01 a      1582     0    72     1    20
 -4.9224710939839222E-01 a      1583     0    72     1    21
 -2.5202814217695879E-01 a      1584     0    72     1    22
 -1.3879838008006873E+00 a      1585     0    73     1     1
  8.1021810979254394E-01 a      1586     0    73     1     2
  4.9707529776789505E-01 a      1587     0    73     1     3
 -8.8321635699906781E-02 a      1588     0    73     1     4
  7.0309635361456924E-01 a      1589     0    73     1     5
  2.7948867553966977E-01 a      1590     0    73     1     6
  4.6992590934792750E-01 a      1591     0    73     1     7
  1.1434307692390848E+00 a      1592     0    73     1     8
 -1.8550020809456456E+00 a      1593     0    73     1     9
  1.2233015386801278E+00 a      1594     0    73     1    10
 -4.6240861609826506E-01 a      1595     0    73     1    11
 -1.1178907266954452E+00 a      1596     0    73     1    12
  4.8544692432021208E-01 a      1597     0    73     1    13
  9.4742081420820090E-01 a      1598     0    73     1    14
  1.1165423793801588E-01 a      1599     0    73     1    15
 -6.3028087108284347E-01 a      1600     0    73     1    16
 -9.4866897079469270E-01 a      1601     0    73     1    17
 -3.3126072744177010E-01 a      1602     0    73     1    18
  2.2460746802994652E-01 a      1603     0    73     1    19
  6.2059929201576158E-01 a      1604     0    73     1    20
  2.6740905797267633E-01 a      1605     0    73     1    21
  2.4279995527229103E-02 a      1606     0    73     1    22
 -1.2102753846666154E+00 a      1607     0    74     1     1
 -4.0852476010371019E-01 a      1608     0    74     1     2
  6.8943152016318832E-01 a      1609     0    74     1     3
  2.3464015493424256E-01 a      1610     0    74     1     4
  1.5321600613953672E+00 a      1611     0    74     1     5
 -5.9273741795088097E-01 a      1612     0    74     1     6
  4.3760377193809974E-01 a      1613     0    74     1     7
  3.2779394917108373E-01 a      1614     0    74     1     8
 -2.4555879433506518E+00 a      1615     0    74     1     9
  5.6994019177909916E-01 a      1616     0    74     1    10
  3.1500503884147957E-01 a      1617     0    74     1    11
 -2.2834368022457466E-01 a      1618     0    74     1    12
 -1.7545586956429902E+00 a      1619     0    74     1    13
 -6.1895768482417401E-01 a      1620     0    74     1    14
  7.0805657803857544E-02 a      1621     0    74     1    15
  4.5475823251024547E-02 a      1622     0    74     1    16
  5.8815258207170484E-01 a      1623     0    74     1    17
