################################################################################
# Neural network connection values (weights and biases).
################################################################################
# Col  Name       Description
################################################################################
# 1    connection Neural network connection value.
# 2    t          Connection type (a = weight, b = bias).
# 3    index      Index enumerating weights.
# 4    l_s        Starting point layer (end point layer for biases).
# 5    n_s        Starting point neuron in starting layer (end point neuron for biases).
# 6    l_e        End point layer.
# 7    n_e        End point neuron in end layer.
################################################################################
#                      1 2         3     4     5     6     7
#             connection t     index   l_s   n_s   l_e   n_e
############################################################
 -6.2754929199750242E-01 a         1     0     1     1     1
 -3.5792731033956993E-01 a         2     0     1     1     2
  3.5909505882691001E-01 a         3     0     1     1     3
 -2.4733694179822097E-01 a         4     0     1     1     4
  1.4410888928634093E-02 a         5     0     1     1     5
 -7.7068189542282839E-01 a         6     0     1     1     6
 -1.4226204460924394E+00 a         7     0     1     1     7
  1.5949183496069011E-01 a         8     0     1     1     8
 -1.8450416741799340E+00 a         9     0     1     1     9
 -7.3262598717872135E-02 a        10     0     1     1    10
 -3.8882360997262333E-01 a        11     0     1     1    11
 -5.0917072407185593E-01 a        12     0     1     1    12
 -1.0204296202494174E+00 a        13     0     1     1    13
 -3.7086017243134584E-01 a        14     0     1     1    14
 -1.5653535817680002E+00 a        15     0     1     1    15
  8.6399470751125640E-02 a        16     0     1     1    16
 -2.3643793917602240E-01 a        17     0     1     1    17
  6.4552292700366043E-01 a        18     0     1     1    18
 -9.3033658767306252E-02 a        19     0     1     1    19
  2.2087141899530245E+00 a        20     0     1     1    20
  1.6881148400931822E+00 a        21     0     1     1    21
 -2.9336585943841298E-01 a        22     0     1     1    22
 -4.5467436687888479E-01 a        23     0     2     1     1
 -6.7921345028704350E-01 a        24     0     2     1     2
 -1.4726386548375481E-01 a        25     0     2     1     3
  3.0885435402490491E-01 a        26     0     2     1     4
  1.0357026922010391E+00 a        27     0     2     1     5
  5.6994331730550563E-01 a        28     0     2     1     6
  4.2424136274670204E-01 a        29     0     2     1     7
 -3.2126870205164737E+00 a        30     0     2     1     8
  1.4492678694342529E+00 a        31     0     2     1     9
  1.2702775408719340E+00 a        32     0     2     1    10
  3.3113988666319016E-01 a        33     0     2     1    11
  3.7069944041163422E-01 a        34     0     2     1    12
 -9.7034419529445859E-01 a        35     0     2     1    13
 -8.2927416501436513E-01 a        36     0     2     1    14
 -1.4421919325123211E+00 a        37     0     2     1    15
 -4.7142620680496222E-01 a        38     0     2     1    16
 -6.8382423639418255E-01 a        39     0     2     1    17
  1.2172154396666905E+00 a        40     0     2     1    18
 -1.6745239456001519E+00 a        41     0     2     1    19
  9.2843601604402659E-01 a        42     0     2     1    20
 -1.7676647561748817E+00 a        43     0     2     1    21
 -2.0989482087125830E-03 a        44     0     2     1    22
 -1.1780755331868054E+00 a        45     0     3     1     1
  2.5040866911523568E-01 a        46     0     3     1     2
  9.3879055526240140E-01 a        47     0     3     1     3
  2.5429178223272671E-02 a        48     0     3     1     4
  1.0616884394107251E-01 a        49     0     3     1     5
 -4.7600784751951251E-02 a        50     0     3     1     6
  4.2594410545612515E-01 a        51     0     3     1     7
  1.4254130798421192E+00 a        52     0     3     1     8
 -7.3005965407716744E-01 a        53     0     3     1     9
  1.4157279567219152E+00 a        54     0     3     1    10
  8.3987880489360334E-01 a        55     0     3     1    11
  1.2585687605223217E+00 a        56     0     3     1    12
 -8.6726798442124942E-01 a        57     0     3     1    13
  2.3730246186358621E+00 a        58     0     3     1    14
 -8.7044196002159202E-01 a        59     0     3     1    15
  2.0594963952987122E+00 a        60     0     3     1    16
  7.9493278416427657E-02 a        61     0     3     1    17
 -3.2340137332481605E-01 a        62     0     3     1    18
  4.2854915068906579E-01 a        63     0     3     1    19
 -2.4283363332395820E+00 a        64     0     3     1    20
  8.1239744518643708E-01 a        65     0     3     1    21
 -3.6214011120540894E-02 a        66     0     3     1    22
 -8.6198005476224326E-01 a        67     0     4     1     1
 -1.7697395531894841E-01 a        68     0     4     1     2
 -9.1536920703244229E-01 a        69     0     4     1     3
  9.4976237150187570E-01 a        70     0     4     1     4
  3.7968912565416513E-01 a        71     0     4     1     5
  1.2043695083852870E+00 a        72     0     4     1     6
  4.6183119256887489E-01 a        73     0     4     1     7
  5.4581508040359894E-01 a        74     0     4     1     8
 -4.3779270260851028E-01 a        75     0     4     1     9
  3.3815448989348372E-02 a        76     0     4     1    10
 -6.3077695584634563E-01 a        77     0     4     1    11
  4.5132293054048769E-02 a        78     0     4     1    12
  7.3288536036214580E-01 a        79     0     4     1    13
  5.1349620475152180E-02 a        80     0     4     1    14
  1.9816747709427268E-01 a        81     0     4     1    15
  3.6060166101153313E-01 a        82     0     4     1    16
  3.0212217476437142E-01 a        83     0     4     1    17
  5.1792848178839146E-01 a        84     0     4     1    18
 -1.0682678118819453E+00 a        85     0     4     1    19
 -2.6488173071064874E-01 a        86     0     4     1    20
 -6.3024386384977926E-01 a        87     0     4     1    21
 -4.7533775887848045E-01 a        88     0     4     1    22
 -9.0451165710565529E-01 a        89     0     5     1     1
  9.0235280399267681E-01 a        90     0     5     1     2
 -3.2140038487882883E-02 a        91     0     5     1     3
 -8.8096681770201624E-01 a        92     0     5     1     4
 -2.6468262848612822E-01 a        93     0     5     1     5
  1.6648805200062400E-01 a        94     0     5     1     6
  1.6768957616078544E+00 a        95     0     5     1     7
 -9.7180427512474277E-01 a        96     0     5     1     8
 -4.0620158222347563E-01 a        97     0     5     1     9
 -3.8739787342582505E-01 a        98     0     5     1    10
  1.6496218234886990E+00 a        99     0     5     1    11
 -9.6284957081177369E-01 a       100     0     5     1    12
 -1.4191655075296741E-01 a       101     0     5     1    13
  5.1712197785657377E-01 a       102     0     5     1    14
  1.7475159808496521E+00 a       103     0     5     1    15
  4.2097881621001587E-01 a       104     0     5     1    16
  9.6908130727741001E-02 a       105     0     5     1    17
 -3.8560087028275303E-01 a       106     0     5     1    18
 -1.0832190046798311E+00 a       107     0     5     1    19
  2.5095464167423849E+00 a       108     0     5     1    20
  7.8065614994288013E-01 a       109     0     5     1    21
  1.0428948227276507E+00 a       110     0     5     1    22
 -9.2784079349219784E-01 a       111     0     6     1     1
  2.7657573699328925E-01 a       112     0     6     1     2
  4.6823599513981401E-01 a       113     0     6     1     3
 -6.7590859540667758E-01 a       114     0     6     1     4
 -1.4430176272001449E-01 a       115     0     6     1     5
 -7.0074935365734181E-01 a       116     0     6     1     6
 -9.7855491533039651E-01 a       117     0     6     1     7
  1.7588731462683007E+00 a       118     0     6     1     8
 -1.7177449122438730E+00 a       119     0     6     1     9
  1.0424091174024410E+00 a       120     0     6     1    10
  1.4397129492075269E+00 a       121     0     6     1    11
 -1.6119187121121712E+00 a       122     0     6     1    12
 -3.3599305977107330E-01 a       123     0     6     1    13
  5.1422661077466669E-01 a       124     0     6     1    14
  8.4170265804735866E-01 a       125     0     6     1    15
 -8.2222520463270804E-02 a       126     0     6     1    16
 -4.0280632933106897E-01 a       127     0     6     1    17
  1.9406030142092306E-01 a       128     0     6     1    18
 -2.3920188533223982E-01 a       129     0     6     1    19
 -1.6118448714368043E+00 a       130     0     6     1    20
  7.5688240989975009E-01 a       131     0     6     1    21
 -7.2826940816730434E-01 a       132     0     6     1    22
  3.7463183978288450E-01 a       133     0     7     1     1
  3.5770137061432050E-01 a       134     0     7     1     2
 -6.7567806674607211E-01 a       135     0     7     1     3
  3.9585792910170864E-01 a       136     0     7     1     4
 -3.4937677474820500E-01 a       137     0     7     1     5
  8.8489599947343811E-01 a       138     0     7     1     6
  1.9903418176020465E-01 a       139     0     7     1     7
 -1.6135235951709882E-02 a       140     0     7     1     8
  4.2078169340059998E-03 a       141     0     7     1     9
  2.4433426251674203E-01 a       142     0     7     1    10
  2.0794132856572972E-01 a       143     0     7     1    11
 -3.7959198650028786E-01 a       144     0     7     1    12
  1.0126000851535459E+00 a       145     0     7     1    13
  8.6204037724313010E-02 a       146     0     7     1    14
 -3.8483228846143125E-01 a       147     0     7     1    15
 -7.2289016806552531E-01 a       148     0     7     1    16
  3.0417786888389370E-01 a       149     0     7     1    17
 -2.2403104005751423E-01 a       150     0     7     1    18
  1.8656560604486136E-01 a       151     0     7     1    19
 -3.4979103950699919E-01 a       152     0     7     1    20
  9.2937719158993654E-02 a       153     0     7     1    21
  1.8663270917728308E-01 a       154     0     7     1    22
  3.4825083929914025E-01 a       155     0     8     1     1
  8.6347833297006649E-01 a       156     0     8     1     2
  6.3439285340046181E-01 a       157     0     8     1     3
  7.3708736794045937E-01 a       158     0     8     1     4
 -8.3029642148103711E-01 a       159     0     8     1     5
 -6.5857563631769667E-01 a       160     0     8     1     6
  3.1333747912598087E-01 a       161     0     8     1     7
 -5.2138553978026958E-01 a       162     0     8     1     8
  1.3807307958865918E+00 a       163     0     8     1     9
  4.8292497938758455E-01 a       164     0     8     1    10
  1.0285083718580236E-01 a       165     0     8     1    11
  8.6101236024512251E-01 a       166     0     8     1    12
 -1.4860082875710129E-01 a       167     0     8     1    13
 -1.3298213583404266E+00 a       168     0     8     1    14
  8.3362979058087572E-01 a       169     0     8     1    15
 -5.1068051091353303E-02 a       170     0     8     1    16
 -3.5148448473722999E-01 a       171     0     8     1    17
  2.5351000868483931E-01 a       172     0     8     1    18
 -5.5108084587066808E-01 a       173     0     8     1    19
  4.6937998121401830E-01 a       174     0     8     1    20
  2.9538559426607114E-01 a       175     0     8     1    21
 -8.5423507973126989E-01 a       176     0     8     1    22
  3.4157774863911500E-01 a       177     0     9     1     1
  5.9662056768153071E-01 a       178     0     9     1     2
 -6.3232172714288626E-01 a       179     0     9     1     3
  1.5303966185804541E-01 a       180     0     9     1     4
 -3.2202857373045390E-01 a       181     0     9     1     5
  2.5610697685350176E-01 a       182     0     9     1     6
 -8.7885484275894418E-02 a       183     0     9     1     7
 -1.3800088348800319E-02 a       184     0     9     1     8
 -5.5324511230879378E-02 a       185     0     9     1     9
  9.4078218640437195E-01 a       186     0     9     1    10
  5.2149281620151766E-01 a       187     0     9     1    11
  1.1465733155660959E-01 a       188     0     9     1    12
 -1.6942013017224064E-01 a       189     0     9     1    13
  3.3743788910775763E-01 a       190     0     9     1    14
 -2.0933421858854058E-02 a       191     0     9     1    15
 -7.4496364596199915E-01 a       192     0     9     1    16
 -4.8978012265692755E-01 a       193     0     9     1    17
 -7.7011924855181557E-01 a       194     0     9     1    18
 -1.6563643989580323E-01 a       195     0     9     1    19
 -5.1679068491669722E-01 a       196     0     9     1    20
 -7.2741054667035043E-01 a       197     0     9     1    21
  2.9266182298713267E-01 a       198     0     9     1    22
  9.7507057743095060E-01 a       199     0    10     1     1
  1.5289662738993088E+00 a       200     0    10     1     2
 -1.8593314869053157E+00 a       201     0    10     1     3
  1.2591626400286617E+00 a       202     0    10     1     4
 -1.1464529059779532E-01 a       203     0    10     1     5
 -7.9926676116181039E-01 a       204     0    10     1     6
  2.5161331373640422E-01 a       205     0    10     1     7
  9.3944378838833209E-01 a       206     0    10     1     8
 -1.1888893123422171E+00 a       207     0    10     1     9
  2.8539226409807011E-01 a       208     0    10     1    10
  4.0870442028898324E-01 a       209     0    10     1    11
  3.7020864247544555E-01 a       210     0    10     1    12
 -6.9654695351579032E-01 a       211     0    10     1    13
  2.9391210421981045E-01 a       212     0    10     1    14
 -1.6468995586241924E+00 a       213     0    10     1    15
 -9.6620694698928630E-02 a       214     0    10     1    16
  1.2306414272659487E+00 a       215     0    10     1    17
 -6.9704490758587356E-01 a       216     0    10     1    18
 -1.0645966369870968E-01 a       217     0    10     1    19
 -3.6951849408398918E-01 a       218     0    10     1    20
 -6.8063810811920655E-01 a       219     0    10     1    21
 -9.8426284861438174E-01 a       220     0    10     1    22
 -1.5390557150032580E+00 a       221     0    11     1     1
 -1.1630398798666555E-02 a       222     0    11     1     2
  3.7415790461042170E-01 a       223     0    11     1     3
 -1.1254620711596292E-02 a       224     0    11     1     4
 -7.8207030345531037E-01 a       225     0    11     1     5
 -3.3833304340053366E-01 a       226     0    11     1     6
 -7.5104170040055707E-01 a       227     0    11     1     7
  7.3001321590519941E-01 a       228     0    11     1     8
  1.7237736883005417E+00 a       229     0    11     1     9
  3.1368889411870954E-01 a       230     0    11     1    10
  2.2345889218918127E-01 a       231     0    11     1    11
 -7.5707848162547831E-01 a       232     0    11     1    12
 -2.0556933356892064E+00 a       233     0    11     1    13
 -8.4744515410176302E-01 a       234     0    11     1    14
  1.1934303588621349E+00 a       235     0    11     1    15
  5.9251247554171049E-01 a       236     0    11     1    16
 -5.9071174472413734E-01 a       237     0    11     1    17
  6.1755710184075852E-01 a       238     0    11     1    18
  3.0847658474538281E-01 a       239     0    11     1    19
 -1.0312729846754691E+00 a       240     0    11     1    20
  2.3803956611933325E-01 a       241     0    11     1    21
  8.8919939957502969E-02 a       242     0    11     1    22
  1.7336182040366426E+00 a       243     0    12     1     1
  1.8240541381552311E+00 a       244     0    12     1     2
 -3.1352480631855661E-01 a       245     0    12     1     3
  4.9032091906052910E-01 a       246     0    12     1     4
  8.5363138250636039E-01 a       247     0    12     1     5
  2.4908060731424486E+00 a       248     0    12     1     6
 -7.0671811301329801E-01 a       249     0    12     1     7
 -4.3601076171265812E-01 a       250     0    12     1     8
  2.1653365717694242E+00 a       251     0    12     1     9
  9.4373240299282357E-01 a       252     0    12     1    10
  1.0952355675837266E+00 a       253     0    12     1    11
  5.1738042233072223E-01 a       254     0    12     1    12
  7.9227420023923212E-01 a       255     0    12     1    13
 -3.8449527385816190E-01 a       256     0    12     1    14
 -5.9517181637886374E-01 a       257     0    12     1    15
  1.1119808734862988E+00 a       258     0    12     1    16
  4.1086589873629348E-01 a       259     0    12     1    17
  4.0220609551971931E-01 a       260     0    12     1    18
  6.8483079913173173E-01 a       261     0    12     1    19
  6.9736648022022910E-02 a       262     0    12     1    20
  1.1387885773884510E+00 a       263     0    12     1    21
  9.5444887885092333E-01 a       264     0    12     1    22
  1.0073153976222946E+00 a       265     0    13     1     1
  1.0205821542777947E-01 a       266     0    13     1     2
  5.2430892298547016E-01 a       267     0    13     1     3
 -1.1159002021150484E+00 a       268     0    13     1     4
  6.8525377874155496E-02 a       269     0    13     1     5
  1.1339648394128674E+00 a       270     0    13     1     6
 -1.6555084221250911E+00 a       271     0    13     1     7
 -2.2643969875475026E-01 a       272     0    13     1     8
 -1.8320920478546947E+00 a       273     0    13     1     9
  1.6057883373993254E-01 a       274     0    13     1    10
  1.4120528320219221E+00 a       275     0    13     1    11
 -9.3696801904226981E-02 a       276     0    13     1    12
  9.8398268726307603E-01 a       277     0    13     1    13
 -2.5543367802101352E-01 a       278     0    13     1    14
  2.1453984049684411E+00 a       279     0    13     1    15
  1.7571232982334282E+00 a       280     0    13     1    16
  1.1223310457521930E-01 a       281     0    13     1    17
  2.1115060871700267E-01 a       282     0    13     1    18
  9.5901260397512400E-01 a       283     0    13     1    19
  1.0640554298452685E+00 a       284     0    13     1    20
  2.9044782978636010E+00 a       285     0    13     1    21
  2.0968015825156372E+00 a       286     0    13     1    22
 -4.0352423937611820E-01 a       287     0    14     1     1
  1.0969999818948424E+00 a       288     0    14     1     2
  2.1509467755974945E+00 a       289     0    14     1     3
 -1.6122016284579288E+00 a       290     0    14     1     4
 -1.2843482916725786E+00 a       291     0    14     1     5
 -1.4812079131359519E+00 a       292     0    14     1     6
  2.3393882611927745E+00 a       293     0    14     1     7
 -2.1410312799261735E-01 a       294     0    14     1     8
 -1.5416406488202314E+00 a       295     0    14     1     9
 -1.4721901412769893E+00 a       296     0    14     1    10
 -9.9976992196109893E-01 a       297     0    14     1    11
 -2.5244743700925536E+00 a       298     0    14     1    12
  3.3661698377679661E-01 a       299     0    14     1    13
 -6.1365880141109908E-01 a       300     0    14     1    14
  8.6308390670326696E-01 a       301     0    14     1    15
 -9.9442217320907889E-01 a       302     0    14     1    16
 -2.9601549797228799E-01 a       303     0    14     1    17
  5.7858736946568401E-01 a       304     0    14     1    18
  1.2925620514614282E+00 a       305     0    14     1    19
  8.8620159358215855E-01 a       306     0    14     1    20
  6.8661442254261662E-01 a       307     0    14     1    21
  1.3036231526327720E+00 a       308     0    14     1    22
  1.1628048843390318E-01 a       309     0    15     1     1
  5.3652504339696061E-01 a       310     0    15     1     2
  7.1919889228108058E-01 a       311     0    15     1     3
  4.2533528594398845E-01 a       312     0    15     1     4
 -9.7419434244571490E-01 a       313     0    15     1     5
  1.6013244978354793E-01 a       314     0    15     1     6
 -7.9676967767404216E-01 a       315     0    15     1     7
  3.6521183091695825E-01 a       316     0    15     1     8
 -1.4726913407811768E+00 a       317     0    15     1     9
 -8.0630238335915749E-01 a       318     0    15     1    10
  1.4350495803141805E-01 a       319     0    15     1    11
  8.7566819709110719E-02 a       320     0    15     1    12
  3.0412531736883003E-01 a       321     0    15     1    13
 -1.9964481329316135E+00 a       322     0    15     1    14
 -1.4787684144825282E+00 a       323     0    15     1    15
  5.8922062933924946E-01 a       324     0    15     1    16
 -8.9573855403246894E-01 a       325     0    15     1    17
 -8.2041402251073325E-01 a       326     0    15     1    18
 -3.2012811259653784E-01 a       327     0    15     1    19
  1.0356617708830012E+00 a       328     0    15     1    20
  1.4490346609169285E+00 a       329     0    15     1    21
 -7.4913885889949669E-02 a       330     0    15     1    22
 -1.7534193846003454E+00 a       331     0    16     1     1
 -1.5766260166896062E-01 a       332     0    16     1     2
  8.9981452337594747E-01 a       333     0    16     1     3
 -2.9053759689014771E+00 a       334     0    16     1     4
 -6.2497971064642510E-01 a       335     0    16     1     5
  8.2094558996843325E-01 a       336     0    16     1     6
  3.4998133125435649E-01 a       337     0    16     1     7
 -1.1586658283840970E-01 a       338     0    16     1     8
  5.0666565553910541E+00 a       339     0    16     1     9
 -2.0904101001451023E+00 a       340     0    16     1    10
  1.8463945080042801E-01 a       341     0    16     1    11
 -6.8009332892659524E-01 a       342     0    16     1    12
 -8.5418571451571346E-01 a       343     0    16     1    13
 -1.2530038043118379E+00 a       344     0    16     1    14
 -1.7158477599412336E+00 a       345     0    16     1    15
 -7.7331044381585345E-01 a       346     0    16     1    16
  7.9460998234246294E-01 a       347     0    16     1    17
 -6.8668477698255004E-01 a       348     0    16     1    18
 -7.4917155852711925E-01 a       349     0    16     1    19
  1.0429873820907369E+00 a       350     0    16     1    20
 -1.7150971580543208E+00 a       351     0    16     1    21
 -2.8039174938535277E-01 a       352     0    16     1    22
  1.4124212357515889E-01 a       353     0    17     1     1
  1.0852878596282341E-01 a       354     0    17     1     2
  1.3163230249733533E+00 a       355     0    17     1     3
 -8.2008045023708342E-01 a       356     0    17     1     4
  5.0258782724121287E-01 a       357     0    17     1     5
 -1.1881272799533493E+00 a       358     0    17     1     6
 -2.0490617176718469E+00 a       359     0    17     1     7
 -4.3171241102489466E-01 a       360     0    17     1     8
 -2.0468452565992381E+00 a       361     0    17     1     9
  4.0370260497635196E-01 a       362     0    17     1    10
 -5.8509459121342589E-01 a       363     0    17     1    11
  4.6133633372844700E-02 a       364     0    17     1    12
  1.0480256400202616E-01 a       365     0    17     1    13
  2.9323356857926680E-01 a       366     0    17     1    14
 -1.8885044610742527E+00 a       367     0    17     1    15
  1.1887677480810417E+00 a       368     0    17     1    16
 -1.4499913382715772E+00 a       369     0    17     1    17
 -1.9590494381226056E-01 a       370     0    17     1    18
  1.1304377727137456E+00 a       371     0    17     1    19
  9.3141637833902879E-01 a       372     0    17     1    20
  9.0380471736477064E-01 a       373     0    17     1    21
  1.0341182998494778E+00 a       374     0    17     1    22
 -7.7173007560607654E-01 a       375     0    18     1     1
 -5.3701893603793203E-02 a       376     0    18     1     2
 -5.2648821173935412E-01 a       377     0    18     1     3
 -4.6242165724912452E+00 a       378     0    18     1     4
  1.0100784451716527E+00 a       379     0    18     1     5
  1.1116122821726240E+00 a       380     0    18     1     6
 -1.9690044324788845E+00 a       381     0    18     1     7
 -4.8280531230661365E+00 a       382     0    18     1     8
  3.7900096914854160E+00 a       383     0    18     1     9
  1.5900742774709815E+00 a       384     0    18     1    10
 -6.9627571383912812E-01 a       385     0    18     1    11
 -7.9513892791690155E-01 a       386     0    18     1    12
 -1.8176321196914855E-01 a       387     0    18     1    13
  2.7283982161885043E+00 a       388     0    18     1    14
 -5.8173533016198287E-01 a       389     0    18     1    15
  2.2058208806969919E+00 a       390     0    18     1    16
  1.1837288045833578E+00 a       391     0    18     1    17
 -2.3823689320088395E-02 a       392     0    18     1    18
  8.0569552123170429E-01 a       393     0    18     1    19
 -9.9687835450422868E-01 a       394     0    18     1    20
  1.0556883720822290E+00 a       395     0    18     1    21
  3.4398206596213998E-01 a       396     0    18     1    22
 -2.5917032737639484E-01 a       397     0    19     1     1
  2.7888676728425260E-01 a       398     0    19     1     2
 -1.9094810310008079E+00 a       399     0    19     1     3
 -1.0946976594669758E-01 a       400     0    19     1     4
 -4.8169007805413271E-02 a       401     0    19     1     5
 -1.2010134716389529E+00 a       402     0    19     1     6
 -3.3424279441948007E-01 a       403     0    19     1     7
  1.2034458112590540E+00 a       404     0    19     1     8
  1.3181167114448098E+00 a       405     0    19     1     9
  4.5184488601435546E-01 a       406     0    19     1    10
 -6.6432732616624235E-01 a       407     0    19     1    11
  1.8901888371429445E+00 a       408     0    19     1    12
  2.1886358204449254E+00 a       409     0    19     1    13
  3.3962560347519588E-01 a       410     0    19     1    14
  4.4842240794860744E-01 a       411     0    19     1    15
 -1.8499921226398801E+00 a       412     0    19     1    16
 -2.1667175809104120E+00 a       413     0    19     1    17
 -6.7384903740001012E-01 a       414     0    19     1    18
  5.0831582328631442E-01 a       415     0    19     1    19
  6.3776012023843776E-01 a       416     0    19     1    20
  1.7280027967286533E+00 a       417     0    19     1    21
 -5.9136376641698130E-01 a       418     0    19     1    22
 -7.3198723216645900E-01 a       419     0    20     1     1
  6.1621675641012563E-01 a       420     0    20     1     2
  7.9711202627975197E-01 a       421     0    20     1     3
 -2.6818765484489990E+00 a       422     0    20     1     4
  1.1196739737311265E+00 a       423     0    20     1     5
 -2.3327129744708278E-01 a       424     0    20     1     6
 -7.6161354386717783E-02 a       425     0    20     1     7
 -1.1478160418634515E+00 a       426     0    20     1     8
 -3.7884209104933784E+00 a       427     0    20     1     9
  1.3603368272711096E+00 a       428     0    20     1    10
 -1.5218564043263001E+00 a       429     0    20     1    11
 -1.1926020243664732E+00 a       430     0    20     1    12
 -1.1293962433925495E+00 a       431     0    20     1    13
 -1.1196385635100142E-01 a       432     0    20     1    14
 -2.7191291744662700E+00 a       433     0    20     1    15
 -1.4324471240720396E+00 a       434     0    20     1    16
 -8.1497054237710775E-01 a       435     0    20     1    17
  6.4990497079315179E-01 a       436     0    20     1    18
  2.6250575162242842E+00 a       437     0    20     1    19
  2.9587017115911216E+00 a       438     0    20     1    20
 -1.5948886991926162E-01 a       439     0    20     1    21
  1.8962082217838103E+00 a       440     0    20     1    22
 -6.3577866094158797E-01 a       441     0    21     1     1
  7.5440286135350410E-01 a       442     0    21     1     2
  5.3319142503252481E-01 a       443     0    21     1     3
  4.8572129240169132E-01 a       444     0    21     1     4
  1.1214700814626199E+00 a       445     0    21     1     5
  7.3095484795785259E-01 a       446     0    21     1     6
 -2.0249659572780452E+00 a       447     0    21     1     7
 -4.4874429126125364E+00 a       448     0    21     1     8
  2.5881796982288838E+00 a       449     0    21     1     9
  2.9220885795065588E+00 a       450     0    21     1    10
 -1.7338369578151327E+00 a       451     0    21     1    11
 -1.1627738382028543E-01 a       452     0    21     1    12
 -1.5389535620959782E+00 a       453     0    21     1    13
  3.7568337385546802E-01 a       454     0    21     1    14
 -1.4845647591301567E+00 a       455     0    21     1    15
  2.9118026783012647E+00 a       456     0    21     1    16
 -5.6508945565166879E-01 a       457     0    21     1    17
 -3.9201457628426600E-01 a       458     0    21     1    18
 -2.6011381200922377E+00 a       459     0    21     1    19
 -5.9400189574238249E-01 a       460     0    21     1    20
 -1.4386990000503443E+00 a       461     0    21     1    21
 -1.8585796756174702E-01 a       462     0    21     1    22
 -3.2936614758001143E-01 a       463     0    22     1     1
 -1.2152055999516205E+00 a       464     0    22     1     2
 -1.4198277207526666E+00 a       465     0    22     1     3
 -6.1038567867046445E-01 a       466     0    22     1     4
  5.5057320351521066E-01 a       467     0    22     1     5
 -5.2472743986888437E-01 a       468     0    22     1     6
  5.4807620785976574E-01 a       469     0    22     1     7
 -2.8090107167838763E-01 a       470     0    22     1     8
  1.5666381923338106E+00 a       471     0    22     1     9
  9.7013692926088912E-02 a       472     0    22     1    10
 -1.6907349933606020E-01 a       473     0    22     1    11
  2.1545859644320808E+00 a       474     0    22     1    12
  1.6281871969394264E+00 a       475     0    22     1    13
  1.1585264392666557E+00 a       476     0    22     1    14
  9.8235746726950102E-01 a       477     0    22     1    15
 -1.4820720160296064E+00 a       478     0    22     1    16
  4.0562470689956148E-01 a       479     0    22     1    17
  5.6066509865583503E-01 a       480     0    22     1    18
 -1.3065152462848187E-01 a       481     0    22     1    19
 -2.6377114488493247E-01 a       482     0    22     1    20
 -1.1812601492692572E+00 a       483     0    22     1    21
  5.4638100772703292E-02 a       484     0    22     1    22
  3.0708919985559557E-01 a       485     0    23     1     1
 -1.3112898752809001E+00 a       486     0    23     1     2
 -5.4450343870540419E-01 a       487     0    23     1     3
 -4.2853166168533052E-01 a       488     0    23     1     4
 -4.6892894370120314E-01 a       489     0    23     1     5
  8.0507982774552359E-02 a       490     0    23     1     6
  1.0351581389282762E-01 a       491     0    23     1     7
  7.2483394017226843E-01 a       492     0    23     1     8
 -3.7045000575112601E+00 a       493     0    23     1     9
  9.2340470033492372E-01 a       494     0    23     1    10
 -1.1830638425926507E+00 a       495     0    23     1    11
 -8.6294434170853129E-01 a       496     0    23     1    12
 -2.2788844612770265E+00 a       497     0    23     1    13
  8.8461693092642169E-01 a       498     0    23     1    14
 -3.1479361704787263E+00 a       499     0    23     1    15
 -1.2748174167730431E+00 a       500     0    23     1    16
  1.6213577882848951E-01 a       501     0    23     1    17
 -3.6224441376467403E-01 a       502     0    23     1    18
  8.3171805672763943E-01 a       503     0    23     1    19
  6.7220566316605712E-01 a       504     0    23     1    20
 -3.2483197155847909E+00 a       505     0    23     1    21
  9.6692366798592144E-01 a       506     0    23     1    22
 -1.1367742565868831E-01 a       507     0    24     1     1
 -8.2042520662372531E-01 a       508     0    24     1     2
  2.0228498331601070E+00 a       509     0    24     1     3
  3.0768818918457637E+00 a       510     0    24     1     4
 -8.5586290512732077E-01 a       511     0    24     1     5
  4.7109477207138373E-01 a       512     0    24     1     6
  4.3492842497782513E-01 a       513     0    24     1     7
 -1.2682213375981257E+00 a       514     0    24     1     8
  1.1366159684877062E+00 a       515     0    24     1     9
  4.1497009253643621E-02 a       516     0    24     1    10
 -1.2329421288295168E+00 a       517     0    24     1    11
  1.0840921537038120E+00 a       518     0    24     1    12
  4.2711004799228097E-01 a       519     0    24     1    13
 -3.6101533308165226E+00 a       520     0    24     1    14
 -2.3191248755957257E+00 a       521     0    24     1    15
 -7.2050163242094056E-01 a       522     0    24     1    16
 -7.5635330191123451E-01 a       523     0    24     1    17
 -5.7429015937763073E-01 a       524     0    24     1    18
 -1.4298675371114413E+00 a       525     0    24     1    19
 -7.3737175128599264E-01 a       526     0    24     1    20
 -1.0751666537860891E+00 a       527     0    24     1    21
 -4.8128300282448944E-01 a       528     0    24     1    22
 -7.8590071787449090E-02 a       529     0    25     1     1
 -1.4200970841319858E+00 a       530     0    25     1     2
 -3.0318772521869275E-01 a       531     0    25     1     3
 -1.3247075589572490E+00 a       532     0    25     1     4
  1.6363801776849882E+00 a       533     0    25     1     5
 -6.7979851110485523E-01 a       534     0    25     1     6
  1.1958279606703388E+00 a       535     0    25     1     7
 -1.0155835981315380E-01 a       536     0    25     1     8
  1.5289987240845149E+00 a       537     0    25     1     9
  4.4294289118587404E-01 a       538     0    25     1    10
 -2.9749935440366326E-01 a       539     0    25     1    11
  2.3098551054307257E+00 a       540     0    25     1    12
  3.1628032669022721E-01 a       541     0    25     1    13
  2.4494806896120660E+00 a       542     0    25     1    14
 -1.1931748500741890E+00 a       543     0    25     1    15
 -5.8406548541450790E-02 a       544     0    25     1    16
  1.0794143177791513E+00 a       545     0    25     1    17
  1.3788224052919253E+00 a       546     0    25     1    18
 -3.0277917252664227E-01 a       547     0    25     1    19
 -1.3458379114203518E+00 a       548     0    25     1    20
 -7.6621979742887170E-01 a       549     0    25     1    21
 -3.7129722095357331E-01 a       550     0    25     1    22
 -3.5236584815335072E-02 a       551     0    26     1     1
 -9.7683803126298444E-02 a       552     0    26     1     2
  5.7496319293075637E-02 a       553     0    26     1     3
  1.0333652403600366E+00 a       554     0    26     1     4
 -2.2074599177197336E+00 a       555     0    26     1     5
 -5.7990707272338260E-01 a       556     0    26     1     6
  1.0243197835359479E-01 a       557     0    26     1     7
  8.6729852162908558E-02 a       558     0    26     1     8
  1.0091475215902819E+00 a       559     0    26     1     9
 -3.0258367499237715E+00 a       560     0    26     1    10
  1.0886332672234611E+00 a       561     0    26     1    11
 -1.0801202173290143E-01 a       562     0    26     1    12
 -5.2125473047637794E-01 a       563     0    26     1    13
 -1.6018311584230069E+00 a       564     0    26     1    14
  3.5341993374716207E-01 a       565     0    26     1    15
  2.3244968428900648E+00 a       566     0    26     1    16
  1.6302634774022480E+00 a       567     0    26     1    17
 -1.7611511311923276E+00 a       568     0    26     1    18
 -6.6490604774949735E-01 a       569     0    26     1    19
 -1.4217024484405507E+00 a       570     0    26     1    20
  2.5745032048285332E+00 a       571     0    26     1    21
 -2.1927232988322012E+00 a       572     0    26     1    22
  2.7776405009407568E+00 a       573     0    27     1     1
  6.3626044588785713E-01 a       574     0    27     1     2
  1.3238547048513167E+00 a       575     0    27     1     3
 -2.1123946014728796E+00 a       576     0    27     1     4
  2.1877978151768733E+00 a       577     0    27     1     5
  5.4199634830744881E-01 a       578     0    27     1     6
  1.6675892659329155E+00 a       579     0    27     1     7
 -3.3071127527373654E+00 a       580     0    27     1     8
  3.2321964233221716E+00 a       581     0    27     1     9
 -4.7627684227887429E-01 a       582     0    27     1    10
  1.0999361834711012E+00 a       583     0    27     1    11
 -1.0869537260513715E+00 a       584     0    27     1    12
  1.8684488471027731E+00 a       585     0    27     1    13
 -1.4670648708979221E+00 a       586     0    27     1    14
  1.2650911270733249E+00 a       587     0    27     1    15
 -3.2653057847954781E+00 a       588     0    27     1    16
 -1.0028941700737581E+00 a       589     0    27     1    17
  6.6393218916609253E-01 a       590     0    27     1    18
  4.1379264543638081E+00 a       591     0    27     1    19
  9.4882673295948929E-03 a       592     0    27     1    20
 -8.4402185186286460E-01 a       593     0    27     1    21
  1.3693600603816429E+00 a       594     0    27     1    22
  6.0900406019192677E-01 a       595     0    28     1     1
 -1.9687157253509713E-01 a       596     0    28     1     2
 -4.9402672736841646E-01 a       597     0    28     1     3
  3.0067833659536330E-01 a       598     0    28     1     4
  3.0755285331883586E-01 a       599     0    28     1     5
 -3.9626733837109995E-01 a       600     0    28     1     6
  1.0963734932835847E+00 a       601     0    28     1     7
  1.7520681424476980E+00 a       602     0    28     1     8
  4.6485300886747027E-01 a       603     0    28     1     9
  1.0672113121795490E+00 a       604     0    28     1    10
  3.9443030086222708E-01 a       605     0    28     1    11
  1.4666681100876637E+00 a       606     0    28     1    12
  4.5361650932019465E-01 a       607     0    28     1    13
  2.4634364506446271E+00 a       608     0    28     1    14
 -1.6009735052176175E+00 a       609     0    28     1    15
  1.2015106100849162E+00 a       610     0    28     1    16
  7.9751552793219893E-01 a       611     0    28     1    17
  8.0983379052580309E-02 a       612     0    28     1    18
  1.1663140265279641E+00 a       613     0    28     1    19
 -2.1727828165848160E+00 a       614     0    28     1    20
  1.2018744999904792E-01 a       615     0    28     1    21
 -4.2094593512237238E-01 a       616     0    28     1    22
  4.9284111274008024E-01 a       617     0    29     1     1
  7.8862773706311651E-01 a       618     0    29     1     2
  5.0073111509934243E-01 a       619     0    29     1     3
  2.9941213457933097E-01 a       620     0    29     1     4
 -1.2210259015440481E+00 a       621     0    29     1     5
  4.0730478691590688E-01 a       622     0    29     1     6
 -1.3179041921515802E-01 a       623     0    29     1     7
  3.2021094646058139E+00 a       624     0    29     1     8
 -6.7491498901549607E-01 a       625     0    29     1     9
 -1.8404654783840015E+00 a       626     0    29     1    10
 -3.4553566526546536E-01 a       627     0    29     1    11
 -1.3637334975896709E+00 a       628     0    29     1    12
 -4.7720390293019804E-01 a       629     0    29     1    13
 -1.2738432252399703E+00 a       630     0    29     1    14
  7.8606795271284646E-01 a       631     0    29     1    15
  3.4194388709569257E-01 a       632     0    29     1    16
  1.1199452039611327E-01 a       633     0    29     1    17
 -1.3784880067451257E+00 a       634     0    29     1    18
 -3.0406222916750658E-01 a       635     0    29     1    19
  1.4057006321883636E+00 a       636     0    29     1    20
  8.5247452842367122E-01 a       637     0    29     1    21
 -1.4925232893166902E+00 a       638     0    29     1    22
  6.4588416813080995E-01 a       639     0    30     1     1
  1.0200776828734981E+00 a       640     0    30     1     2
 -9.0798300294470358E-01 a       641     0    30     1     3
  3.6766779840175440E-01 a       642     0    30     1     4
  1.5914643731925848E+00 a       643     0    30     1     5
 -2.2050750973848037E+00 a       644     0    30     1     6
  5.1989445895956332E-01 a       645     0    30     1     7
 -8.7100813052067361E-01 a       646     0    30     1     8
  2.5170166142248136E+00 a       647     0    30     1     9
  2.4296586134315539E+00 a       648     0    30     1    10
 -1.8125815791639957E-01 a       649     0    30     1    11
  1.4713659463588471E+00 a       650     0    30     1    12
  3.3122639637350731E-01 a       651     0    30     1    13
  1.8112974064070417E+00 a       652     0    30     1    14
  2.9066367661585568E+00 a       653     0    30     1    15
  6.8767009849046212E-01 a       654     0    30     1    16
 -7.3130665408857776E-01 a       655     0    30     1    17
 -4.6185492237648501E-01 a       656     0    30     1    18
  2.0190901214796914E-01 a       657     0    30     1    19
  5.4260233991037641E+00 a       658     0    30     1    20
 -3.4939804027185510E+00 a       659     0    30     1    21
 -4.6688456913691008E+00 a       660     0    30     1    22
  4.6789717659253921E-01 a       661     0    31     1     1
  2.6709389747099382E-01 a       662     0    31     1     2
  5.1195647539854627E-01 a       663     0    31     1     3
 -1.5511913474746706E+00 a       664     0    31     1     4
 -1.1217233502522366E+00 a       665     0    31     1     5
 -7.8028882627105911E-01 a       666     0    31     1     6
  2.1569832173501577E+00 a       667     0    31     1     7
  1.4293665443810484E+00 a       668     0    31     1     8
 -7.7712449913052817E-01 a       669     0    31     1     9
  7.7710539636374376E-01 a       670     0    31     1    10
 -7.5052010369778643E-01 a       671     0    31     1    11
 -2.4015689708121590E-01 a       672     0    31     1    12
 -1.7482207853471186E+00 a       673     0    31     1    13
  4.1618387295245729E-01 a       674     0    31     1    14
  1.6429139593018298E+00 a       675     0    31     1    15
  2.6372267669171379E+00 a       676     0    31     1    16
  6.6881644276097585E-01 a       677     0    31     1    17
 -1.1431234053218269E+00 a       678     0    31     1    18
 -2.2842291193717262E-01 a       679     0    31     1    19
 -1.9026189742774020E+00 a       680     0    31     1    20
  3.6569041169681915E-01 a       681     0    31     1    21
 -2.2549420526314763E+00 a       682     0    31     1    22
  4.1099974141024592E-01 a       683     0    32     1     1
 -2.8208814072894878E-01 a       684     0    32     1     2
  2.1666890913347437E-02 a       685     0    32     1     3
  3.6229919947349037E-01 a       686     0    32     1     4
  1.0441421719004860E+00 a       687     0    32     1     5
  8.0918649691341094E-01 a       688     0    32     1     6
 -1.3376854524271096E+00 a       689     0    32     1     7
  1.9912441580669757E+00 a       690     0    32     1     8
 -3.8897367554833595E-01 a       691     0    32     1     9
 -9.1684506775936747E-01 a       692     0    32     1    10
 -1.7610520110683463E+00 a       693     0    32     1    11
 -3.6550475481971695E-01 a       694     0    32     1    12
 -9.7028351142257652E-01 a       695     0    32     1    13
 -1.6474031750582456E+00 a       696     0    32     1    14
 -3.0914718828864929E-01 a       697     0    32     1    15
 -3.8277746465849782E-01 a       698     0    32     1    16
  1.1981080898173959E+00 a       699     0    32     1    17
  1.6178349263038219E+00 a       700     0    32     1    18
 -7.6613967204335032E-01 a       701     0    32     1    19
  1.6387868647354822E+00 a       702     0    32     1    20
 -9.8803246515312304E-01 a       703     0    32     1    21
 -8.9503811465105852E-03 a       704     0    32     1    22
 -1.6913703257606088E+00 a       705     0    33     1     1
 -3.6742435453695782E-01 a       706     0    33     1     2
 -1.8982962051508628E-01 a       707     0    33     1     3
  1.5493693471742509E+00 a       708     0    33     1     4
  5.1949662075967207E-01 a       709     0    33     1     5
 -7.0841259116613153E-01 a       710     0    33     1     6
  8.3125646248453555E-01 a       711     0    33     1     7
  1.5120985631482982E+00 a       712     0    33     1     8
 -3.6367468640285527E+00 a       713     0    33     1     9
  2.9729299352265298E-01 a       714     0    33     1    10
  7.8905656336459273E-01 a       715     0    33     1    11
  1.4834701936255736E+00 a       716     0    33     1    12
 -1.0192985488929327E+00 a       717     0    33     1    13
  8.6703246017018898E-02 a       718     0    33     1    14
  2.0476791184310610E+00 a       719     0    33     1    15
  1.7831225272777751E+00 a       720     0    33     1    16
 -1.1467914768451148E+00 a       721     0    33     1    17
 -7.4508427731623320E-02 a       722     0    33     1    18
 -2.3066943908123063E+00 a       723     0    33     1    19
  9.0652704205716328E-01 a       724     0    33     1    20
 -1.3595344276488126E+00 a       725     0    33     1    21
 -2.7411671597668019E-01 a       726     0    33     1    22
 -1.1688724695023904E+00 a       727     0    34     1     1
 -9.4500583295896681E-02 a       728     0    34     1     2
  1.8196521221035020E+00 a       729     0    34     1     3
  5.2520563083189375E-01 a       730     0    34     1     4
 -1.4922494965302799E+00 a       731     0    34     1     5
  1.2524641209097396E+00 a       732     0    34     1     6
 -7.3619450802314923E-01 a       733     0    34     1     7
 -8.8328466608200706E-02 a       734     0    34     1     8
 -1.8208888786010693E+00 a       735     0    34     1     9
 -4.0476401292311087E-01 a       736     0    34     1    10
  4.7506329896749061E-01 a       737     0    34     1    11
 -1.4345932450765040E+00 a       738     0    34     1    12
 -3.5705833999688630E-01 a       739     0    34     1    13
 -2.8399829110866412E+00 a       740     0    34     1    14
  5.4648352789823751E-01 a       741     0    34     1    15
 -5.5669982517909666E-02 a       742     0    34     1    16
 -9.6299615693768126E-01 a       743     0    34     1    17
 -1.4280786545108259E-01 a       744     0    34     1    18
 -8.1078259102035199E-01 a       745     0    34     1    19
 -1.6059227906568954E+00 a       746     0    34     1    20
 -1.1717142157863687E+00 a       747     0    34     1    21
 -1.4112387832491413E+00 a       748     0    34     1    22
  3.2453948068853139E-01 a       749     0    35     1     1
 -6.9255029518809172E-02 a       750     0    35     1     2
 -1.2990812076584022E+00 a       751     0    35     1     3
  2.6624686472426190E-01 a       752     0    35     1     4
  6.9646017357714474E-01 a       753     0    35     1     5
 -2.9864605807095250E-03 a       754     0    35     1     6
 -1.4071302965732044E+00 a       755     0    35     1     7
 -3.6159174392068782E-01 a       756     0    35     1     8
  1.0407025899463029E+00 a       757     0    35     1     9
 -3.4593073839432831E-01 a       758     0    35     1    10
  6.2171183662323215E-01 a       759     0    35     1    11
  6.0940434248137565E-01 a       760     0    35     1    12
  2.3228738084495279E-01 a       761     0    35     1    13
 -1.4113482200885716E+00 a       762     0    35     1    14
 -2.8299914844122431E-01 a       763     0    35     1    15
  7.5577641371931858E-01 a       764     0    35     1    16
 -2.7003861804208240E-01 a       765     0    35     1    17
  2.7865957095604847E+00 a       766     0    35     1    18
 -1.3124225847934554E+00 a       767     0    35     1    19
 -8.5610188471258264E-01 a       768     0    35     1    20
  4.1777581694906374E-01 a       769     0    35     1    21
  1.0998041750248633E+00 a       770     0    35     1    22
  1.5878165452472381E-01 a       771     0    36     1     1
  3.6051989930255007E-01 a       772     0    36     1     2
  9.6322315975761952E-01 a       773     0    36     1     3
 -2.9305520302240877E+00 a       774     0    36     1     4
  3.6404379102373502E-01 a       775     0    36     1     5
  2.7916795281479090E-01 a       776     0    36     1     6
  1.5052387945195405E+00 a       777     0    36     1     7
 -7.7114756196465306E-01 a       778     0    36     1     8
  2.4816840360900501E+00 a       779     0    36     1     9
 -1.7854917035336544E+00 a       780     0    36     1    10
  1.7662527128033345E+00 a       781     0    36     1    11
  7.6542827577230366E-01 a       782     0    36     1    12
  9.2036639342445414E-01 a       783     0    36     1    13
 -5.9234797455068988E-01 a       784     0    36     1    14
  3.5331143372044349E-01 a       785     0    36     1    15
 -2.1169825532592275E+00 a       786     0    36     1    16
 -4.0425059767580492E-02 a       787     0    36     1    17
  7.1010385704886247E-01 a       788     0    36     1    18
 -7.6839714026424266E-01 a       789     0    36     1    19
  1.6705259086035020E+00 a       790     0    36     1    20
  4.7391746623238246E-01 a       791     0    36     1    21
  1.9246674176747343E+00 a       792     0    36     1    22
 -9.5078123179461210E-02 a       793     0    37     1     1
  1.4145646571734154E+00 a       794     0    37     1     2
  2.3311801316431913E+00 a       795     0    37     1     3
  3.2217803732306505E-01 a       796     0    37     1     4
 -1.1444252823416357E+00 a       797     0    37     1     5
  2.3575217256374939E-01 a       798     0    37     1     6
 -2.2535553888077389E+00 a       799     0    37     1     7
  5.4170273369006394E-01 a       800     0    37     1     8
 -1.6547991666954347E+00 a       801     0    37     1     9
  1.8039804977569482E+00 a       802     0    37     1    10
  2.2159505375862496E+00 a       803     0    37     1    11
  1.6378213704583555E+00 a       804     0    37     1    12
  2.2980470035062717E+00 a       805     0    37     1    13
 -3.1380931008850221E-01 a       806     0    37     1    14
 -1.8364883320178120E+00 a       807     0    37     1    15
 -1.7998526381567406E+00 a       808     0    37     1    16
  8.4603081226412177E-02 a       809     0    37     1    17
  7.9729881512676237E-01 a       810     0    37     1    18
 -1.2164980306910067E+00 a       811     0    37     1    19
 -6.8447621480858944E-01 a       812     0    37     1    20
  7.3196792749361550E-01 a       813     0    37     1    21
  4.7490960841792322E-02 a       814     0    37     1    22
  4.5391393587306411E-01 a       815     0    38     1     1
 -2.1224090786171207E-01 a       816     0    38     1     2
 -1.0315099801153433E+00 a       817     0    38     1     3
 -9.3987693799563787E-02 a       818     0    38     1     4
  3.3555229865948499E-01 a       819     0    38     1     5
 -7.8094352427842595E-01 a       820     0    38     1     6
 -1.2137264470652533E-01 a       821     0    38     1     7
  1.6691996754802352E+00 a       822     0    38     1     8
  4.5414994597184941E-02 a       823     0    38     1     9
  4.6242697746446748E-01 a       824     0    38     1    10
  5.3396400718017367E-01 a       825     0    38     1    11
  3.2125673479043236E-02 a       826     0    38     1    12
 -3.5533924053430604E-01 a       827     0    38     1    13
 -5.0125471561371526E-01 a       828     0    38     1    14
  6.2746488333985551E-01 a       829     0    38     1    15
 -1.0361353755864042E+00 a       830     0    38     1    16
  2.2742601364892442E-01 a       831     0    38     1    17
 -6.8915966664060502E-01 a       832     0    38     1    18
  2.2397203348520262E-01 a       833     0    38     1    19
 -8.7014303492220405E-02 a       834     0    38     1    20
 -2.5039340494025980E-01 a       835     0    38     1    21
 -6.3462110653029302E-01 a       836     0    38     1    22
 -4.9227253615166672E-01 a       837     0    39     1     1
 -2.4764207582226394E-01 a       838     0    39     1     2
 -9.5622835204136236E-01 a       839     0    39     1     3
 -6.5003802408746358E-01 a       840     0    39     1     4
 -1.7666435689998488E+00 a       841     0    39     1     5
  1.2551595874331822E+00 a       842     0    39     1     6
 -7.0694800314844564E-01 a       843     0    39     1     7
 -2.5383238592663919E+00 a       844     0    39     1     8
 -1.6615068536818307E+00 a       845     0    39     1     9
  1.3439970389029763E+00 a       846     0    39     1    10
 -7.4751091293347605E-01 a       847     0    39     1    11
 -1.4606790875065669E+00 a       848     0    39     1    12
 -2.5103484765331030E-01 a       849     0    39     1    13
 -9.0466139128481016E-01 a       850     0    39     1    14
 -2.6741788469633676E-01 a       851     0    39     1    15
 -5.3738708725762785E-01 a       852     0    39     1    16
  1.1806059174119263E+00 a       853     0    39     1    17
  1.0127605895376143E-01 a       854     0    39     1    18
 -2.7381832345745899E-01 a       855     0    39     1    19
 -4.7202839227610727E-01 a       856     0    39     1    20
 -1.7069666459178858E+00 a       857     0    39     1    21
 -6.0776134918017510E-01 a       858     0    39     1    22
 -1.5838752465415651E+00 a       859     0    40     1     1
  8.2430813271000117E-02 a       860     0    40     1     2
 -4.6430269534519248E-03 a       861     0    40     1     3
  6.6681542288222095E-01 a       862     0    40     1     4
 -9.1484683379751974E-01 a       863     0    40     1     5
 -1.6466871595627619E+00 a       864     0    40     1     6
 -1.9196572221736710E+00 a       865     0    40     1     7
  2.2297985683279480E+00 a       866     0    40     1     8
 -3.8244632793372496E-01 a       867     0    40     1     9
  8.1015497287398552E-01 a       868     0    40     1    10
  1.6650636522640252E+00 a       869     0    40     1    11
 -6.9333230553829106E-01 a       870     0    40     1    12
 -3.4731852086267356E-01 a       871     0    40     1    13
  3.5471924024540746E-01 a       872     0    40     1    14
  1.6103203717756942E-01 a       873     0    40     1    15
 -1.4333660276105550E-01 a       874     0    40     1    16
  4.5981042081351918E-03 a       875     0    40     1    17
  1.3621742939717718E+00 a       876     0    40     1    18
  8.1583358151181851E-01 a       877     0    40     1    19
  1.7447954289216316E-01 a       878     0    40     1    20
  7.9391967536460240E-01 a       879     0    40     1    21
 -5.9141974489596905E-01 a       880     0    40     1    22
  4.9272289242932643E-01 a       881     0    41     1     1
 -2.8873667120642243E-01 a       882     0    41     1     2
 -5.3849090637187269E-01 a       883     0    41     1     3
 -7.0336313560465757E-01 a       884     0    41     1     4
 -3.3159454448183287E-02 a       885     0    41     1     5
 -5.1565993529513732E-01 a       886     0    41     1     6
  3.1585765245561159E-01 a       887     0    41     1     7
 -4.1763316233569420E-01 a       888     0    41     1     8
 -5.8050491614510369E-02 a       889     0    41     1     9
 -9.5968117708239473E-02 a       890     0    41     1    10
  1.1100467636249527E+00 a       891     0    41     1    11
  5.8467537075764853E-02 a       892     0    41     1    12
 -2.0427173865472581E-01 a       893     0    41     1    13
 -8.6294640350011020E-01 a       894     0    41     1    14
 -5.1606890879744638E-01 a       895     0    41     1    15
  1.6602173335542453E-01 a       896     0    41     1    16
 -6.5161036220462298E-01 a       897     0    41     1    17
 -1.4802538537250127E+00 a       898     0    41     1    18
  2.7277861172133638E-01 a       899     0    41     1    19
  4.1085993517160763E-01 a       900     0    41     1    20
 -2.0489248314836198E-01 a       901     0    41     1    21
  7.9700528990521968E-01 a       902     0    41     1    22
  4.0393746011303661E-01 a       903     0    42     1     1
  1.8586651690287088E+00 a       904     0    42     1     2
  4.5817949414568371E-01 a       905     0    42     1     3
  1.1142645086766774E+00 a       906     0    42     1     4
  1.6488905856972944E+00 a       907     0    42     1     5
 -6.1878194617283877E-01 a       908     0    42     1     6
 -2.1593930372937526E+00 a       909     0    42     1     7
  9.9130697737177853E-01 a       910     0    42     1     8
  2.1134558718492663E-01 a       911     0    42     1     9
 -2.3171579362843047E+00 a       912     0    42     1    10
 -1.4745801059298904E+00 a       913     0    42     1    11
 -3.5628111267481027E-02 a       914     0    42     1    12
 -1.5481204662985661E+00 a       915     0    42     1    13
  1.3346114594387384E+00 a       916     0    42     1    14
  3.7240834044416071E-01 a       917     0    42     1    15
  1.5688881231259435E+00 a       918     0    42     1    16
  1.0894643825841133E+00 a       919     0    42     1    17
 -5.7211759122606354E-01 a       920     0    42     1    18
 -1.9589247130130574E+00 a       921     0    42     1    19
 -2.2510871554435417E+00 a       922     0    42     1    20
  8.4756648510904098E-01 a       923     0    42     1    21
  8.1707414012117041E-01 a       924     0    42     1    22
 -1.5386942234433754E+00 a       925     0    43     1     1
 -1.6585138443249974E+00 a       926     0    43     1     2
 -1.7516710455618958E+00 a       927     0    43     1     3
  2.5556885928079193E-01 a       928     0    43     1     4
 -9.8527401925632674E-01 a       929     0    43     1     5
 -1.9895093018487167E-01 a       930     0    43     1     6
 -7.8911941098290539E-01 a       931     0    43     1     7
 -5.2407769682832128E-01 a       932     0    43     1     8
  2.0823604001727372E-01 a       933     0    43     1     9
 -3.4196773719009904E-01 a       934     0    43     1    10
  9.8308499952862852E-02 a       935     0    43     1    11
 -3.1220291071651722E+00 a       936     0    43     1    12
 -3.0724467810039093E+00 a       937     0    43     1    13
 -1.4929824532715039E-01 a       938     0    43     1    14
 -1.0057831567031519E+00 a       939     0    43     1    15
  2.6409216447573947E+00 a       940     0    43     1    16
 -1.2571979424057314E-01 a       941     0    43     1    17
  7.3507282015849706E-01 a       942     0    43     1    18
  5.6350753811415499E-01 a       943     0    43     1    19
 -1.0178515070257817E-01 a       944     0    43     1    20
 -6.2562201923367000E-01 a       945     0    43     1    21
  9.7330568121533156E-01 a       946     0    43     1    22
  1.5615164614850723E+00 a       947     0    44     1     1
  4.2956579214970175E-02 a       948     0    44     1     2
  1.0969794613930062E+00 a       949     0    44     1     3
  2.7597380195722299E-01 a       950     0    44     1     4
  1.0922719137980939E+00 a       951     0    44     1     5
  8.6413901035581275E-01 a       952     0    44     1     6
  1.7359385547889375E-01 a       953     0    44     1     7
  1.1027734695645306E+00 a       954     0    44     1     8
 -1.7043057379228405E-01 a       955     0    44     1     9
  6.4184160067050022E-01 a       956     0    44     1    10
 -4.8085367603907647E-01 a       957     0    44     1    11
  2.0523161527101969E-01 a       958     0    44     1    12
  2.9399576866762683E-01 a       959     0    44     1    13
 -9.2311386994686495E-01 a       960     0    44     1    14
  3.2937340348377714E-01 a       961     0    44     1    15
  3.1747893395790378E-01 a       962     0    44     1    16
  2.7907621033626029E-01 a       963     0    44     1    17
 -2.7740097364397609E-01 a       964     0    44     1    18
 -7.6863705719090603E-01 a       965     0    44     1    19
  1.1313890604459842E-01 a       966     0    44     1    20
  8.2884937466563089E-03 a       967     0    44     1    21
 -1.3258285611099560E-01 a       968     0    44     1    22
  9.5593613110076425E-01 a       969     0    45     1     1
  9.9739453851850968E-01 a       970     0    45     1     2
 -1.8222999843052523E+00 a       971     0    45     1     3
 -8.9330125500234014E-01 a       972     0    45     1     4
  1.5150152189336985E+00 a       973     0    45     1     5
 -4.1147533892432542E-01 a       974     0    45     1     6
  8.4643427158866247E-01 a       975     0    45     1     7
 -3.6267598803675033E-01 a       976     0    45     1     8
  8.5248602739248180E-01 a       977     0    45     1     9
  3.5967004505899536E-01 a       978     0    45     1    10
  8.2937005236213737E-02 a       979     0    45     1    11
 -1.1315462328788959E+00 a       980     0    45     1    12
  9.2990570440998621E-01 a       981     0    45     1    13
 -1.0410992854945753E-01 a       982     0    45     1    14
  1.7896068850183991E-01 a       983     0    45     1    15
 -5.4222885408000354E-01 a       984     0    45     1    16
  6.5727887899089343E-01 a       985     0    45     1    17
 -1.1893870505671098E+00 a       986     0    45     1    18
 -6.1582014665487883E-01 a       987     0    45     1    19
  1.0509721909507619E+00 a       988     0    45     1    20
 -2.4382972568117461E-01 a       989     0    45     1    21
  3.0042347408698555E-01 a       990     0    45     1    22
  3.0804056782831396E-01 a       991     0    46     1     1
  2.5550920060825690E-02 a       992     0    46     1     2
  1.4157497235941556E+00 a       993     0    46     1     3
  9.4238047272641845E-02 a       994     0    46     1     4
 -5.8158227010008434E-01 a       995     0    46     1     5
  1.1091921197344357E+00 a       996     0    46     1     6
 -6.7376153387031479E-01 a       997     0    46     1     7
 -4.7340064532383952E-01 a       998     0    46     1     8
 -8.3649517408711926E-01 a       999     0    46     1     9
 -9.5157317441114220E-01 a      1000     0    46     1    10
 -2.7671630147714645E+00 a      1001     0    46     1    11
  1.2390928289830665E+00 a      1002     0    46     1    12
  9.4031179187642686E-02 a      1003     0    46     1    13
  1.2774382843280389E-02 a      1004     0    46     1    14
  6.6260857467541123E-01 a      1005     0    46     1    15
  7.7431291691706849E-01 a      1006     0    46     1    16
 -9.8574939199962719E-01 a      1007     0    46     1    17
 -4.1985728933286559E-01 a      1008     0    46     1    18
  2.8226720808415068E-01 a      1009     0    46     1    19
 -5.0096686265829682E-01 a      1010     0    46     1    20
 -7.0500636822714557E-01 a      1011     0    46     1    21
  1.1177747401434250E+00 a      1012     0    46     1    22
 -4.0789669332047335E-01 a      1013     0    47     1     1
  9.8689528918905123E-01 a      1014     0    47     1     2
 -9.9328811328397426E-01 a      1015     0    47     1     3
  2.3017548737899043E-01 a      1016     0    47     1     4
 -9.0274771648062102E-01 a      1017     0    47     1     5
 -5.5436617171364966E-01 a      1018     0    47     1     6
 -4.2600886337747995E-01 a      1019     0    47     1     7
  3.4493018101241169E-01 a      1020     0    47     1     8
 -2.5675834250396830E+00 a      1021     0    47     1     9
 -7.6721360695330831E-01 a      1022     0    47     1    10
  6.3506296537674489E-01 a      1023     0    47     1    11
 -9.8127523742453149E-01 a      1024     0    47     1    12
 -6.0750678067589070E-01 a      1025     0    47     1    13
 -1.5259127624768472E+00 a      1026     0    47     1    14
 -1.3068060253525118E+00 a      1027     0    47     1    15
 -6.9139328711921333E-01 a      1028     0    47     1    16
  2.2370536552004244E-01 a      1029     0    47     1    17
  1.1518344872613000E+00 a      1030     0    47     1    18
  2.7025123369168141E-01 a      1031     0    47     1    19
  9.0074227101288129E-01 a      1032     0    47     1    20
 -1.1672382373076342E+00 a      1033     0    47     1    21
  7.5456051326602636E-01 a      1034     0    47     1    22
  7.3247721316230452E-01 a      1035     0    48     1     1
  7.1631534505059480E-01 a      1036     0    48     1     2
  3.2201036136114436E-01 a      1037     0    48     1     3
  3.9907082679635264E-01 a      1038     0    48     1     4
  2.8746471027967235E-01 a      1039     0    48     1     5
 -1.3551004131103015E+00 a      1040     0    48     1     6
  1.4071901162140332E+00 a      1041     0    48     1     7
 -2.8342829700653946E+00 a      1042     0    48     1     8
 -8.7235550659574213E-01 a      1043     0    48     1     9
  5.5362108819749101E-01 a      1044     0    48     1    10
  1.1196922334893773E+00 a      1045     0    48     1    11
  3.6896724099495104E-01 a      1046     0    48     1    12
 -8.1090157260375340E-01 a      1047     0    48     1    13
 -8.8045831371796321E-02 a      1048     0    48     1    14
 -6.9261891042837931E-01 a      1049     0    48     1    15
  1.2164859316854648E+00 a      1050     0    48     1    16
 -6.7621417595417144E-01 a      1051     0    48     1    17
  7.1535465116295371E-01 a      1052     0    48     1    18
 -1.0745821979562225E+00 a      1053     0    48     1    19
  1.7247616152155076E+00 a      1054     0    48     1    20
 -1.1499086814160862E+00 a      1055     0    48     1    21
  1.5312574052944974E+00 a      1056     0    48     1    22
 -1.1653275113603012E+00 a      1057     0    49     1     1
  3.6125646982495208E-01 a      1058     0    49     1     2
 -2.8441720714486723E-01 a      1059     0    49     1     3
 -4.6674822869100424E-01 a      1060     0    49     1     4
  3.1783655509808323E-01 a      1061     0    49     1     5
  2.4933438066657201E-01 a      1062     0    49     1     6
  6.0428595687243647E-01 a      1063     0    49     1     7
  2.0496019801259986E+00 a      1064     0    49     1     8
 -6.3773513655138392E-01 a      1065     0    49     1     9
  5.5859164215892032E-01 a      1066     0    49     1    10
 -6.7155213399595792E-01 a      1067     0    49     1    11
  3.9010205600532927E-01 a      1068     0    49     1    12
  4.8556526968280406E-01 a      1069     0    49     1    13
  6.1749571186339591E-01 a      1070     0    49     1    14
  2.3125992864893158E-01 a      1071     0    49     1    15
  4.4674720523241623E-01 a      1072     0    49     1    16
  8.2513072248762909E-01 a      1073     0    49     1    17
  7.0185300099930281E-01 a      1074     0    49     1    18
  5.8283456850886789E-02 a      1075     0    49     1    19
 -1.4343426308088918E+00 a      1076     0    49     1    20
  2.7209876008721173E-01 a      1077     0    49     1    21
 -1.0451394167818935E+00 a      1078     0    49     1    22
 -5.3821847554052366E-02 a      1079     0    50     1     1
 -6.4853603560404383E-01 a      1080     0    50     1     2
 -7.3718097794187665E-01 a      1081     0    50     1     3
 -2.7136382741972481E-01 a      1082     0    50     1     4
 -1.2789322387061361E-01 a      1083     0    50     1     5
 -6.2859324106105452E-01 a      1084     0    50     1     6
  1.6459571224529418E-01 a      1085     0    50     1     7
 -3.5419844465621358E-01 a      1086     0    50     1     8
 -2.3256305953286419E-01 a      1087     0    50     1     9
  7.0657698000688707E-01 a      1088     0    50     1    10
 -1.7269862435612943E-01 a      1089     0    50     1    11
 -1.5000663458645552E-01 a      1090     0    50     1    12
  7.3181763432918245E-01 a      1091     0    50     1    13
 -1.0456559523637634E+00 a      1092     0    50     1    14
 -1.2972896853550580E+00 a      1093     0    50     1    15
  5.1035307252321704E-01 a      1094     0    50     1    16
 -5.1638420010402686E-01 a      1095     0    50     1    17
  1.9531248626649456E-01 a      1096     0    50     1    18
 -3.5247384646848268E-01 a      1097     0    50     1    19
 -9.5283263836819221E-01 a      1098     0    50     1    20
 -1.0448396245670333E+00 a      1099     0    50     1    21
  1.6992753705282537E-02 a      1100     0    50     1    22
 -1.0238112701508724E+00 a      1101     0    51     1     1
  1.8378848737809292E-01 a      1102     0    51     1     2
  1.8435786758856357E-01 a      1103     0    51     1     3
 -2.1339503429491977E-01 a      1104     0    51     1     4
  1.0509676509300021E+00 a      1105     0    51     1     5
 -1.9094944772192113E+00 a      1106     0    51     1     6
 -7.7835120201248731E-01 a      1107     0    51     1     7
  3.1755422511308057E-01 a      1108     0    51     1     8
 -1.8746855411781276E+00 a      1109     0    51     1     9
 -1.5896597157832484E+00 a      1110     0    51     1    10
 -6.9870175107969623E-01 a      1111     0    51     1    11
  7.6478337898857929E-01 a      1112     0    51     1    12
  1.0093879459947264E+00 a      1113     0    51     1    13
 -4.3101850421895016E-01 a      1114     0    51     1    14
 -2.5999296096304567E+00 a      1115     0    51     1    15
  1.2168240427861092E+00 a      1116     0    51     1    16
 -1.7373914131857440E+00 a      1117     0    51     1    17
 -1.6797574977799774E+00 a      1118     0    51     1    18
  4.5128462047604256E-01 a      1119     0    51     1    19
  1.0024766716188274E+00 a      1120     0    51     1    20
 -3.5202303283396857E-01 a      1121     0    51     1    21
  1.1618974473415298E+00 a      1122     0    51     1    22
 -9.0097881592299112E-01 a      1123     0    52     1     1
 -6.9186149808615816E-01 a      1124     0    52     1     2
 -8.6862231253059738E-02 a      1125     0    52     1     3
  1.4549950547905610E-01 a      1126     0    52     1     4
  4.0570930215867740E-01 a      1127     0    52     1     5
 -1.2661010226317120E+00 a      1128     0    52     1     6
  2.7769515452393112E-01 a      1129     0    52     1     7
  6.1838104466020549E-01 a      1130     0    52     1     8
 -1.4365068409000470E+00 a      1131     0    52     1     9
 -1.8022101927395828E+00 a      1132     0    52     1    10
 -1.0925438219586756E+00 a      1133     0    52     1    11
 -7.7998638748323279E-01 a      1134     0    52     1    12
  1.6865608216181938E-01 a      1135     0    52     1    13
  3.8385368073677589E-01 a      1136     0    52     1    14
 -4.7902631407407631E-01 a      1137     0    52     1    15
 -1.7266425534313499E+00 a      1138     0    52     1    16
  1.2944034479840183E-01 a      1139     0    52     1    17
 -7.0532238516112578E-01 a      1140     0    52     1    18
 -7.5854650225008913E-01 a      1141     0    52     1    19
  1.4693042916825971E+00 a      1142     0    52     1    20
  1.1037146557867799E+00 a      1143     0    52     1    21
  1.1290635583849642E+00 a      1144     0    52     1    22
  3.1814270406383394E-01 a      1145     0    53     1     1
  1.2456841699041643E+00 a      1146     0    53     1     2
 -2.0221814790761568E+00 a      1147     0    53     1     3
  7.8376119942888456E-01 a      1148     0    53     1     4
 -1.3817336215796165E+00 a      1149     0    53     1     5
  1.4339831565518373E+00 a      1150     0    53     1     6
  1.0984100131463448E+00 a      1151     0    53     1     7
  1.2631634074900836E-02 a      1152     0    53     1     8
  3.8597536742923838E-01 a      1153     0    53     1     9
  2.4715530501190925E+00 a      1154     0    53     1    10
  1.7168476846523115E+00 a      1155     0    53     1    11
  8.2731618290036313E-01 a      1156     0    53     1    12
  2.3052609274464162E+00 a      1157     0    53     1    13
 -7.2522890320097089E-01 a      1158     0    53     1    14
  4.7507570129498036E-02 a      1159     0    53     1    15
 -1.4404469552309476E-01 a      1160     0    53     1    16
 -2.9008520790763198E-01 a      1161     0    53     1    17
  1.2562051955486133E+00 a      1162     0    53     1    18
 -2.6420317463401893E-01 a      1163     0    53     1    19
  7.8727007741815147E-01 a      1164     0    53     1    20
 -1.0603084433189991E+00 a      1165     0    53     1    21
 -7.7316505849613967E-03 a      1166     0    53     1    22
 -3.7000445818302791E-01 a      1167     0    54     1     1
  2.5515272899887464E-01 a      1168     0    54     1     2
 -1.8296163587732879E+00 a      1169     0    54     1     3
  1.0493566096011369E+00 a      1170     0    54     1     4
 -1.4044878465616601E+00 a      1171     0    54     1     5
 -3.2513459379877256E-02 a      1172     0    54     1     6
  1.6721226607458455E+00 a      1173     0    54     1     7
 -5.6738481481113001E-01 a      1174     0    54     1     8
 -4.4460869971714650E-01 a      1175     0    54     1     9
  6.7576769266345524E-02 a      1176     0    54     1    10
  1.1864805501664548E+00 a      1177     0    54     1    11
 -1.5456473838002691E+00 a      1178     0    54     1    12
  2.1104053241221516E-02 a      1179     0    54     1    13
 -1.1488596648999554E+00 a      1180     0    54     1    14
 -4.8754789759958955E-01 a      1181     0    54     1    15
 -1.0022774790600321E-01 a      1182     0    54     1    16
 -2.2136711246899399E+00 a      1183     0    54     1    17
 -5.0867896730869055E-01 a      1184     0    54     1    18
  1.1270228359702021E+00 a      1185     0    54     1    19
  3.4659642049934658E-02 a      1186     0    54     1    20
  4.6480252454847171E-01 a      1187     0    54     1    21
 -1.1630334198612293E+00 a      1188     0    54     1    22
  1.9545604917631471E-01 a      1189     0    55     1     1
 -3.3183913919825186E-01 a      1190     0    55     1     2
 -1.4231873711022682E+00 a      1191     0    55     1     3
 -3.5882782816775488E-01 a      1192     0    55     1     4
  2.3376178311940660E-01 a      1193     0    55     1     5
  1.4728333949493526E+00 a      1194     0    55     1     6
  1.1703570421087062E+00 a      1195     0    55     1     7
  1.0159251975812671E+00 a      1196     0    55     1     8
 -2.2222247769321485E-01 a      1197     0    55     1     9
  4.6759893621847182E-01 a      1198     0    55     1    10
 -1.0040982493283463E+00 a      1199     0    55     1    11
 -1.5193369896571751E+00 a      1200     0    55     1    12
 -2.6448256476083454E-01 a      1201     0    55     1    13
 -7.6597562381796824E-01 a      1202     0    55     1    14
  4.0023688057836543E-01 a      1203     0    55     1    15
 -1.6225841485953989E+00 a      1204     0    55     1    16
 -1.1356653879827396E+00 a      1205     0    55     1    17
 -1.0066877360416080E+00 a      1206     0    55     1    18
  1.1356974150849655E+00 a      1207     0    55     1    19
  1.9111823813842195E+00 a      1208     0    55     1    20
  1.2535742597686554E+00 a      1209     0    55     1    21
  1.9399172015123872E-01 a      1210     0    55     1    22
 -9.1286619171924643E-01 a      1211     0    56     1     1
  1.6366008917592278E+00 a      1212     0    56     1     2
 -6.5353626586278302E-01 a      1213     0    56     1     3
  4.1573534907277152E-02 a      1214     0    56     1     4
  1.9293258171829482E-02 a      1215     0    56     1     5
  6.3251009319816243E-01 a      1216     0    56     1     6
  1.6183410322691496E+00 a      1217     0    56     1     7
  1.6226460181620892E+00 a      1218     0    56     1     8
 -3.0361813337359511E-01 a      1219     0    56     1     9
 -3.5392022881099813E-02 a      1220     0    56     1    10
  1.4743901692476444E+00 a      1221     0    56     1    11
 -1.3400133830396310E-01 a      1222     0    56     1    12
  1.1155514978301484E+00 a      1223     0    56     1    13
 -7.8856888837522832E-01 a      1224     0    56     1    14
  1.1477480667092268E+00 a      1225     0    56     1    15
 -5.0814946841696240E-01 a      1226     0    56     1    16
 -7.4759241288916112E-01 a      1227     0    56     1    17
  1.1093830822480077E+00 a      1228     0    56     1    18
  1.5897687400713834E-03 a      1229     0    56     1    19
  1.1506830798516656E+00 a      1230     0    56     1    20
 -1.1087155893153648E+00 a      1231     0    56     1    21
 -2.2653565827040001E-01 a      1232     0    56     1    22
  2.7651049490386953E-01 a      1233     0    57     1     1
  1.3073530672844091E+00 a      1234     0    57     1     2
 -6.8997218798001325E-01 a      1235     0    57     1     3
  4.9835060150023708E-01 a      1236     0    57     1     4
 -1.0933147640262005E-01 a      1237     0    57     1     5
 -9.9048631581915791E-01 a      1238     0    57     1     6
  1.9673957507682986E+00 a      1239     0    57     1     7
 -5.5444808525017841E-01 a      1240     0    57     1     8
  5.6044424188465902E-01 a      1241     0    57     1     9
 -5.6532220194872429E-01 a      1242     0    57     1    10
  1.4765888992606016E+00 a      1243     0    57     1    11
 -7.0767867770889337E-01 a      1244     0    57     1    12
  1.1932809352190257E+00 a      1245     0    57     1    13
 -1.1392393397785174E+00 a      1246     0    57     1    14
  1.1146598658990339E+00 a      1247     0    57     1    15
  6.6761810005923794E-02 a      1248     0    57     1    16
 -1.5926221884140537E+00 a      1249     0    57     1    17
 -6.6822016198039358E-01 a      1250     0    57     1    18
 -2.0586701561793838E-01 a      1251     0    57     1    19
  2.5043269585269373E-01 a      1252     0    57     1    20
 -1.0559367520273100E+00 a      1253     0    57     1    21
  1.4481508982300792E-01 a      1254     0    57     1    22
  1.0001336287549647E+00 a      1255     0    58     1     1
 -6.8229287810311856E-01 a      1256     0    58     1     2
 -6.8435098498809022E-01 a      1257     0    58     1     3
  3.6292073173281980E-01 a      1258     0    58     1     4
 -3.7648544902011433E-01 a      1259     0    58     1     5
 -4.1451916408244971E-01 a      1260     0    58     1     6
 -3.8383399536950297E-01 a      1261     0    58     1     7
 -1.3711892392931890E-01 a      1262     0    58     1     8
 -2.6141857838016463E-01 a      1263     0    58     1     9
 -1.7069871627389042E+00 a      1264     0    58     1    10
 -9.5850939444802064E-01 a      1265     0    58     1    11
  6.6496637451150961E-02 a      1266     0    58     1    12
  1.6825523493398029E+00 a      1267     0    58     1    13
 -8.4005737580741513E-01 a      1268     0    58     1    14
 -2.2330374267587857E-01 a      1269     0    58     1    15
 -5.2699809713754897E-01 a      1270     0    58     1    16
 -1.2227818525951857E+00 a      1271     0    58     1    17
  9.1657680123820540E-01 a      1272     0    58     1    18
  1.4193867386482495E+00 a      1273     0    58     1    19
  1.1244527595998539E+00 a      1274     0    58     1    20
 -5.3714767104576422E-01 a      1275     0    58     1    21
  2.4244854848639519E-02 a      1276     0    58     1    22
 -7.4774543816103645E-01 a      1277     0    59     1     1
  4.5947584187298707E-01 a      1278     0    59     1     2
  9.1127216253694343E-01 a      1279     0    59     1     3
  1.0086847402494479E+00 a      1280     0    59     1     4
  2.9752321096802281E-01 a      1281     0    59     1     5
  6.8893255003418408E-01 a      1282     0    59     1     6
  9.5612547373374579E-01 a      1283     0    59     1     7
 -4.1920493415097093E-01 a      1284     0    59     1     8
 -2.7277519979275255E-01 a      1285     0    59     1     9
 -4.9979962914878651E-01 a      1286     0    59     1    10
  1.0455197591848662E+00 a      1287     0    59     1    11
 -3.3407870849200727E-01 a      1288     0    59     1    12
  3.0878566704622362E-01 a      1289     0    59     1    13
  6.0526915083888977E-01 a      1290     0    59     1    14
 -2.2595835870637465E-01 a      1291     0    59     1    15
  8.5375695525266782E-01 a      1292     0    59     1    16
  9.3275020085074722E-01 a      1293     0    59     1    17
  7.8400130816394009E-01 a      1294     0    59     1    18
 -1.4524589202636913E+00 a      1295     0    59     1    19
  5.9904549238990107E-02 a      1296     0    59     1    20
  9.7380244993539689E-01 a      1297     0    59     1    21
 -6.1351179533718592E-01 a      1298     0    59     1    22
 -4.5876347419261526E-01 a      1299     0    60     1     1
 -8.9253117864486831E-01 a      1300     0    60     1     2
  1.0917996479979422E+00 a      1301     0    60     1     3
  5.8044102608885129E-01 a      1302     0    60     1     4
 -5.1187021258620891E-01 a      1303     0    60     1     5
 -2.0840026463463888E+00 a      1304     0    60     1     6
  5.4769078329652232E-01 a      1305     0    60     1     7
 -2.3195829233930199E-01 a      1306     0    60     1     8
  3.3378511440617008E-02 a      1307     0    60     1     9
 -8.7773899060612770E-01 a      1308     0    60     1    10
 -8.8922312909822970E-02 a      1309     0    60     1    11
  6.9731194107432537E-01 a      1310     0    60     1    12
  1.3265916102143636E+00 a      1311     0    60     1    13
 -2.2576011440315893E-01 a      1312     0    60     1    14
  1.0487298011900030E+00 a      1313     0    60     1    15
  1.0803057770849824E+00 a      1314     0    60     1    16
 -1.1010556112664027E+00 a      1315     0    60     1    17
  3.5980625502146524E-01 a      1316     0    60     1    18
  5.6577622793446825E-01 a      1317     0    60     1    19
 -3.5373665967500417E-01 a      1318     0    60     1    20
 -9.7177266489821590E-01 a      1319     0    60     1    21
 -6.5975654791080440E-01 a      1320     0    60     1    22
  3.8013842158526917E-01 a      1321     0    61     1     1
 -2.0216757224049109E-01 a      1322     0    61     1     2
 -3.8143723519868522E-01 a      1323     0    61     1     3
 -8.5448709365952391E-01 a      1324     0    61     1     4
  2.6609590838848401E-01 a      1325     0    61     1     5
  4.2521864493926718E-02 a      1326     0    61     1     6
  1.0551399965974657E+00 a      1327     0    61     1     7
 -5.9998488235153757E-01 a      1328     0    61     1     8
  1.4304214883200819E+00 a      1329     0    61     1     9
 -1.9525304266566796E+00 a      1330     0    61     1    10
 -1.5427122047130987E-01 a      1331     0    61     1    11
  1.5218057008384451E+00 a      1332     0    61     1    12
  1.3902262998240600E+00 a      1333     0    61     1    13
  1.2255656471441438E+00 a      1334     0    61     1    14
  1.6660481609364617E+00 a      1335     0    61     1    15
 -1.0830731043675190E-01 a      1336     0    61     1    16
  8.9737765185764082E-02 a      1337     0    61     1    17
 -3.9546029782025377E-01 a      1338     0    61     1    18
 -1.4426840107974040E-01 a      1339     0    61     1    19
 -2.8964881585243074E-01 a      1340     0    61     1    20
  3.2550955848155338E-01 a      1341     0    61     1    21
 -2.0493564399805284E-01 a      1342     0    61     1    22
  3.8779491889690898E-01 a      1343     0    62     1     1
 -6.1625225562725383E-01 a      1344     0    62     1     2
 -1.3368508441770701E+00 a      1345     0    62     1     3
  1.9266324839447030E-01 a      1346     0    62     1     4
 -4.3446519260152228E-01 a      1347     0    62     1     5
 -1.0239114294179059E+00 a      1348     0    62     1     6
  1.9778712278685648E-01 a      1349     0    62     1     7
  1.5225864768273206E-01 a      1350     0    62     1     8
  4.9179136051260791E-01 a      1351     0    62     1     9
 -5.6310334975422116E-01 a      1352     0    62     1    10
  8.4191924768036042E-01 a      1353     0    62     1    11
 -2.6264641062975280E-01 a      1354     0    62     1    12
  5.0050649425542815E-01 a      1355     0    62     1    13
  1.2171111436718833E-01 a      1356     0    62     1    14
  7.4117257502426404E-01 a      1357     0    62     1    15
  2.2327443088628221E-01 a      1358     0    62     1    16
  1.3643593186655870E-01 a      1359     0    62     1    17
  4.7564671741567205E-01 a      1360     0    62     1    18
  2.7905616601899025E-01 a      1361     0    62     1    19
  4.5575967717904570E-01 a      1362     0    62     1    20
 -5.7375668786030809E-01 a      1363     0    62     1    21
  3.6710929313045965E-01 a      1364     0    62     1    22
 -7.4176725607869487E-01 a      1365     0    63     1     1
 -7.2188667691461572E-01 a      1366     0    63     1     2
 -2.6218355036427587E-01 a      1367     0    63     1     3
 -2.5941766152756573E-01 a      1368     0    63     1     4
 -1.2450880497095167E+00 a      1369     0    63     1     5
 -7.8448878618807238E-01 a      1370     0    63     1     6
  1.8551971382894841E+00 a      1371     0    63     1     7
 -7.1443117620219251E-02 a      1372     0    63     1     8
  7.3858194257737364E-01 a      1373     0    63     1     9
  1.2617279274987883E+00 a      1374     0    63     1    10
 -8.3137976851159257E-01 a      1375     0    63     1    11
 -1.1658454090834933E+00 a      1376     0    63     1    12
  9.7354508938426720E-01 a      1377     0    63     1    13
 -1.6595693327435959E-01 a      1378     0    63     1    14
  5.7564688365309846E-01 a      1379     0    63     1    15
 -7.9410139187199891E-01 a      1380     0    63     1    16
  2.6776498687468919E-01 a      1381     0    63     1    17
 -3.5909025983648074E-01 a      1382     0    63     1    18
  2.0999222668659587E-01 a      1383     0    63     1    19
 -1.4728918190792609E-01 a      1384     0    63     1    20
  3.3385763015575359E-01 a      1385     0    63     1    21
  2.4080800951257736E-01 a      1386     0    63     1    22
  1.7583755826883210E-01 a      1387     0    64     1     1
 -5.3694508088331527E-01 a      1388     0    64     1     2
 -1.1331604439782414E-01 a      1389     0    64     1     3
  8.5174005307014411E-01 a      1390     0    64     1     4
  1.4541780610076958E+00 a      1391     0    64     1     5
 -1.1463234325329756E+00 a      1392     0    64     1     6
  6.1475986690796802E-01 a      1393     0    64     1     7
  1.6392439095913244E-01 a      1394     0    64     1     8
  8.4111093319908112E-02 a      1395     0    64     1     9
  1.6812770956137488E+00 a      1396     0    64     1    10
  1.7140583395928919E+00 a      1397     0    64     1    11
  2.4190315731140730E+00 a      1398     0    64     1    12
 -4.2627257435138399E-01 a      1399     0    64     1    13
  4.8132832865146230E-01 a      1400     0    64     1    14
  3.1976997924239731E-01 a      1401     0    64     1    15
 -1.5358295914370285E-01 a      1402     0    64     1    16
 -1.3021279108538253E-01 a      1403     0    64     1    17
  5.4517457781946299E-01 a      1404     0    64     1    18
 -4.8636113499974520E-01 a      1405     0    64     1    19
  4.6860725349879029E-01 a      1406     0    64     1    20
 -5.4876541159678494E-01 a      1407     0    64     1    21
  3.7728763012957978E-01 a      1408     0    64     1    22
  7.9606279124037549E-01 a      1409     0    65     1     1
 -2.1180168770847461E+00 a      1410     0    65     1     2
  4.4346754389349020E-02 a      1411     0    65     1     3
  1.5886321021377647E-01 a      1412     0    65     1     4
 -2.8910838640857955E-01 a      1413     0    65     1     5
 -4.6693762353690837E-01 a      1414     0    65     1     6
 -3.1548559222413319E-01 a      1415     0    65     1     7
 -5.9346287193238578E-01 a      1416     0    65     1     8
 -5.4340645880830041E-01 a      1417     0    65     1     9
 -5.9598485831086623E-01 a      1418     0    65     1    10
 -1.0151013726876759E+00 a      1419     0    65     1    11
 -2.2054233796695377E-01 a      1420     0    65     1    12
 -7.5249239884563046E-01 a      1421     0    65     1    13
 -1.7436904209763210E-01 a      1422     0    65     1    14
  2.0974774952860678E-01 a      1423     0    65     1    15
 -3.6754190302588190E-02 a      1424     0    65     1    16
 -1.2888305396792084E+00 a      1425     0    65     1    17
  1.4824183716165748E-01 a      1426     0    65     1    18
  1.6022542152837727E-01 a      1427     0    65     1    19
 -6.9993507109900766E-02 a      1428     0    65     1    20
 -4.7432929866593426E-01 a      1429     0    65     1    21
  9.9130110183612036E-02 a      1430     0    65     1    22
 -5.7158183927866625E-02 a      1431     0    66     1     1
  1.0211182107575139E+00 a      1432     0    66     1     2
 -2.6289028554760635E-01 a      1433     0    66     1     3
  4.9819239408563154E-01 a      1434     0    66     1     4
  8.5655807176113097E-01 a      1435     0    66     1     5
  4.1181530971430563E-01 a      1436     0    66     1     6
  1.4056750597167533E-01 a      1437     0    66     1     7
 -7.1686817581802331E-01 a      1438     0    66     1     8
  2.0238512690114235E-01 a      1439     0    66     1     9
  3.5358169568414893E-01 a      1440     0    66     1    10
 -2.1494649068391167E-01 a      1441     0    66     1    11
 -3.5071702684086409E-01 a      1442     0    66     1    12
 -6.7913843151644704E-01 a      1443     0    66     1    13
 -7.2581107689016966E-01 a      1444     0    66     1    14
  7.1487048991575819E-01 a      1445     0    66     1    15
  4.8943312669675493E-01 a      1446     0    66     1    16
  1.1726203534324565E-01 a      1447     0    66     1    17
 -1.7721682245903285E+00 a      1448     0    66     1    18
 -3.4818047700007626E-01 a      1449     0    66     1    19
 -7.0968198068366972E-01 a      1450     0    66     1    20
 -1.0358378197869593E+00 a      1451     0    66     1    21
 -3.6901793160021935E-02 a      1452     0    66     1    22
 -3.9541500484692504E-01 a      1453     0    67     1     1
 -2.1668297395680122E-01 a      1454     0    67     1     2
 -4.5926320978950225E-01 a      1455     0    67     1     3
 -6.0219093961426895E-01 a      1456     0    67     1     4
  6.7373812946411316E-01 a      1457     0    67     1     5
 -6.8049215205724078E-01 a      1458     0    67     1     6
  4.3008447056395877E-01 a      1459     0    67     1     7
 -4.0361095793620505E-01 a      1460     0    67     1     8
  5.5708683841350493E-01 a      1461     0    67     1     9
 -1.8448538999506772E+00 a      1462     0    67     1    10
 -2.7271524059194413E-01 a      1463     0    67     1    11
 -1.7999474152704988E+00 a      1464     0    67     1    12
 -4.9185832496338000E-01 a      1465     0    67     1    13
  1.4126142210557630E-01 a      1466     0    67     1    14
 -9.5764609062601549E-02 a      1467     0    67     1    15
  7.9622036948610753E-01 a      1468     0    67     1    16
  4.6102523943400647E-01 a      1469     0    67     1    17
 -1.8446358215980148E+00 a      1470     0    67     1    18
 -1.7356664399920445E-02 a      1471     0    67     1    19
 -1.3101723132905909E+00 a      1472     0    67     1    20
  1.4477503759111601E-01 a      1473     0    67     1    21
 -3.5453339352016705E-01 a      1474     0    67     1    22
 -1.9757448432914235E+00 a      1475     0    68     1     1
 -2.0064331169161317E-01 a      1476     0    68     1     2
 -2.1167896646668476E+00 a      1477     0    68     1     3
 -2.6865742132581119E+00 a      1478     0    68     1     4
  2.6968905881868451E-02 a      1479     0    68     1     5
  1.0376592542319940E+00 a      1480     0    68     1     6
  1.6441563934850201E+00 a      1481     0    68     1     7
 -1.5486479129736901E+00 a      1482     0    68     1     8
 -1.7971748305605242E+00 a      1483     0    68     1     9
  1.0244414937055144E+00 a      1484     0    68     1    10
 -2.5061965207809460E+00 a      1485     0    68     1    11
 -1.4538213662641215E+00 a      1486     0    68     1    12
 -9.7474525147370927E-01 a      1487     0    68     1    13
 -2.9326409500040724E+00 a      1488     0    68     1    14
  2.8525732199926829E-01 a      1489     0    68     1    15
  2.4613152592003003E+00 a      1490     0    68     1    16
  8.5603710986081161E-01 a      1491     0    68     1    17
 -1.0782988945673828E+00 a      1492     0    68     1    18
  3.0693284958569396E+00 a      1493     0    68     1    19
  1.1792897674144849E+00 a      1494     0    68     1    20
 -7.6945109494128172E-01 a      1495     0    68     1    21
 -5.0092530564543758E-01 a      1496     0    68     1    22
  1.5723225172939876E+00 a      1497     0    69     1     1
  1.5331635205966931E-01 a      1498     0    69     1     2
  1.7052368229747494E+00 a      1499     0    69     1     3
 -1.2362453830775481E-01 a      1500     0    69     1     4
  1.7627616064917459E-01 a      1501     0    69     1     5
  8.9494733542005422E-01 a      1502     0    69     1     6
 -1.7955527699586724E+00 a      1503     0    69     1     7
  1.1031502431296394E+00 a      1504     0    69     1     8
  2.5727068852425554E+00 a      1505     0    69     1     9
 -1.8793124079821416E-01 a      1506     0    69     1    10
 -1.4634089956312299E+00 a      1507     0    69     1    11
 -3.3664458031538569E+00 a      1508     0    69     1    12
 -1.8592410941706619E+00 a      1509     0    69     1    13
  3.4672099686686013E+00 a      1510     0    69     1    14
  5.4082867356800941E+00 a      1511     0    69     1    15
 -2.3553120295661452E+00 a      1512     0    69     1    16
 -1.7013453304505770E+00 a      1513     0    69     1    17
 -2.5303205578692318E+00 a      1514     0    69     1    18
 -2.7376847713842558E+00 a      1515     0    69     1    19
  3.1662011863778386E-02 a      1516     0    69     1    20
 -2.2928315363496994E+00 a      1517     0    69     1    21
 -3.0101664752767845E+00 a      1518     0    69     1    22
  2.1756947248565983E+00 a      1519     0    70     1     1
  3.3271640514901551E-01 a      1520     0    70     1     2
 -1.7771367867786401E+00 a      1521     0    70     1     3
  5.9861470045534958E-02 a      1522     0    70     1     4
 -1.0127413765012621E+00 a      1523     0    70     1     5
  1.8899961508614427E-01 a      1524     0    70     1     6
  1.1725356612575391E+00 a      1525     0    70     1     7
  5.3320770438120180E-01 a      1526     0    70     1     8
 -6.6742319239932912E-01 a      1527     0    70     1     9
  7.0858444115431141E-01 a      1528     0    70     1    10
 -4.2285303486751359E-03 a      1529     0    70     1    11
  1.1263831047286483E+00 a      1530     0    70     1    12
 -5.1343194437320916E-01 a      1531     0    70     1    13
  1.2770301729043843E+00 a      1532     0    70     1    14
 -2.1019911350860978E+00 a      1533     0    70     1    15
  1.2663467696633455E+00 a      1534     0    70     1    16
  1.6636136765754725E-01 a      1535     0    70     1    17
 -2.9530631604041213E-01 a      1536     0    70     1    18
 -1.3321616856877452E+00 a      1537     0    70     1    19
  2.2320359449006544E-01 a      1538     0    70     1    20
 -5.8634814507705824E-01 a      1539     0    70     1    21
  2.0550593289826637E+00 a      1540     0    70     1    22
 -7.5086599627046224E-01 a      1541     0    71     1     1
  8.3757196993041871E-01 a      1542     0    71     1     2
  1.2058181407329840E+00 a      1543     0    71     1     3
 -3.4119875399591191E+00 a      1544     0    71     1     4
  3.1571617138801061E-01 a      1545     0    71     1     5
 -1.3829521200200040E-01 a      1546     0    71     1     6
  1.6357218404569516E+00 a      1547     0    71     1     7
  7.4520352086680341E-01 a      1548     0    71     1     8
 -2.4720259939416240E+00 a      1549     0    71     1     9
  2.5405044404925028E+00 a      1550     0    71     1    10
 -9.8016788695235291E-01 a      1551     0    71     1    11
 -1.0057891451715846E+00 a      1552     0    71     1    12
 -1.0345354829950709E-01 a      1553     0    71     1    13
 -1.0634779476966989E+00 a      1554     0    71     1    14
 -2.0996212188521737E+00 a      1555     0    71     1    15
  1.0526016891212269E+00 a      1556     0    71     1    16
 -1.1077543624825026E+00 a      1557     0    71     1    17
  1.6464638247637451E+00 a      1558     0    71     1    18
 -1.3878927371160836E+00 a      1559     0    71     1    19
  1.8792167258431538E+00 a      1560     0    71     1    20
  6.3708920765296362E-01 a      1561     0    71     1    21
  2.0534296666761547E+00 a      1562     0    71     1    22
 -6.0590982361304413E-01 a      1563     0    72     1     1
 -5.4170233820083569E-01 a      1564     0    72     1     2
  2.3002753364484461E+00 a      1565     0    72     1     3
  2.2791939279293709E+00 a      1566     0    72     1     4
  7.6180419707527780E-01 a      1567     0    72     1     5
 -1.5245802934971751E+00 a      1568     0    72     1     6
  4.5461520099882258E-01 a      1569     0    72     1     7
  1.0514672122472595E+00 a      1570     0    72     1     8
 -1.5642269337104858E-01 a      1571     0    72     1     9
  1.8957160846875925E+00 a      1572     0    72     1    10
 -1.1903091145271134E+00 a      1573     0    72     1    11
 -8.3375056852527718E-01 a      1574     0    72     1    12
 -1.4898252595995038E+00 a      1575     0    72     1    13
  3.2469455549847761E+00 a      1576     0    72     1    14
  2.0887019109930482E-01 a      1577     0    72     1    15
 -2.7942311008229499E+00 a      1578     0    72     1    16
 -8.8150516423262615E-01 a      1579     0    72     1    17
 -1.2094744227658660E+00 a      1580     0    72     1    18
  1.3608611032297293E+00 a      1581     0    72     1    19
 -1.6053318134563190E+00 a      1582     0    72     1    20
  1.0073887257141299E-01 a      1583     0    72     1    21
 -7.1547335763641662E-01 a      1584     0    72     1    22
  1.1411493493232254E+00 a      1585     0    73     1     1
  3.3738736886037657E-01 a      1586     0    73     1     2
  2.5558587143149453E-01 a      1587     0    73     1     3
 -7.5608812302366928E-03 a      1588     0    73     1     4
 -2.1990365221557395E+00 a      1589     0    73     1     5
  7.3854030778761445E-02 a      1590     0    73     1     6
 -1.6323217108111254E+00 a      1591     0    73     1     7
  1.2877467952308637E+00 a      1592     0    73     1     8
  4.5890206231537070E-02 a      1593     0    73     1     9
 -1.9247799732556301E-01 a      1594     0    73     1    10
 -2.3361594210970929E-01 a      1595     0    73     1    11
 -1.2798433290948468E+00 a      1596     0    73     1    12
 -5.9327707688624121E-01 a      1597     0    73     1    13
 -1.3843308043282834E+00 a      1598     0    73     1    14
  2.8708823664744720E+00 a      1599     0    73     1    15
 -3.8184381725238584E-03 a      1600     0    73     1    16
 -8.3915317481440199E-01 a      1601     0    73     1    17
 -1.2242851555661303E+00 a      1602     0    73     1    18
 -2.6694670446886839E+00 a      1603     0    73     1    19
  2.1558015528049471E-01 a      1604     0    73     1    20
  1.0196406090168846E+00 a      1605     0    73     1    21
  4.0735288560445981E-01 a      1606     0    73     1    22
  7.3829248449476248E-01 a      1607     0    74     1     1
 -1.4414266425647038E+00 a      1608     0    74     1     2
 -4.7078412498050137E-01 a      1609     0    74     1     3
  2.6917494946542626E+00 a      1610     0    74     1     4
  3.1124816909129369E+00 a      1611     0    74     1     5
  2.6543071417955166E-01 a      1612     0    74     1     6
  1.4992257221122818E+00 a      1613     0    74     1     7
  1.9225941373831401E-01 a      1614     0    74     1     8
 -6.8274288557049834E-01 a      1615     0    74     1     9
  3.2378585028617222E+00 a      1616     0    74     1    10
 -5.8688685944291075E-01 a      1617     0    74     1    11
 -3.4910663597514171E+00 a      1618     0    74     1    12
  1.2216407714113853E+00 a      1619     0    74     1    13
  3.2751235602871378E+00 a      1620     0    74     1    14
 -1.8611194690502517E+00 a      1621     0    74     1    15
 -3.3848014817958827E-01 a      1622     0    74     1    16
  1.8221696628341475E+00 a      1623     0    74     1    17
