################################################################################
# Neural network connection values (weights and biases).
################################################################################
# Col  Name       Description
################################################################################
# 1    connection Neural network connection value.
# 2    t          Connection type (a = weight, b = bias).
# 3    index      Index enumerating weights.
# 4    l_s        Starting point layer (end point layer for biases).
# 5    n_s        Starting point neuron in starting layer (end point neuron for biases).
# 6    l_e        End point layer.
# 7    n_e        End point neuron in end layer.
################################################################################
#                      1 2         3     4     5     6     7
#             connection t     index   l_s   n_s   l_e   n_e
############################################################
 -4.3605438506421207E-02 a         1     0     1     1     1
  1.6553729710635816E+00 a         2     0     1     1     2
  1.2569049700311099E+00 a         3     0     1     1     3
 -1.6820324852078947E+00 a         4     0     1     1     4
 -3.0735229338906811E-01 a         5     0     1     1     5
  5.8814125008489970E-01 a         6     0     1     1     6
 -6.8103329971731286E-01 a         7     0     1     1     7
 -1.0576137047548342E+00 a         8     0     1     1     8
  3.2167824402333345E-01 a         9     0     1     1     9
 -7.9601965215354242E-01 a        10     0     1     1    10
  5.3780840632653371E-01 a        11     0     1     1    11
  2.4914540238722802E-01 a        12     0     1     1    12
 -6.9686311606136628E-02 a        13     0     1     1    13
  2.7017651497361317E-01 a        14     0     1     1    14
  1.2563212260037342E+00 a        15     0     1     1    15
  1.1223142476828454E+00 a        16     0     1     1    16
 -1.8370180515369396E+00 a        17     0     1     1    17
  3.5871876025976780E-02 a        18     0     1     1    18
 -1.1343222268999507E+00 a        19     0     1     1    19
 -1.1854618408271180E+00 a        20     0     1     1    20
 -5.4998806339236839E-01 a        21     0     1     1    21
 -1.1738064501128009E-01 a        22     0     1     1    22
 -8.5615107780148658E-01 a        23     0     2     1     1
  1.4064695822365074E+00 a        24     0     2     1     2
 -1.5827592021459580E-01 a        25     0     2     1     3
 -3.3897277239717277E-01 a        26     0     2     1     4
 -7.6992473450304100E-01 a        27     0     2     1     5
 -1.2017212303674993E-01 a        28     0     2     1     6
 -6.5169451274962820E-01 a        29     0     2     1     7
  6.4217518998939105E-01 a        30     0     2     1     8
 -7.0645745375535118E-01 a        31     0     2     1     9
 -2.0048658449105267E-01 a        32     0     2     1    10
  1.0952406524698477E+00 a        33     0     2     1    11
 -1.0079994287625629E+00 a        34     0     2     1    12
 -8.4147298336252763E-01 a        35     0     2     1    13
  2.7503784817724469E-01 a        36     0     2     1    14
 -8.5240654099622648E-01 a        37     0     2     1    15
  1.1859291375949372E+00 a        38     0     2     1    16
 -8.3830437542102965E-01 a        39     0     2     1    17
  3.7746963573476128E-01 a        40     0     2     1    18
  7.0407135865231929E-01 a        41     0     2     1    19
  1.4000314894316852E+00 a        42     0     2     1    20
  2.3747797246634139E-01 a        43     0     2     1    21
 -2.3461394489820078E-01 a        44     0     2     1    22
  9.0472759207734577E-01 a        45     0     3     1     1
  6.7944071785726068E-01 a        46     0     3     1     2
 -4.8485786491046712E-01 a        47     0     3     1     3
 -2.0107005450595190E-02 a        48     0     3     1     4
  1.5091957264756812E+00 a        49     0     3     1     5
  1.0835991895341055E+00 a        50     0     3     1     6
 -2.2659748693730986E-01 a        51     0     3     1     7
  1.0619947451182297E+00 a        52     0     3     1     8
  5.5330368884048875E-01 a        53     0     3     1     9
 -1.8412765636899106E-01 a        54     0     3     1    10
 -7.7876685312015237E-01 a        55     0     3     1    11
  3.7884612225963571E-01 a        56     0     3     1    12
 -4.1398607978911672E-01 a        57     0     3     1    13
  1.7256272838063218E+00 a        58     0     3     1    14
  8.2228636498611063E-01 a        59     0     3     1    15
 -1.4484377861856732E+00 a        60     0     3     1    16
 -3.5701902422232318E-01 a        61     0     3     1    17
  1.2171114842182382E+00 a        62     0     3     1    18
  8.9279617992279992E-01 a        63     0     3     1    19
 -1.2642504362571425E+00 a        64     0     3     1    20
  1.4777913356256706E-01 a        65     0     3     1    21
  9.8559707567526911E-01 a        66     0     3     1    22
 -7.0577197739233252E-02 a        67     0     4     1     1
  1.1951752706528727E+00 a        68     0     4     1     2
  1.8663535084494740E+00 a        69     0     4     1     3
 -8.9809008584514427E-01 a        70     0     4     1     4
 -1.1978473235414755E+00 a        71     0     4     1     5
  5.5782199177961393E-02 a        72     0     4     1     6
  2.3754311962808658E-01 a        73     0     4     1     7
 -6.8671300137015190E-01 a        74     0     4     1     8
  1.1425603687494519E+00 a        75     0     4     1     9
 -9.6380302725207312E-01 a        76     0     4     1    10
  2.2731733959326478E-01 a        77     0     4     1    11
 -8.0148085539120795E-01 a        78     0     4     1    12
  2.8545082290559404E-01 a        79     0     4     1    13
  9.9413523478608157E-01 a        80     0     4     1    14
 -6.3768771903686006E-01 a        81     0     4     1    15
  1.0933320614623403E+00 a        82     0     4     1    16
 -1.8465719411298507E+00 a        83     0     4     1    17
 -1.4597559331711294E+00 a        84     0     4     1    18
  1.4297052533334376E-01 a        85     0     4     1    19
  8.6569404822607124E-03 a        86     0     4     1    20
 -1.1456984133803632E+00 a        87     0     4     1    21
 -6.6342327424928182E-02 a        88     0     4     1    22
  3.1452512582075620E-01 a        89     0     5     1     1
 -1.7211649555288694E-01 a        90     0     5     1     2
  1.6045613311034499E+00 a        91     0     5     1     3
  9.2030767329660879E-01 a        92     0     5     1     4
 -9.2513933116342928E-01 a        93     0     5     1     5
 -1.5460510390829558E+00 a        94     0     5     1     6
  6.9451763964538948E-01 a        95     0     5     1     7
 -1.0967127676930590E+00 a        96     0     5     1     8
  1.1443697035603686E+00 a        97     0     5     1     9
  1.2530464908447606E-01 a        98     0     5     1    10
 -7.5544739807558947E-01 a        99     0     5     1    11
 -1.1853616986090256E+00 a       100     0     5     1    12
 -8.7025467845482829E-01 a       101     0     5     1    13
  2.4801215224745324E-01 a       102     0     5     1    14
 -4.3460247220676690E-01 a       103     0     5     1    15
 -2.8391954658990887E-01 a       104     0     5     1    16
 -4.4955205411039700E-01 a       105     0     5     1    17
  1.5798773523367815E+00 a       106     0     5     1    18
 -7.6403535419457091E-01 a       107     0     5     1    19
  1.0069641644092511E+00 a       108     0     5     1    20
 -1.3819661589348111E+00 a       109     0     5     1    21
  1.1266001514715705E-01 a       110     0     5     1    22
 -6.4952822072630734E-01 a       111     0     6     1     1
 -3.0628234846231178E-01 a       112     0     6     1     2
 -1.6582785885637168E+00 a       113     0     6     1     3
 -2.3612436651619045E-01 a       114     0     6     1     4
 -4.3799046481601284E-01 a       115     0     6     1     5
  6.0974516234607201E-01 a       116     0     6     1     6
  4.9879874504377203E-01 a       117     0     6     1     7
  1.0838526758529066E+00 a       118     0     6     1     8
 -4.7589968832298990E-01 a       119     0     6     1     9
 -3.8833833898548870E-01 a       120     0     6     1    10
  1.2277378654466409E-01 a       121     0     6     1    11
  2.4898812563032703E-02 a       122     0     6     1    12
  6.7534935878437785E-01 a       123     0     6     1    13
 -3.4938092629636558E-01 a       124     0     6     1    14
 -5.3947038999346808E-01 a       125     0     6     1    15
 -7.8716457045941102E-02 a       126     0     6     1    16
  2.8638054563431803E-01 a       127     0     6     1    17
  8.1071578679849343E-01 a       128     0     6     1    18
  1.6857552852172103E-01 a       129     0     6     1    19
 -4.6755858769708031E-01 a       130     0     6     1    20
  2.1945798015842752E-01 a       131     0     6     1    21
  5.3829575018192999E-01 a       132     0     6     1    22
  4.5746834530717528E-01 a       133     0     7     1     1
 -4.0552351760745620E-01 a       134     0     7     1     2
  1.5348806866619051E+00 a       135     0     7     1     3
 -9.4899502577229802E-02 a       136     0     7     1     4
 -4.3246751101356795E-01 a       137     0     7     1     5
  7.2803930396929631E-02 a       138     0     7     1     6
 -3.8235123037020852E-01 a       139     0     7     1     7
 -3.2041267954911118E-01 a       140     0     7     1     8
  4.6347424128969561E-01 a       141     0     7     1     9
 -4.3327680852307188E-01 a       142     0     7     1    10
  3.7720936266614036E-01 a       143     0     7     1    11
 -1.0933252608537469E+00 a       144     0     7     1    12
 -7.4800478383265256E-01 a       145     0     7     1    13
  1.0769918862495531E+00 a       146     0     7     1    14
 -5.7210616864342023E-01 a       147     0     7     1    15
 -6.0496139898257540E-03 a       148     0     7     1    16
 -1.5519185932298287E+00 a       149     0     7     1    17
 -1.5384556580373479E-01 a       150     0     7     1    18
 -1.7418663795808867E-01 a       151     0     7     1    19
 -5.9861895732955034E-03 a       152     0     7     1    20
 -7.6187535204971735E-02 a       153     0     7     1    21
 -1.2677349135453999E+00 a       154     0     7     1    22
 -5.1554897646485598E-01 a       155     0     8     1     1
  4.1032105355000092E-01 a       156     0     8     1     2
  8.4001752474398594E-01 a       157     0     8     1     3
  5.2614570247005366E-01 a       158     0     8     1     4
 -8.6580123438307355E-01 a       159     0     8     1     5
 -1.1017459538153480E+00 a       160     0     8     1     6
 -6.7873555639522853E-01 a       161     0     8     1     7
 -5.1790719848547295E-01 a       162     0     8     1     8
  1.4100265177774671E-02 a       163     0     8     1     9
 -8.8827597665918412E-01 a       164     0     8     1    10
 -1.5630830923341035E+00 a       165     0     8     1    11
 -3.7087442040274748E-01 a       166     0     8     1    12
 -6.1499188294752138E-01 a       167     0     8     1    13
  6.9176390422684431E-01 a       168     0     8     1    14
 -1.3653120294231018E+00 a       169     0     8     1    15
 -1.2197940836891696E-01 a       170     0     8     1    16
 -1.5612515612002167E+00 a       171     0     8     1    17
  1.6685641113110330E+00 a       172     0     8     1    18
 -2.9652823599290468E-01 a       173     0     8     1    19
  3.3730073260389715E-01 a       174     0     8     1    20
  5.8618439307908443E-01 a       175     0     8     1    21
  3.5853325911679584E-01 a       176     0     8     1    22
  2.3480280879120867E+00 a       177     0     9     1     1
  6.0620052181294404E-01 a       178     0     9     1     2
 -1.8240355761713845E+00 a       179     0     9     1     3
 -4.8070814144453961E-01 a       180     0     9     1     4
  1.3829457152095679E+00 a       181     0     9     1     5
  6.3844516630660064E-01 a       182     0     9     1     6
 -5.0492392074966408E-01 a       183     0     9     1     7
 -1.0514665584288307E+00 a       184     0     9     1     8
 -8.7723324755042287E-01 a       185     0     9     1     9
 -1.2136522972141426E+00 a       186     0     9     1    10
  2.2200926247900835E-01 a       187     0     9     1    11
 -8.9201927438919304E-01 a       188     0     9     1    12
  6.3544990203859786E-01 a       189     0     9     1    13
  1.4586012560432402E+00 a       190     0     9     1    14
 -1.1061034116518050E-01 a       191     0     9     1    15
 -2.2693406340833677E+00 a       192     0     9     1    16
 -1.3803671295084925E+00 a       193     0     9     1    17
  1.0053303440420707E+00 a       194     0     9     1    18
 -2.4145652817294805E-01 a       195     0     9     1    19
  1.6921218367455110E-01 a       196     0     9     1    20
 -1.1318504437495216E+00 a       197     0     9     1    21
  6.7664110041656722E-01 a       198     0     9     1    22
 -5.2606157443236834E-01 a       199     0    10     1     1
  4.0158470993874967E-01 a       200     0    10     1     2
 -1.3571459403143168E-01 a       201     0    10     1     3
 -5.7451009150657328E-01 a       202     0    10     1     4
  2.8366533018092810E-01 a       203     0    10     1     5
 -3.2439265892940508E-02 a       204     0    10     1     6
 -2.2992420189850279E-01 a       205     0    10     1     7
 -5.6645779687730580E-01 a       206     0    10     1     8
  1.4782514021666307E-01 a       207     0    10     1     9
 -1.6695522997257625E-01 a       208     0    10     1    10
  1.9832732570785754E+00 a       209     0    10     1    11
 -2.4062614080447309E-01 a       210     0    10     1    12
 -4.9883470548635428E-01 a       211     0    10     1    13
  4.0607995647218070E-01 a       212     0    10     1    14
  4.0481226530018188E-01 a       213     0    10     1    15
  1.2075410899608505E+00 a       214     0    10     1    16
 -1.3561438029809938E+00 a       215     0    10     1    17
 -1.8177095419635733E-01 a       216     0    10     1    18
 -5.2226443316631321E-01 a       217     0    10     1    19
 -3.4824103719660798E-01 a       218     0    10     1    20
 -1.8367386489914928E+00 a       219     0    10     1    21
  5.8321253386001504E-01 a       220     0    10     1    22
 -1.5867135967898452E-01 a       221     0    11     1     1
  3.6030090215269500E-01 a       222     0    11     1     2
  6.1023650326902912E-01 a       223     0    11     1     3
 -4.0586577871018914E-01 a       224     0    11     1     4
 -1.2122187839784368E-01 a       225     0    11     1     5
  2.3352252052693551E-01 a       226     0    11     1     6
  3.8017749223729802E-01 a       227     0    11     1     7
 -3.3008538921363989E-01 a       228     0    11     1     8
 -1.0429753408743400E-01 a       229     0    11     1     9
 -6.1152977364398309E-01 a       230     0    11     1    10
  7.2101313704106018E-01 a       231     0    11     1    11
 -1.4502220951522797E+00 a       232     0    11     1    12
 -9.0176599316625095E-01 a       233     0    11     1    13
 -1.2586279592424027E-01 a       234     0    11     1    14
 -1.8539092641701560E-01 a       235     0    11     1    15
  2.7656908143655268E-01 a       236     0    11     1    16
 -5.6899144662146461E-01 a       237     0    11     1    17
  5.2363722977881721E-01 a       238     0    11     1    18
 -1.4988153182371802E-01 a       239     0    11     1    19
 -4.7309157012626064E-02 a       240     0    11     1    20
 -9.2023273757372714E-01 a       241     0    11     1    21
  1.8314208910715501E-01 a       242     0    11     1    22
  1.3910945959447180E-01 a       243     0    12     1     1
  3.6056077803625181E-01 a       244     0    12     1     2
  1.2075538403767372E+00 a       245     0    12     1     3
 -5.6618502467046861E-01 a       246     0    12     1     4
 -3.3266801762509807E-01 a       247     0    12     1     5
 -1.0055900647220821E+00 a       248     0    12     1     6
  7.0408638317338168E-01 a       249     0    12     1     7
 -6.4568721795619871E-02 a       250     0    12     1     8
  4.3311638068084812E-01 a       251     0    12     1     9
 -1.9984463749299236E-01 a       252     0    12     1    10
  3.4528265721826873E-01 a       253     0    12     1    11
 -1.1462144583268516E+00 a       254     0    12     1    12
  2.7608446144572235E-01 a       255     0    12     1    13
 -3.2288188406450608E-01 a       256     0    12     1    14
 -1.6861048120435673E-01 a       257     0    12     1    15
  1.0380200259584111E+00 a       258     0    12     1    16
  2.5620700250956657E-01 a       259     0    12     1    17
  9.7978111769017673E-01 a       260     0    12     1    18
 -1.8768530820966778E-01 a       261     0    12     1    19
  7.7378647765518371E-01 a       262     0    12     1    20
  6.4125825520739776E-01 a       263     0    12     1    21
 -6.8861521509253576E-01 a       264     0    12     1    22
  1.8620215382146005E-01 a       265     0    13     1     1
  9.9813984490329277E-01 a       266     0    13     1     2
  9.1873254755853295E-01 a       267     0    13     1     3
  1.8290785203684320E-01 a       268     0    13     1     4
 -1.3426761537846460E-01 a       269     0    13     1     5
  5.9024920545886728E-01 a       270     0    13     1     6
  6.0552722122602121E-01 a       271     0    13     1     7
  6.9115718274099361E-02 a       272     0    13     1     8
 -2.4613130442614375E-01 a       273     0    13     1     9
 -1.5053488247063077E-01 a       274     0    13     1    10
 -2.2188357911679396E-01 a       275     0    13     1    11
  5.6007340724540466E-01 a       276     0    13     1    12
  3.6321697080851312E-01 a       277     0    13     1    13
  3.0305564891098791E-01 a       278     0    13     1    14
  6.1706611078814544E-01 a       279     0    13     1    15
  2.5170669679831691E-02 a       280     0    13     1    16
 -8.0686463563397937E-01 a       281     0    13     1    17
  1.3565511544781075E-01 a       282     0    13     1    18
 -7.5705125071241086E-01 a       283     0    13     1    19
 -4.2485382984746756E-01 a       284     0    13     1    20
 -1.2395287083654750E-01 a       285     0    13     1    21
 -1.0073342106745711E+00 a       286     0    13     1    22
 -4.5602145891540929E-01 a       287     0    14     1     1
 -6.8076343829162622E-01 a       288     0    14     1     2
  9.8624931877777644E-01 a       289     0    14     1     3
  2.9579177102370413E-01 a       290     0    14     1     4
 -1.1046809720647419E+00 a       291     0    14     1     5
 -9.0621775330898768E-01 a       292     0    14     1     6
  1.1064544199628412E+00 a       293     0    14     1     7
 -1.3769875089303845E+00 a       294     0    14     1     8
 -1.9821001668013601E-02 a       295     0    14     1     9
 -4.5524071212317246E-01 a       296     0    14     1    10
 -1.5779314434644542E-01 a       297     0    14     1    11
  8.6776437153119834E-01 a       298     0    14     1    12
 -6.6669379212245672E-01 a       299     0    14     1    13
  1.0980545446431487E+00 a       300     0    14     1    14
 -2.6882883898567111E-01 a       301     0    14     1    15
  2.4131846747870414E-01 a       302     0    14     1    16
 -1.1983994381073337E+00 a       303     0    14     1    17
 -1.8510781107074277E-02 a       304     0    14     1    18
 -8.8357338652086426E-01 a       305     0    14     1    19
 -2.3826770196039104E-01 a       306     0    14     1    20
 -4.5667542446439963E-01 a       307     0    14     1    21
  6.0416640958557499E-01 a       308     0    14     1    22
 -9.7237114437090288E-01 a       309     0    15     1     1
 -3.3819786014610498E-01 a       310     0    15     1     2
  9.1949403719789968E-01 a       311     0    15     1     3
 -9.0060782088308433E-01 a       312     0    15     1     4
 -1.5837210074529061E-02 a       313     0    15     1     5
 -3.2333440752590736E-01 a       314     0    15     1     6
  7.5683465131307981E-01 a       315     0    15     1     7
 -7.5309393114136125E-01 a       316     0    15     1     8
 -3.6448111533520461E-01 a       317     0    15     1     9
 -2.1970198019291384E-01 a       318     0    15     1    10
 -7.6854552998266374E-03 a       319     0    15     1    11
  5.4161761916319484E-01 a       320     0    15     1    12
 -2.2246938172024866E-01 a       321     0    15     1    13
  4.7046482402171791E-01 a       322     0    15     1    14
  9.9444931322965030E-02 a       323     0    15     1    15
 -2.3596139992881909E-01 a       324     0    15     1    16
 -2.4752639734335838E-01 a       325     0    15     1    17
 -5.8496603301029670E-01 a       326     0    15     1    18
  1.2513370593405466E+00 a       327     0    15     1    19
  1.1180560735428102E+00 a       328     0    15     1    20
  1.0120852870540211E+00 a       329     0    15     1    21
  5.7516034130318888E-02 a       330     0    15     1    22
 -4.6695120188041561E-01 a       331     0    16     1     1
 -2.8633734564710993E+00 a       332     0    16     1     2
  3.5912543347100372E+00 a       333     0    16     1     3
  3.3429678403036545E+00 a       334     0    16     1     4
  2.3991947184373430E+00 a       335     0    16     1     5
  4.7699118209812079E+00 a       336     0    16     1     6
  2.1833099761727182E-01 a       337     0    16     1     7
 -8.1750396916787771E-01 a       338     0    16     1     8
 -1.1907030702775026E+00 a       339     0    16     1     9
 -2.8120127360910847E+00 a       340     0    16     1    10
 -1.4723440731379867E-02 a       341     0    16     1    11
 -4.0517399867300402E-01 a       342     0    16     1    12
 -4.8392795369844048E+00 a       343     0    16     1    13
  6.6056916046328928E-01 a       344     0    16     1    14
  1.6870727827256243E-01 a       345     0    16     1    15
 -2.8164595504550227E-01 a       346     0    16     1    16
 -7.1466014741178419E-01 a       347     0    16     1    17
 -1.8496593842737888E-01 a       348     0    16     1    18
 -8.6179034870086579E-01 a       349     0    16     1    19
  1.3689752478163125E-01 a       350     0    16     1    20
  9.4537497871001386E-01 a       351     0    16     1    21
 -4.4862805237475376E+00 a       352     0    16     1    22
 -1.4781527892491118E+00 a       353     0    17     1     1
 -7.7507465689653976E-01 a       354     0    17     1     2
 -8.1726046148558462E-01 a       355     0    17     1     3
 -1.9356282497479178E+00 a       356     0    17     1     4
 -5.8302051285422674E-01 a       357     0    17     1     5
 -2.0149065451563910E+00 a       358     0    17     1     6
  2.0523848643129865E+00 a       359     0    17     1     7
  2.6813828604691514E-01 a       360     0    17     1     8
 -3.6207135280567709E-01 a       361     0    17     1     9
 -3.8005145849433825E-01 a       362     0    17     1    10
  2.5061388190966229E+00 a       363     0    17     1    11
  4.2010444650048062E-01 a       364     0    17     1    12
 -9.3710486884653998E-01 a       365     0    17     1    13
 -7.2019430117452576E-01 a       366     0    17     1    14
 -5.4611108207703374E-01 a       367     0    17     1    15
  3.4116134889103089E-02 a       368     0    17     1    16
  4.7507176247824129E-01 a       369     0    17     1    17
 -1.1180614125152977E+00 a       370     0    17     1    18
  5.2841148616344458E-01 a       371     0    17     1    19
 -8.4823104686290540E-01 a       372     0    17     1    20
 -3.6932590390247821E-01 a       373     0    17     1    21
 -4.8527978488182044E-01 a       374     0    17     1    22
  4.1070360164814990E-01 a       375     0    18     1     1
  1.7630891196730833E-01 a       376     0    18     1     2
  4.2337515602341613E-01 a       377     0    18     1     3
  3.4890564372141331E-01 a       378     0    18     1     4
 -4.3181287298832199E-01 a       379     0    18     1     5
  6.4468820574924241E-03 a       380     0    18     1     6
 -1.2026668850570553E-01 a       381     0    18     1     7
 -4.1019029243410948E-01 a       382     0    18     1     8
  3.6159075705175053E-01 a       383     0    18     1     9
  1.8621598527022626E-01 a       384     0    18     1    10
  1.3327888255704426E-01 a       385     0    18     1    11
 -1.3696955135991491E+00 a       386     0    18     1    12
  1.1001259211993421E-01 a       387     0    18     1    13
 -1.1985216803798236E-01 a       388     0    18     1    14
  2.4704041765220475E-01 a       389     0    18     1    15
 -2.5448900999855972E-02 a       390     0    18     1    16
  2.1096146279273928E-01 a       391     0    18     1    17
  7.2200816500713771E-01 a       392     0    18     1    18
  4.6226380508633069E-01 a       393     0    18     1    19
  4.3051848501062706E-01 a       394     0    18     1    20
  8.1645668932256965E-01 a       395     0    18     1    21
 -8.0086339687250951E-01 a       396     0    18     1    22
 -2.5856171271186024E+00 a       397     0    19     1     1
  1.8962478114991763E+00 a       398     0    19     1     2
  7.8269708866012699E-01 a       399     0    19     1     3
  2.0806769977718140E+00 a       400     0    19     1     4
  9.4966714911831951E-01 a       401     0    19     1     5
  7.4539362083008254E-01 a       402     0    19     1     6
  1.2478821458893523E+00 a       403     0    19     1     7
 -1.7635746603116871E+00 a       404     0    19     1     8
  1.6115602171129271E+00 a       405     0    19     1     9
  2.4839423530746925E+00 a       406     0    19     1    10
 -1.2464290698475728E+00 a       407     0    19     1    11
 -4.2910236614509840E-03 a       408     0    19     1    12
 -1.0222215768653237E-01 a       409     0    19     1    13
 -2.0830761904204840E+00 a       410     0    19     1    14
  8.6938568378947856E-01 a       411     0    19     1    15
  1.8540619319994764E+00 a       412     0    19     1    16
 -1.5625203506486385E+00 a       413     0    19     1    17
 -3.2437440969929519E+00 a       414     0    19     1    18
 -9.6584890801059764E-01 a       415     0    19     1    19
 -8.7024036430240870E-01 a       416     0    19     1    20
  1.2545575810602272E+00 a       417     0    19     1    21
  1.7512969147190736E+00 a       418     0    19     1    22
  3.0028385773629218E-01 a       419     0    20     1     1
  5.2251230680013427E-01 a       420     0    20     1     2
  2.1288291477929955E-01 a       421     0    20     1     3
 -1.0965010401165163E+00 a       422     0    20     1     4
  3.2531052049071124E-01 a       423     0    20     1     5
 -4.0450432327018426E-01 a       424     0    20     1     6
 -3.4738932367171843E-01 a       425     0    20     1     7
 -2.1379251368697000E-01 a       426     0    20     1     8
 -5.6438759982265752E-01 a       427     0    20     1     9
 -2.7226018931436352E-01 a       428     0    20     1    10
 -3.4490883616209328E-01 a       429     0    20     1    11
  6.1883536260606187E-01 a       430     0    20     1    12
 -2.4949715423793939E-01 a       431     0    20     1    13
  1.7229701454393609E-01 a       432     0    20     1    14
  9.3416987305522114E-01 a       433     0    20     1    15
 -7.4609930892609089E-01 a       434     0    20     1    16
 -1.8760532791864433E+00 a       435     0    20     1    17
 -3.0503493931518594E-01 a       436     0    20     1    18
 -5.1042005365558885E-01 a       437     0    20     1    19
 -7.3790985379341789E-01 a       438     0    20     1    20
 -4.3919182715950672E-01 a       439     0    20     1    21
 -2.4468285866828912E-01 a       440     0    20     1    22
 -1.3900908005445873E+00 a       441     0    21     1     1
 -2.5712054250183454E+00 a       442     0    21     1     2
  4.7968864537230471E-01 a       443     0    21     1     3
  3.4317630397418557E+00 a       444     0    21     1     4
 -7.2614627320599867E-01 a       445     0    21     1     5
  1.1325975353088134E+00 a       446     0    21     1     6
 -5.8638414843558162E-01 a       447     0    21     1     7
 -8.2371832359592145E-01 a       448     0    21     1     8
  4.3616601621169593E-01 a       449     0    21     1     9
 -4.0620256739569633E+00 a       450     0    21     1    10
  2.1204529974808426E+00 a       451     0    21     1    11
  1.7683813151340427E-01 a       452     0    21     1    12
 -1.0433106288004561E+00 a       453     0    21     1    13
  1.3384812915998183E+00 a       454     0    21     1    14
  1.4959134983180524E+00 a       455     0    21     1    15
 -6.0164168817932262E-01 a       456     0    21     1    16
 -1.3213541150907565E-01 a       457     0    21     1    17
 -2.0705780442745900E+00 a       458     0    21     1    18
 -7.3932675753086111E-02 a       459     0    21     1    19
  1.0625232826676965E+00 a       460     0    21     1    20
  1.1189980546415192E+00 a       461     0    21     1    21
 -2.8099562467181244E-01 a       462     0    21     1    22
  1.0924304052843963E+00 a       463     0    22     1     1
  2.0797669570364588E-01 a       464     0    22     1     2
  1.0013834344551762E+00 a       465     0    22     1     3
 -2.2525928169432916E+00 a       466     0    22     1     4
  1.9425691695551233E+00 a       467     0    22     1     5
 -5.1156822275729952E-01 a       468     0    22     1     6
  1.1900467723518005E+00 a       469     0    22     1     7
 -1.1925738017223111E+00 a       470     0    22     1     8
  1.2842967529213350E-01 a       471     0    22     1     9
 -8.5943718552004189E-01 a       472     0    22     1    10
 -1.4500045512137358E-01 a       473     0    22     1    11
 -5.1937539629384522E-01 a       474     0    22     1    12
 -6.5713796201921060E-01 a       475     0    22     1    13
 -8.4769203796598513E-01 a       476     0    22     1    14
  7.4370909345847569E-01 a       477     0    22     1    15
 -6.5028559763722427E-01 a       478     0    22     1    16
 -3.9426853670905870E-01 a       479     0    22     1    17
  7.5150384423635835E-02 a       480     0    22     1    18
 -1.3037051224388821E-01 a       481     0    22     1    19
 -6.1506769257415062E-01 a       482     0    22     1    20
 -9.8544752081922338E-01 a       483     0    22     1    21
  3.3316172828736507E-01 a       484     0    22     1    22
 -1.4874670285978615E+00 a       485     0    23     1     1
  1.3216035257903274E+00 a       486     0    23     1     2
  4.0580072779629339E-01 a       487     0    23     1     3
 -1.2848472841080272E+00 a       488     0    23     1     4
  1.8151617521338428E+00 a       489     0    23     1     5
  4.4092238293665553E-01 a       490     0    23     1     6
 -1.6405976250526730E+00 a       491     0    23     1     7
  3.5296871894617277E-01 a       492     0    23     1     8
 -8.3248357961821107E-01 a       493     0    23     1     9
  2.1003206524343980E+00 a       494     0    23     1    10
 -4.7570285578528598E-01 a       495     0    23     1    11
 -1.8366829829771306E-01 a       496     0    23     1    12
 -1.0804204964727437E+00 a       497     0    23     1    13
  1.4564892137032905E+00 a       498     0    23     1    14
 -2.8269976534402077E+00 a       499     0    23     1    15
  1.1120794743379931E+00 a       500     0    23     1    16
  1.9705523096811536E-01 a       501     0    23     1    17
 -1.3684162583340671E+00 a       502     0    23     1    18
  1.0216533252440292E+00 a       503     0    23     1    19
  8.0506700163506884E-01 a       504     0    23     1    20
 -1.0492022675167115E-01 a       505     0    23     1    21
  1.2435493603467367E-01 a       506     0    23     1    22
  3.9573789009749472E-01 a       507     0    24     1     1
 -4.8167810141322692E-01 a       508     0    24     1     2
  2.6038393466700505E-01 a       509     0    24     1     3
 -1.1852209795825663E-02 a       510     0    24     1     4
 -5.5300647262736102E-01 a       511     0    24     1     5
 -6.6251256849524176E-01 a       512     0    24     1     6
  3.0669969448451201E-01 a       513     0    24     1     7
  2.8631845657614319E-01 a       514     0    24     1     8
  4.4055466981686159E-01 a       515     0    24     1     9
  1.2252313197368418E-01 a       516     0    24     1    10
 -6.9464677723291313E-01 a       517     0    24     1    11
 -8.0395462282072827E-01 a       518     0    24     1    12
 -4.2124283353058189E-01 a       519     0    24     1    13
 -3.6944745975683473E-02 a       520     0    24     1    14
  8.9793770828873409E-01 a       521     0    24     1    15
  7.4700381696738116E-01 a       522     0    24     1    16
 -4.1385450974060711E-01 a       523     0    24     1    17
 -3.9888842545438709E-02 a       524     0    24     1    18
 -1.5435946043364437E+00 a       525     0    24     1    19
 -4.7518664280737344E-01 a       526     0    24     1    20
  3.0386218304307822E-01 a       527     0    24     1    21
 -5.0530588560690604E-01 a       528     0    24     1    22
 -4.6657621607967958E-01 a       529     0    25     1     1
  5.5064711122794296E-01 a       530     0    25     1     2
  1.2143405369478362E+00 a       531     0    25     1     3
 -1.6843777343637436E+00 a       532     0    25     1     4
  3.1631060154771073E-02 a       533     0    25     1     5
  2.0454363703359443E-01 a       534     0    25     1     6
  1.2947486302514495E+00 a       535     0    25     1     7
 -1.4586354934965300E+00 a       536     0    25     1     8
 -4.6757398402269712E-01 a       537     0    25     1     9
 -2.4858686087905597E+00 a       538     0    25     1    10
  1.3690155428845285E+00 a       539     0    25     1    11
 -5.9299606891518648E-02 a       540     0    25     1    12
 -3.9037405569403971E-01 a       541     0    25     1    13
 -9.9519952861432848E-01 a       542     0    25     1    14
  1.3824428040894652E+00 a       543     0    25     1    15
  1.4978754406521937E+00 a       544     0    25     1    16
 -4.2123844227084511E-01 a       545     0    25     1    17
 -1.1450045905303137E+00 a       546     0    25     1    18
 -1.0423747410579745E-01 a       547     0    25     1    19
 -2.8072837596870887E-01 a       548     0    25     1    20
 -4.7921155984808489E-01 a       549     0    25     1    21
  1.2190184109441207E+00 a       550     0    25     1    22
  1.5082471098851102E-01 a       551     0    26     1     1
  1.2967101738529181E+00 a       552     0    26     1     2
 -3.8063668912947163E-01 a       553     0    26     1     3
 -4.8729218709211164E-01 a       554     0    26     1     4
  1.4967667899151899E-02 a       555     0    26     1     5
 -1.7253885311823638E-01 a       556     0    26     1     6
 -2.5971409089972997E-01 a       557     0    26     1     7
  1.2597483480324594E+00 a       558     0    26     1     8
 -1.7740301552877208E-01 a       559     0    26     1     9
 -1.3218771751596120E-01 a       560     0    26     1    10
  5.8186876641910068E-01 a       561     0    26     1    11
 -6.0333252771794887E-01 a       562     0    26     1    12
 -9.2455056287233717E-01 a       563     0    26     1    13
  1.0551692397540315E+00 a       564     0    26     1    14
 -1.1073577796729808E+00 a       565     0    26     1    15
  1.8303661957886827E-01 a       566     0    26     1    16
  6.7774602657054739E-01 a       567     0    26     1    17
  2.6468937698894707E-01 a       568     0    26     1    18
  8.0894622382350490E-01 a       569     0    26     1    19
  4.0204653613682334E-02 a       570     0    26     1    20
  1.3312221859285784E+00 a       571     0    26     1    21
  8.3055626465199739E-01 a       572     0    26     1    22
 -7.5501196209124555E-01 a       573     0    27     1     1
  1.2545682473741546E+00 a       574     0    27     1     2
  1.1619320016257768E-03 a       575     0    27     1     3
 -9.1177423823786385E-01 a       576     0    27     1     4
 -3.4108709099203793E-01 a       577     0    27     1     5
  1.1193814804445485E+00 a       578     0    27     1     6
 -2.5182363275246272E-01 a       579     0    27     1     7
 -9.0618389108426989E-01 a       580     0    27     1     8
 -7.5498744579457533E-01 a       581     0    27     1     9
 -2.2596581972594715E-01 a       582     0    27     1    10
  2.6268332135574422E-02 a       583     0    27     1    11
 -5.9483085840978511E-01 a       584     0    27     1    12
 -1.4601851496936019E-01 a       585     0    27     1    13
  4.4646304471897419E-01 a       586     0    27     1    14
 -6.8612946201053771E-01 a       587     0    27     1    15
 -1.0835436628016317E+00 a       588     0    27     1    16
 -1.8303628165165786E-01 a       589     0    27     1    17
  2.8285602619533889E-01 a       590     0    27     1    18
 -8.9448438900974814E-01 a       591     0    27     1    19
 -1.0910103157793731E-01 a       592     0    27     1    20
  1.0415175863282675E+00 a       593     0    27     1    21
  1.3766801360652980E-01 a       594     0    27     1    22
 -4.6855073503355760E-01 a       595     0    28     1     1
  6.6475236183956865E-01 a       596     0    28     1     2
  1.7310970858245336E-01 a       597     0    28     1     3
 -1.9440073727031035E+00 a       598     0    28     1     4
 -8.3706642711673995E-01 a       599     0    28     1     5
 -2.0425172463389279E-01 a       600     0    28     1     6
 -8.6510975597519790E-01 a       601     0    28     1     7
 -1.3594045471027791E+00 a       602     0    28     1     8
 -9.0210920570803266E-01 a       603     0    28     1     9
 -1.1795782273097890E+00 a       604     0    28     1    10
  1.8729060382610601E+00 a       605     0    28     1    11
  1.7540931908426727E-01 a       606     0    28     1    12
 -7.6477479774902084E-03 a       607     0    28     1    13
 -3.8876976910838623E-01 a       608     0    28     1    14
  1.6117235961867264E+00 a       609     0    28     1    15
  8.3679378677679395E-01 a       610     0    28     1    16
 -1.4000754304000056E+00 a       611     0    28     1    17
 -1.5336969321813965E+00 a       612     0    28     1    18
 -2.9007507712433794E-01 a       613     0    28     1    19
 -8.1715446226103983E-01 a       614     0    28     1    20
 -2.5067171199569636E+00 a       615     0    28     1    21
 -3.6788019533459621E-01 a       616     0    28     1    22
 -2.9491392782462560E+00 a       617     0    29     1     1
  4.4770323459542710E-01 a       618     0    29     1     2
 -2.4179725161308294E+00 a       619     0    29     1     3
 -9.2042320437978220E-02 a       620     0    29     1     4
  6.4508760362808060E-01 a       621     0    29     1     5
 -5.3933588198030835E-01 a       622     0    29     1     6
  4.7091930750608063E-01 a       623     0    29     1     7
 -1.1175146243521372E+00 a       624     0    29     1     8
 -6.8210348023996525E-01 a       625     0    29     1     9
 -1.5095996327264274E+00 a       626     0    29     1    10
  7.2526197915919177E-01 a       627     0    29     1    11
 -7.9597093682127462E-01 a       628     0    29     1    12
 -3.0401139496677926E-01 a       629     0    29     1    13
  1.1142388143166695E+00 a       630     0    29     1    14
 -1.3499421124945914E+00 a       631     0    29     1    15
 -1.7500036105972608E-01 a       632     0    29     1    16
 -2.7473892740274302E+00 a       633     0    29     1    17
  5.9141109456426894E-02 a       634     0    29     1    18
  7.6110610178248994E-01 a       635     0    29     1    19
  1.7859263914153838E+00 a       636     0    29     1    20
 -2.1303540808228461E-01 a       637     0    29     1    21
  2.3838435360119878E-01 a       638     0    29     1    22
  2.4129672561463772E-01 a       639     0    30     1     1
 -2.1912138843119749E-02 a       640     0    30     1     2
  3.3320362016997912E-01 a       641     0    30     1     3
 -3.3888426354977330E-01 a       642     0    30     1     4
 -1.0503841926749637E+00 a       643     0    30     1     5
 -6.5777100530668242E-01 a       644     0    30     1     6
 -5.0218296836388376E-01 a       645     0    30     1     7
  2.7416998112476432E-01 a       646     0    30     1     8
  5.7245944312099806E-01 a       647     0    30     1     9
 -1.8634342255951983E-01 a       648     0    30     1    10
  1.8279809630942108E+00 a       649     0    30     1    11
  4.6708077503041873E-01 a       650     0    30     1    12
  1.3018939207785134E+00 a       651     0    30     1    13
  5.5777238841832744E-01 a       652     0    30     1    14
  1.4083233497383449E-01 a       653     0    30     1    15
  1.4128024259640612E+00 a       654     0    30     1    16
 -7.3194537603541088E-01 a       655     0    30     1    17
 -1.6106557918059397E+00 a       656     0    30     1    18
 -4.2304949207642016E-02 a       657     0    30     1    19
  8.1919150889948902E-02 a       658     0    30     1    20
 -1.2709027917452151E+00 a       659     0    30     1    21
 -1.4742518314247444E-01 a       660     0    30     1    22
 -1.2187870090756707E+00 a       661     0    31     1     1
  1.1578794816044151E+00 a       662     0    31     1     2
  7.6712227622882234E-01 a       663     0    31     1     3
 -2.3462253349055562E+00 a       664     0    31     1     4
  9.3438603313199819E-01 a       665     0    31     1     5
 -3.0243599870422329E+00 a       666     0    31     1     6
  1.8275354176155439E-01 a       667     0    31     1     7
  2.3996470191567493E-01 a       668     0    31     1     8
 -1.4436140625844499E-01 a       669     0    31     1     9
 -3.2774051521628342E+00 a       670     0    31     1    10
 -2.1606427752987809E+00 a       671     0    31     1    11
  1.4119964839701130E-01 a       672     0    31     1    12
  1.7391977479124550E+00 a       673     0    31     1    13
  7.2061454259879909E-01 a       674     0    31     1    14
 -9.7021476290583264E-01 a       675     0    31     1    15
  8.7145730125177345E-01 a       676     0    31     1    16
  1.1484993439810542E+00 a       677     0    31     1    17
 -3.3673350268770919E-01 a       678     0    31     1    18
  4.3002539656903693E-01 a       679     0    31     1    19
  1.6866085157664041E+00 a       680     0    31     1    20
 -2.8131339499344998E-01 a       681     0    31     1    21
 -1.9252332261335372E+00 a       682     0    31     1    22
  1.1321014034528034E+00 a       683     0    32     1     1
  2.7467831255861421E+00 a       684     0    32     1     2
 -8.9880610904957636E-01 a       685     0    32     1     3
 -1.5002677654338383E+00 a       686     0    32     1     4
  2.0323963905354239E+00 a       687     0    32     1     5
  1.6131273420831069E+00 a       688     0    32     1     6
  2.1575765850091744E-01 a       689     0    32     1     7
 -3.0441831267201264E-01 a       690     0    32     1     8
 -9.0354258749680749E-01 a       691     0    32     1     9
 -2.2880682962995276E+00 a       692     0    32     1    10
 -1.3630636905386520E+00 a       693     0    32     1    11
 -8.0845506685162360E-01 a       694     0    32     1    12
  4.1541364361664568E-01 a       695     0    32     1    13
  6.3557189777100109E-01 a       696     0    32     1    14
 -1.4932841257115770E-02 a       697     0    32     1    15
 -1.5104694897039286E+00 a       698     0    32     1    16
 -2.7041093506099600E+00 a       699     0    32     1    17
 -6.0075361799845961E-01 a       700     0    32     1    18
 -1.1768403601661430E+00 a       701     0    32     1    19
 -2.8819468209467813E-01 a       702     0    32     1    20
 -1.2246247162290702E+00 a       703     0    32     1    21
  4.3138180904011608E-01 a       704     0    32     1    22
  4.8583725562319002E-01 a       705     0    33     1     1
  1.0612787991069585E+00 a       706     0    33     1     2
  8.3681230872921530E-01 a       707     0    33     1     3
 -6.8231500003450396E-01 a       708     0    33     1     4
 -9.8049989001224025E-01 a       709     0    33     1     5
 -3.9456463652960716E-01 a       710     0    33     1     6
 -3.3819519553783900E-01 a       711     0    33     1     7
 -1.1266541945092572E+00 a       712     0    33     1     8
  9.7892884138205086E-02 a       713     0    33     1     9
 -8.2314346389932691E-01 a       714     0    33     1    10
  5.8433332644777758E-01 a       715     0    33     1    11
  9.2728140811940390E-02 a       716     0    33     1    12
  6.1154495364368133E-01 a       717     0    33     1    13
  1.0627098327982396E+00 a       718     0    33     1    14
  1.2830455370765537E-01 a       719     0    33     1    15
  2.1363982950644275E-01 a       720     0    33     1    16
 -1.1797265817307427E+00 a       721     0    33     1    17
 -1.8575665167938119E-01 a       722     0    33     1    18
  8.9972755058930276E-01 a       723     0    33     1    19
 -9.7217513821259760E-01 a       724     0    33     1    20
 -7.1885875167880697E-01 a       725     0    33     1    21
 -3.3695751526014511E-01 a       726     0    33     1    22
  3.0191639416547239E-01 a       727     0    34     1     1
 -5.4323404185107860E-01 a       728     0    34     1     2
  4.3713298605180528E-02 a       729     0    34     1     3
  1.1280858684569288E+00 a       730     0    34     1     4
 -3.4720726556808323E-01 a       731     0    34     1     5
 -1.4608859200756477E+00 a       732     0    34     1     6
  1.1893703541561258E+00 a       733     0    34     1     7
 -1.1950476222370585E+00 a       734     0    34     1     8
  6.0948724081634287E-01 a       735     0    34     1     9
  8.6108206313892977E-01 a       736     0    34     1    10
  6.4787935227261473E-01 a       737     0    34     1    11
  2.2629769767586078E-01 a       738     0    34     1    12
 -5.4661975873333424E-01 a       739     0    34     1    13
  1.4829791064479423E+00 a       740     0    34     1    14
  4.2474625101283775E-01 a       741     0    34     1    15
  6.1904786536463452E-01 a       742     0    34     1    16
  7.9939831799797356E-01 a       743     0    34     1    17
  2.1546570054672460E+00 a       744     0    34     1    18
  1.4864049285159582E+00 a       745     0    34     1    19
 -5.3939927970869150E-01 a       746     0    34     1    20
 -2.2056201454484654E+00 a       747     0    34     1    21
 -1.0588466747339336E+00 a       748     0    34     1    22
  1.9299727122669956E+00 a       749     0    35     1     1
  1.1459960819877697E+00 a       750     0    35     1     2
 -9.1398522336593258E-01 a       751     0    35     1     3
 -2.7365790025023368E-01 a       752     0    35     1     4
  1.7495195115595772E+00 a       753     0    35     1     5
  3.2254738365240632E-01 a       754     0    35     1     6
  9.3798834149015520E-01 a       755     0    35     1     7
  1.5592487694924995E-01 a       756     0    35     1     8
  7.6397173847140087E-01 a       757     0    35     1     9
 -8.8734131159423146E-01 a       758     0    35     1    10
 -2.1683016160618879E-01 a       759     0    35     1    11
 -3.1854864042718933E-01 a       760     0    35     1    12
  2.8577935840092294E-01 a       761     0    35     1    13
  1.3807976821745871E+00 a       762     0    35     1    14
  4.3887168871780929E-01 a       763     0    35     1    15
 -7.3043651873106075E-01 a       764     0    35     1    16
  2.5021971532045789E-01 a       765     0    35     1    17
  2.2504257723706403E-01 a       766     0    35     1    18
  7.2255731485514119E-01 a       767     0    35     1    19
 -3.9489271650840962E-01 a       768     0    35     1    20
 -6.4521710299469759E-01 a       769     0    35     1    21
 -2.7574126479781032E-02 a       770     0    35     1    22
  4.7778355274760098E-01 a       771     0    36     1     1
  1.1930720786372360E+00 a       772     0    36     1     2
  9.7557831687298024E-01 a       773     0    36     1     3
 -3.9325171450891355E-01 a       774     0    36     1     4
 -8.9334709780845467E-01 a       775     0    36     1     5
 -1.3444292316118243E+00 a       776     0    36     1     6
  2.2174849957206230E-01 a       777     0    36     1     7
 -1.6440677639117371E+00 a       778     0    36     1     8
  4.9713356406552894E-01 a       779     0    36     1     9
 -7.4475103097641904E-01 a       780     0    36     1    10
  5.4895034122552089E-01 a       781     0    36     1    11
 -6.5918023740515330E-01 a       782     0    36     1    12
  9.9151049005848080E-01 a       783     0    36     1    13
  3.1171927438073727E-01 a       784     0    36     1    14
 -7.9005434445873035E-01 a       785     0    36     1    15
  3.5992111165115509E-01 a       786     0    36     1    16
 -2.0228828163040324E+00 a       787     0    36     1    17
 -1.9184266850036230E-01 a       788     0    36     1    18
  1.9776988633665746E-01 a       789     0    36     1    19
  8.8794485081589519E-02 a       790     0    36     1    20
 -3.3008730929598201E-01 a       791     0    36     1    21
 -1.2429184082491490E-01 a       792     0    36     1    22
  9.5978708027146986E-01 a       793     0    37     1     1
  1.7047432667057802E+00 a       794     0    37     1     2
  4.8438605315785593E-01 a       795     0    37     1     3
  1.1513906197662001E+00 a       796     0    37     1     4
  5.6453070374408021E-01 a       797     0    37     1     5
  1.1785106351325936E+00 a       798     0    37     1     6
  1.4224764782467339E-01 a       799     0    37     1     7
  8.5702266237456540E-02 a       800     0    37     1     8
  8.2553038391913358E-01 a       801     0    37     1     9
  9.4923282244163854E-01 a       802     0    37     1    10
  3.1785152411799249E+00 a       803     0    37     1    11
  4.5585327376407186E-01 a       804     0    37     1    12
 -5.0943678981321783E-01 a       805     0    37     1    13
 -2.8241637055232222E-01 a       806     0    37     1    14
 -6.5550430187250253E-01 a       807     0    37     1    15
 -6.9541014437326276E-01 a       808     0    37     1    16
 -1.5956829375983035E+00 a       809     0    37     1    17
  1.6463056412028430E+00 a       810     0    37     1    18
 -1.7143716665328605E-02 a       811     0    37     1    19
 -5.0681620076540523E-01 a       812     0    37     1    20
 -9.7144021793398971E-01 a       813     0    37     1    21
 -3.2600240406415049E-01 a       814     0    37     1    22
 -8.3753803902445589E-01 a       815     0    38     1     1
  6.8948276512505557E-01 a       816     0    38     1     2
 -1.9854523741450516E+00 a       817     0    38     1     3
 -5.1551041952683219E-01 a       818     0    38     1     4
  7.7918592201169534E-01 a       819     0    38     1     5
 -3.5640988731616374E-01 a       820     0    38     1     6
  2.5948892644779575E-01 a       821     0    38     1     7
  3.0511311837713984E-01 a       822     0    38     1     8
  1.4119925646228038E+00 a       823     0    38     1     9
  8.2394216801305020E-01 a       824     0    38     1    10
 -4.2962916799860545E-01 a       825     0    38     1    11
 -4.3274059830316125E-01 a       826     0    38     1    12
 -8.5989963755773968E-01 a       827     0    38     1    13
  1.1868294294764372E+00 a       828     0    38     1    14
 -8.7188606875750052E-01 a       829     0    38     1    15
 -7.5288494215773949E-01 a       830     0    38     1    16
  1.8473997849331347E+00 a       831     0    38     1    17
  2.0886584274523088E+00 a       832     0    38     1    18
  1.0409795853103072E+00 a       833     0    38     1    19
 -1.2804601637947388E+00 a       834     0    38     1    20
 -9.3607021453386174E-01 a       835     0    38     1    21
 -2.5586644864052066E-01 a       836     0    38     1    22
  7.2747363274977953E-02 a       837     0    39     1     1
  2.0113923027201536E-01 a       838     0    39     1     2
 -3.1382407809981822E-01 a       839     0    39     1     3
 -3.7549984482424170E-01 a       840     0    39     1     4
 -7.7337258377784568E-01 a       841     0    39     1     5
 -4.3486387109681179E-01 a       842     0    39     1     6
 -1.1680215314940139E+00 a       843     0    39     1     7
 -8.4233286194129686E-01 a       844     0    39     1     8
  6.4417204583600196E-01 a       845     0    39     1     9
 -1.0863623355582878E-01 a       846     0    39     1    10
 -4.6096099277930730E-01 a       847     0    39     1    11
 -8.7540962228971253E-01 a       848     0    39     1    12
 -6.3041614764264076E-01 a       849     0    39     1    13
  9.9014387415200678E-01 a       850     0    39     1    14
 -1.3338126108373998E+00 a       851     0    39     1    15
 -5.6074140693332095E-02 a       852     0    39     1    16
 -1.5153893304103117E+00 a       853     0    39     1    17
 -1.2066535233871660E+00 a       854     0    39     1    18
  7.2590306959959383E-01 a       855     0    39     1    19
 -9.1665254474830871E-01 a       856     0    39     1    20
  5.7204458576828543E-02 a       857     0    39     1    21
  7.7359997184022067E-01 a       858     0    39     1    22
 -4.1392068438006352E-01 a       859     0    40     1     1
  5.3141146005462436E-01 a       860     0    40     1     2
  1.0791247820491625E+00 a       861     0    40     1     3
 -5.8270400537938516E-01 a       862     0    40     1     4
  9.2616032823598260E-01 a       863     0    40     1     5
 -1.4015004573405210E+00 a       864     0    40     1     6
 -3.2600405440866453E-01 a       865     0    40     1     7
 -2.5797636474337654E-01 a       866     0    40     1     8
 -1.4641128277211857E-01 a       867     0    40     1     9
 -1.8380454054740119E+00 a       868     0    40     1    10
 -1.1059828179448334E+00 a       869     0    40     1    11
 -1.5966324292271794E-01 a       870     0    40     1    12
  5.9771713873573284E-01 a       871     0    40     1    13
  6.6823021102773036E-02 a       872     0    40     1    14
 -8.3095862724781411E-01 a       873     0    40     1    15
  1.7967594881595350E-01 a       874     0    40     1    16
 -5.7791150356065202E-01 a       875     0    40     1    17
  9.5774322948268509E-01 a       876     0    40     1    18
 -1.6728553157538519E+00 a       877     0    40     1    19
 -9.6453401341496592E-01 a       878     0    40     1    20
 -5.4627818689481633E-01 a       879     0    40     1    21
 -1.7809232617469437E-01 a       880     0    40     1    22
 -2.4751163075747580E+00 a       881     0    41     1     1
 -1.1949859964223533E+00 a       882     0    41     1     2
 -8.6514748490427518E-01 a       883     0    41     1     3
 -5.8811716289703754E-02 a       884     0    41     1     4
  1.0943598098649182E-01 a       885     0    41     1     5
  2.3333781725420897E+00 a       886     0    41     1     6
  3.0495412034348757E-01 a       887     0    41     1     7
  1.9309719125835509E+00 a       888     0    41     1     8
 -1.7153135684179033E-01 a       889     0    41     1     9
  1.4036058252979682E+00 a       890     0    41     1    10
  7.9374473266376910E-01 a       891     0    41     1    11
 -1.5955795917233947E-02 a       892     0    41     1    12
  4.2035113311815375E-01 a       893     0    41     1    13
 -3.1093315787144776E-01 a       894     0    41     1    14
  8.1521456158597705E-01 a       895     0    41     1    15
  2.7413227285712205E-01 a       896     0    41     1    16
  1.4329838963239763E+00 a       897     0    41     1    17
  1.7771738523994798E+00 a       898     0    41     1    18
  1.8114895136230154E+00 a       899     0    41     1    19
 -5.3098882888896992E-01 a       900     0    41     1    20
 -9.2199184370263543E-01 a       901     0    41     1    21
 -1.2392217916311443E+00 a       902     0    41     1    22
 -1.5368929248337284E+00 a       903     0    42     1     1
 -3.7533343533834018E-01 a       904     0    42     1     2
 -1.4669804091856295E-01 a       905     0    42     1     3
 -6.7113303553807346E-01 a       906     0    42     1     4
 -8.6941154878250504E-01 a       907     0    42     1     5
 -7.8205031236940326E-01 a       908     0    42     1     6
  2.4536368085789237E-01 a       909     0    42     1     7
 -1.1670877772106258E+00 a       910     0    42     1     8
  1.3073798932091012E+00 a       911     0    42     1     9
 -4.2164202536867473E-01 a       912     0    42     1    10
 -4.9732727494369695E-02 a       913     0    42     1    11
 -6.4889939158753140E-01 a       914     0    42     1    12
 -1.9479492550361775E-03 a       915     0    42     1    13
  4.0059035351159766E-01 a       916     0    42     1    14
 -1.7473401779086606E-01 a       917     0    42     1    15
 -5.7446806026526098E-01 a       918     0    42     1    16
 -1.0547905524535168E+00 a       919     0    42     1    17
  7.8830649318737100E-01 a       920     0    42     1    18
  6.1435340554414908E-01 a       921     0    42     1    19
 -1.1390993445611504E+00 a       922     0    42     1    20
  1.0012040751804465E+00 a       923     0    42     1    21
  1.0574495658426295E+00 a       924     0    42     1    22
 -9.4346471611428950E-01 a       925     0    43     1     1
 -2.5396246650530085E-01 a       926     0    43     1     2
  5.1864202463328490E-01 a       927     0    43     1     3
 -4.0384970306058837E-01 a       928     0    43     1     4
  9.0185953963048349E-01 a       929     0    43     1     5
  7.0578842281741189E-02 a       930     0    43     1     6
  7.1671965937217974E-01 a       931     0    43     1     7
 -1.2611103902803320E+00 a       932     0    43     1     8
  1.4022814368387843E-01 a       933     0    43     1     9
  5.2678144663626192E-01 a       934     0    43     1    10
  2.2550243366010328E-01 a       935     0    43     1    11
  2.3861874821955228E-02 a       936     0    43     1    12
  5.1942000062848415E-01 a       937     0    43     1    13
 -1.2102024184380562E-01 a       938     0    43     1    14
 -5.1852099265483287E-01 a       939     0    43     1    15
 -8.7485308598104095E-01 a       940     0    43     1    16
 -9.9978742401222676E-01 a       941     0    43     1    17
  9.6348718136197095E-02 a       942     0    43     1    18
 -1.1031371693290195E+00 a       943     0    43     1    19
  1.4797743338568969E-01 a       944     0    43     1    20
  3.9623194312162713E-01 a       945     0    43     1    21
 -1.3597333270130096E-01 a       946     0    43     1    22
  4.1349868068597057E-01 a       947     0    44     1     1
  1.1021015296105339E+00 a       948     0    44     1     2
  8.4247898680661737E-01 a       949     0    44     1     3
  5.6548743008480624E-02 a       950     0    44     1     4
 -3.1687903313517701E-01 a       951     0    44     1     5
 -1.9244935510384598E-01 a       952     0    44     1     6
 -3.8452688556246017E-01 a       953     0    44     1     7
 -7.3858445082519222E-02 a       954     0    44     1     8
 -1.7907946926532681E+00 a       955     0    44     1     9
 -5.5392758522599483E-01 a       956     0    44     1    10
 -4.2497906014499781E-01 a       957     0    44     1    11
  1.1120153623374049E+00 a       958     0    44     1    12
  6.2017857181206970E-01 a       959     0    44     1    13
  1.0088480266288353E+00 a       960     0    44     1    14
 -6.7374322465811098E-01 a       961     0    44     1    15
  3.5954306172667760E-02 a       962     0    44     1    16
 -8.4825334140708153E-01 a       963     0    44     1    17
  4.4728424272960743E-01 a       964     0    44     1    18
  2.8819822007621843E-01 a       965     0    44     1    19
  5.0556821514551320E-01 a       966     0    44     1    20
  1.1483093216466893E-01 a       967     0    44     1    21
  6.3771485826359853E-01 a       968     0    44     1    22
  5.5233855172322077E-01 a       969     0    45     1     1
  6.2548787383210069E-01 a       970     0    45     1     2
  4.0184141656459360E-01 a       971     0    45     1     3
 -3.9970992202682121E-01 a       972     0    45     1     4
 -5.5149336497493295E-01 a       973     0    45     1     5
 -4.9523023554009593E-01 a       974     0    45     1     6
 -5.2451541251731766E-03 a       975     0    45     1     7
 -4.2919442184567647E-01 a       976     0    45     1     8
 -4.6257032328635794E-01 a       977     0    45     1     9
  3.5858577664933455E-01 a       978     0    45     1    10
 -3.1253865725339708E-01 a       979     0    45     1    11
  3.1306141410798283E-01 a       980     0    45     1    12
  1.1235764967632209E-01 a       981     0    45     1    13
 -3.7313976863452064E-01 a       982     0    45     1    14
 -1.2157057195996435E+00 a       983     0    45     1    15
  2.7451469015618307E-01 a       984     0    45     1    16
 -2.9649010009366755E-01 a       985     0    45     1    17
  6.9489297282656304E-01 a       986     0    45     1    18
 -5.2878503338210514E-01 a       987     0    45     1    19
  1.0957768359523458E-01 a       988     0    45     1    20
 -4.7445643979917301E-01 a       989     0    45     1    21
 -4.8662090249090284E-01 a       990     0    45     1    22
 -9.7588105959225435E-01 a       991     0    46     1     1
  1.3080559376931433E+00 a       992     0    46     1     2
 -9.7079186960805364E-02 a       993     0    46     1     3
 -1.2847921281852084E+00 a       994     0    46     1     4
 -2.0455261889843208E+00 a       995     0    46     1     5
  6.0195779498988122E-01 a       996     0    46     1     6
  1.3511297509784774E+00 a       997     0    46     1     7
  1.4075310314182987E-01 a       998     0    46     1     8
  4.0789194625128300E-01 a       999     0    46     1     9
 -1.0513613613027557E-01 a      1000     0    46     1    10
 -1.8583202586627590E+00 a      1001     0    46     1    11
 -7.2994260485256368E-01 a      1002     0    46     1    12
 -1.5701449173107302E+00 a      1003     0    46     1    13
  1.6639958485090405E+00 a      1004     0    46     1    14
 -1.0460522407528021E+00 a      1005     0    46     1    15
 -2.1867141440192295E-01 a      1006     0    46     1    16
 -6.8299519026089017E-01 a      1007     0    46     1    17
  1.5555464695794401E+00 a      1008     0    46     1    18
  3.8550867572411346E-01 a      1009     0    46     1    19
  1.2871812669603049E+00 a      1010     0    46     1    20
  9.5479788733285775E-01 a      1011     0    46     1    21
  8.0740151876033880E-02 a      1012     0    46     1    22
 -6.9704005043419237E-01 a      1013     0    47     1     1
 -7.0071034069386273E-01 a      1014     0    47     1     2
  5.5001052483919088E-01 a      1015     0    47     1     3
  4.4858976341011984E-02 a      1016     0    47     1     4
 -5.8191373300392257E-01 a      1017     0    47     1     5
 -3.9070253563575119E-01 a      1018     0    47     1     6
 -1.4440602950281195E-01 a      1019     0    47     1     7
 -6.6799661360187323E-01 a      1020     0    47     1     8
  1.2637959611188124E-01 a      1021     0    47     1     9
  6.1743597914524795E-01 a      1022     0    47     1    10
 -4.7345612843381085E-01 a      1023     0    47     1    11
  1.1666274024924537E+00 a      1024     0    47     1    12
  1.0671367491964279E+00 a      1025     0    47     1    13
 -3.7562659480479765E-01 a      1026     0    47     1    14
  2.5100382980956509E-01 a      1027     0    47     1    15
 -3.7570113455162762E-01 a      1028     0    47     1    16
  2.1183432741984795E-02 a      1029     0    47     1    17
  1.4241825058304762E+00 a      1030     0    47     1    18
  1.1957783046300627E+00 a      1031     0    47     1    19
  1.0890245962728280E+00 a      1032     0    47     1    20
 -6.0668883595956079E-03 a      1033     0    47     1    21
 -6.4120850676414654E-01 a      1034     0    47     1    22
  3.5302560411515027E-01 a      1035     0    48     1     1
  2.9348858802774096E-02 a      1036     0    48     1     2
  6.8416699997361241E-01 a      1037     0    48     1     3
 -1.3495515006339738E+00 a      1038     0    48     1     4
 -1.4077453817461924E-01 a      1039     0    48     1     5
 -9.8647816670334787E-01 a      1040     0    48     1     6
 -2.4431886142578094E-01 a      1041     0    48     1     7
 -3.0748915377954195E-01 a      1042     0    48     1     8
  1.7323700193971130E+00 a      1043     0    48     1     9
 -6.9656147452166817E-01 a      1044     0    48     1    10
  9.5495673007779946E-01 a      1045     0    48     1    11
  2.2744989224613216E-01 a      1046     0    48     1    12
 -1.0871388838880445E+00 a      1047     0    48     1    13
  4.6773427500081100E-01 a      1048     0    48     1    14
  6.0807749859997395E-01 a      1049     0    48     1    15
 -4.1862822312258646E-01 a      1050     0    48     1    16
 -7.1658073809073519E-01 a      1051     0    48     1    17
  2.0793270257165328E-01 a      1052     0    48     1    18
 -9.2833102595357053E-01 a      1053     0    48     1    19
 -6.9108436932756101E-01 a      1054     0    48     1    20
 -1.5381609124236930E+00 a      1055     0    48     1    21
 -8.3327829883683341E-02 a      1056     0    48     1    22
  1.4382985592767088E+00 a      1057     0    49     1     1
  6.8643577204921924E-01 a      1058     0    49     1     2
 -2.1076216289880137E-01 a      1059     0    49     1     3
  5.8111513782638802E-01 a      1060     0    49     1     4
 -2.3611335370559225E-01 a      1061     0    49     1     5
 -1.1047867623144030E+00 a      1062     0    49     1     6
  9.5595271486868227E-01 a      1063     0    49     1     7
  1.0486131445666970E-01 a      1064     0    49     1     8
  1.2855849919610534E+00 a      1065     0    49     1     9
 -2.2960549962387755E-01 a      1066     0    49     1    10
 -1.0472953738816682E+00 a      1067     0    49     1    11
 -7.9259689448281312E-01 a      1068     0    49     1    12
 -3.8739998913989326E-01 a      1069     0    49     1    13
  8.6035183306069785E-01 a      1070     0    49     1    14
 -1.0928149942038805E-01 a      1071     0    49     1    15
 -5.6257813539540213E-01 a      1072     0    49     1    16
  4.0605454540005748E-01 a      1073     0    49     1    17
  2.6596666829105862E-02 a      1074     0    49     1    18
 -1.7882006551447102E-01 a      1075     0    49     1    19
  5.0692093011277128E-01 a      1076     0    49     1    20
 -1.3284069254883633E+00 a      1077     0    49     1    21
 -1.2499309796527147E+00 a      1078     0    49     1    22
  1.0982799468948208E+00 a      1079     0    50     1     1
  3.3871193465285770E-01 a      1080     0    50     1     2
 -9.1603655137969553E-01 a      1081     0    50     1     3
 -5.3514346208385222E-01 a      1082     0    50     1     4
  2.5008363794329547E-01 a      1083     0    50     1     5
  1.4183367490034355E+00 a      1084     0    50     1     6
 -5.1013815096788961E-01 a      1085     0    50     1     7
 -3.3524280774050652E-01 a      1086     0    50     1     8
  2.3228445456937868E-01 a      1087     0    50     1     9
  5.3683713520534315E-01 a      1088     0    50     1    10
  1.6938760778390455E-01 a      1089     0    50     1    11
 -1.4779828605300654E-01 a      1090     0    50     1    12
  7.3978700860908664E-01 a      1091     0    50     1    13
  1.2386439109311023E+00 a      1092     0    50     1    14
 -3.4022015606126332E-01 a      1093     0    50     1    15
 -3.6962045568054719E-01 a      1094     0    50     1    16
  1.5762541435352062E+00 a      1095     0    50     1    17
  1.1411621881480993E+00 a      1096     0    50     1    18
  3.8368060339166338E-01 a      1097     0    50     1    19
 -5.2063296582600960E-01 a      1098     0    50     1    20
 -1.1555820725028987E+00 a      1099     0    50     1    21
  3.9755678125748367E-01 a      1100     0    50     1    22
  3.0186296857845335E-01 a      1101     0    51     1     1
 -1.0525879701031023E-01 a      1102     0    51     1     2
  1.0654232887474334E-01 a      1103     0    51     1     3
 -8.2702444861341137E-02 a      1104     0    51     1     4
 -1.2695326460444928E-01 a      1105     0    51     1     5
 -1.3343552691892120E+00 a      1106     0    51     1     6
 -1.3341899513497033E+00 a      1107     0    51     1     7
  2.2587615504539729E-01 a      1108     0    51     1     8
  9.8004844840114111E-02 a      1109     0    51     1     9
 -7.2113901710181547E-02 a      1110     0    51     1    10
  2.5116438128610269E-01 a      1111     0    51     1    11
  2.6287512392781442E-01 a      1112     0    51     1    12
  4.6189777785746794E-01 a      1113     0    51     1    13
 -8.5624352522848901E-01 a      1114     0    51     1    14
 -1.2017124068741130E+00 a      1115     0    51     1    15
 -4.2467933602037100E-01 a      1116     0    51     1    16
 -1.1371705855756281E-01 a      1117     0    51     1    17
 -9.5462241139317805E-01 a      1118     0    51     1    18
  3.8446206588860582E-02 a      1119     0    51     1    19
 -3.8020496404954701E-01 a      1120     0    51     1    20
 -2.2495655590643490E-01 a      1121     0    51     1    21
 -9.3063192011481866E-01 a      1122     0    51     1    22
  3.4536826505481250E-01 a      1123     0    52     1     1
 -3.5342424794739336E-01 a      1124     0    52     1     2
 -2.6746509708583371E-01 a      1125     0    52     1     3
 -1.2847058762934747E+00 a      1126     0    52     1     4
  3.2955182394085397E-01 a      1127     0    52     1     5
 -6.9235853720713292E-01 a      1128     0    52     1     6
 -8.9114326916033004E-01 a      1129     0    52     1     7
 -2.1613725728921365E+00 a      1130     0    52     1     8
  1.3110975001067071E+00 a      1131     0    52     1     9
 -9.6750237394883787E-01 a      1132     0    52     1    10
  9.7972914786596910E-01 a      1133     0    52     1    11
  4.7998772231234410E-01 a      1134     0    52     1    12
  1.4752362575680503E-01 a      1135     0    52     1    13
 -1.2788868264423829E+00 a      1136     0    52     1    14
  6.3639246141957895E-01 a      1137     0    52     1    15
 -7.2369317269897560E-01 a      1138     0    52     1    16
  7.6884687704060195E-01 a      1139     0    52     1    17
 -4.0584919227923233E-01 a      1140     0    52     1    18
 -9.3747829759597778E-01 a      1141     0    52     1    19
 -5.0306047091959616E-01 a      1142     0    52     1    20
  1.7590447875805051E-01 a      1143     0    52     1    21
 -8.9630900650295420E-01 a      1144     0    52     1    22
  1.3345625594576579E-01 a      1145     0    53     1     1
 -2.9638963604558838E-01 a      1146     0    53     1     2
  6.8753904293818791E-01 a      1147     0    53     1     3
  7.5768580801721430E-01 a      1148     0    53     1     4
  9.8728479504620481E-01 a      1149     0    53     1     5
 -1.2164789726455338E-01 a      1150     0    53     1     6
  7.6104262746460427E-01 a      1151     0    53     1     7
  2.0219099143063496E-01 a      1152     0    53     1     8
  5.6989513741721942E-01 a      1153     0    53     1     9
  9.6067348936031816E-01 a      1154     0    53     1    10
  8.3661128324763068E-01 a      1155     0    53     1    11
 -1.0608562570307531E+00 a      1156     0    53     1    12
  8.3034197059509363E-01 a      1157     0    53     1    13
  1.1193455559964001E-01 a      1158     0    53     1    14
 -1.5035710585850250E+00 a      1159     0    53     1    15
  8.1791665154571380E-01 a      1160     0    53     1    16
  1.9266082345045845E+00 a      1161     0    53     1    17
  5.7434017485403144E-01 a      1162     0    53     1    18
  4.0550641793905710E-02 a      1163     0    53     1    19
  5.6470703084730726E-02 a      1164     0    53     1    20
 -1.2448192775317128E-01 a      1165     0    53     1    21
 -1.5837256069886462E-02 a      1166     0    53     1    22
  3.6442746343228649E-01 a      1167     0    54     1     1
  1.1120464315450762E+00 a      1168     0    54     1     2
 -1.0916973310558922E-01 a      1169     0    54     1     3
  8.6852097526701999E-01 a      1170     0    54     1     4
 -9.2327518909529160E-01 a      1171     0    54     1     5
  5.2419333412243441E-01 a      1172     0    54     1     6
 -1.7631828104214688E+00 a      1173     0    54     1     7
  4.9883983150342309E-01 a      1174     0    54     1     8
  2.5901606579763042E-01 a      1175     0    54     1     9
  2.0310561261073190E-01 a      1176     0    54     1    10
 -4.9896249751543159E-01 a      1177     0    54     1    11
 -7.1142958067572384E-02 a      1178     0    54     1    12
  3.1884112424645977E-01 a      1179     0    54     1    13
 -2.1793949653027635E-02 a      1180     0    54     1    14
 -7.0447861061599126E-01 a      1181     0    54     1    15
  3.4435206990004180E-01 a      1182     0    54     1    16
 -1.5093800482371413E+00 a      1183     0    54     1    17
 -6.4926844626283775E-01 a      1184     0    54     1    18
  8.5337817497815083E-01 a      1185     0    54     1    19
  1.4648273853538036E+00 a      1186     0    54     1    20
 -6.2873857176022407E-01 a      1187     0    54     1    21
  4.3023147382214849E-01 a      1188     0    54     1    22
  1.1396268412837378E+00 a      1189     0    55     1     1
  7.7310247912214802E-01 a      1190     0    55     1     2
  8.8015196432474119E-01 a      1191     0    55     1     3
  1.1768161732722347E-01 a      1192     0    55     1     4
 -1.7229393346312347E+00 a      1193     0    55     1     5
 -1.0399508653186840E-01 a      1194     0    55     1     6
  7.3445401539635535E-01 a      1195     0    55     1     7
 -6.5827715347821758E-01 a      1196     0    55     1     8
  1.7456191150782403E+00 a      1197     0    55     1     9
 -4.9219254717102984E-01 a      1198     0    55     1    10
 -2.5288631581063398E-02 a      1199     0    55     1    11
  3.5314230209938646E-01 a      1200     0    55     1    12
 -3.8812430094189682E-01 a      1201     0    55     1    13
 -6.0968243969146886E-02 a      1202     0    55     1    14
  3.7646591759208187E-01 a      1203     0    55     1    15
  1.7248678535403128E-01 a      1204     0    55     1    16
 -9.8593433662173147E-01 a      1205     0    55     1    17
  2.3713315181660491E-01 a      1206     0    55     1    18
  3.8417759443327809E-01 a      1207     0    55     1    19
 -5.0731373619585310E-02 a      1208     0    55     1    20
  5.4610021356022787E-01 a      1209     0    55     1    21
 -1.3594826470897803E+00 a      1210     0    55     1    22
  1.8516152133216455E+00 a      1211     0    56     1     1
 -6.0438141648519794E-01 a      1212     0    56     1     2
  1.2367970090303901E+00 a      1213     0    56     1     3
  2.0797001422857750E+00 a      1214     0    56     1     4
 -2.4409008886861696E+00 a      1215     0    56     1     5
 -2.1302713186103217E+00 a      1216     0    56     1     6
 -9.8478720196606209E-02 a      1217     0    56     1     7
 -1.4599014194062279E+00 a      1218     0    56     1     8
  1.3346162296401494E+00 a      1219     0    56     1     9
  8.4684405722739775E-01 a      1220     0    56     1    10
 -2.5316295005230223E+00 a      1221     0    56     1    11
  1.0223616417045454E+00 a      1222     0    56     1    12
 -1.8746930782664744E+00 a      1223     0    56     1    13
  3.3069070849373668E-02 a      1224     0    56     1    14
  7.9631059877248653E-02 a      1225     0    56     1    15
  6.5105823197919369E-02 a      1226     0    56     1    16
 -7.1589144428200260E-02 a      1227     0    56     1    17
 -5.6881617369004023E-01 a      1228     0    56     1    18
 -3.4777300458010413E-01 a      1229     0    56     1    19
  1.5083015601758831E+00 a      1230     0    56     1    20
 -4.1129908680406130E-01 a      1231     0    56     1    21
 -1.0344369798463113E+00 a      1232     0    56     1    22
 -4.3466488792390963E-02 a      1233     0    57     1     1
 -1.1434639754347475E+00 a      1234     0    57     1     2
  1.9247060215669460E+00 a      1235     0    57     1     3
  4.6500459889126139E-01 a      1236     0    57     1     4
  3.9096142248062188E-01 a      1237     0    57     1     5
  2.6331725169136949E-01 a      1238     0    57     1     6
  7.1110030639060084E-01 a      1239     0    57     1     7
  5.6295225774997215E-01 a      1240     0    57     1     8
 -8.3676852787888034E-01 a      1241     0    57     1     9
 -3.0963236265879973E-01 a      1242     0    57     1    10
  5.1381126088771922E-01 a      1243     0    57     1    11
 -6.8377205387248188E-02 a      1244     0    57     1    12
 -4.6725217719555658E-02 a      1245     0    57     1    13
  1.8319652117659957E-01 a      1246     0    57     1    14
  7.1612090931527733E-02 a      1247     0    57     1    15
 -7.5694991759124342E-01 a      1248     0    57     1    16
 -1.3181707817339823E+00 a      1249     0    57     1    17
  7.2867756901665515E-01 a      1250     0    57     1    18
  4.2472569633036672E-01 a      1251     0    57     1    19
  8.2303464525770254E-01 a      1252     0    57     1    20
  2.4329926103262955E-01 a      1253     0    57     1    21
  1.5219431659758955E+00 a      1254     0    57     1    22
  5.5561792247648922E-01 a      1255     0    58     1     1
  2.0225013453552764E-03 a      1256     0    58     1     2
 -4.3292093149549904E-01 a      1257     0    58     1     3
 -5.7022903835392047E-01 a      1258     0    58     1     4
  4.2842001450281841E-01 a      1259     0    58     1     5
 -7.1065308554834117E-02 a      1260     0    58     1     6
  3.1762896622901154E-01 a      1261     0    58     1     7
 -6.8145450870746316E-01 a      1262     0    58     1     8
  8.3255336850832684E-01 a      1263     0    58     1     9
 -4.3566073224163893E-01 a      1264     0    58     1    10
  9.3799367717901061E-01 a      1265     0    58     1    11
  3.6914887898566706E-01 a      1266     0    58     1    12
 -2.3185107114088224E-01 a      1267     0    58     1    13
 -6.6730013278289146E-01 a      1268     0    58     1    14
 -1.8212143671957921E+00 a      1269     0    58     1    15
  6.5002131570980737E-01 a      1270     0    58     1    16
 -1.7309386092247154E+00 a      1271     0    58     1    17
 -9.5430853627231316E-01 a      1272     0    58     1    18
 -6.3748043215188299E-01 a      1273     0    58     1    19
 -2.2007573916446508E+00 a      1274     0    58     1    20
  2.3923699988413386E-01 a      1275     0    58     1    21
 -8.5673756052089323E-01 a      1276     0    58     1    22
  1.7821708383331238E+00 a      1277     0    59     1     1
 -6.1766372383239856E-02 a      1278     0    59     1     2
 -2.1080642601563588E+00 a      1279     0    59     1     3
 -4.7464925489847648E-01 a      1280     0    59     1     4
 -1.5760421845955186E-01 a      1281     0    59     1     5
  3.6127558102152879E-01 a      1282     0    59     1     6
  3.9426871838243543E-01 a      1283     0    59     1     7
 -3.2762183502380680E+00 a      1284     0    59     1     8
  4.6881902477357096E-01 a      1285     0    59     1     9
 -1.4495792920543935E-01 a      1286     0    59     1    10
 -1.4210168609020026E+00 a      1287     0    59     1    11
  5.4396079592674407E-01 a      1288     0    59     1    12
 -5.3163517611428934E-01 a      1289     0    59     1    13
  3.9843521086153821E-01 a      1290     0    59     1    14
 -7.1650723928724946E-01 a      1291     0    59     1    15
 -3.4456534900513514E-01 a      1292     0    59     1    16
  9.8351135229119291E-01 a      1293     0    59     1    17
 -2.4502945725392555E-01 a      1294     0    59     1    18
  9.0774384769353134E-01 a      1295     0    59     1    19
  9.6592851846905392E-01 a      1296     0    59     1    20
  7.4126510025055395E-02 a      1297     0    59     1    21
 -7.1683845129385704E-01 a      1298     0    59     1    22
  7.5847991687704258E-02 a      1299     0    60     1     1
  1.6969395449596653E-01 a      1300     0    60     1     2
  4.4831958804140681E-01 a      1301     0    60     1     3
 -2.9408280760729560E-01 a      1302     0    60     1     4
  7.6385769959246813E-02 a      1303     0    60     1     5
 -9.1473902741127067E-01 a      1304     0    60     1     6
  7.2558304590817690E-01 a      1305     0    60     1     7
  7.9970728665624702E-01 a      1306     0    60     1     8
 -2.0602048037580664E-01 a      1307     0    60     1     9
  1.3645398621070526E+00 a      1308     0    60     1    10
 -1.0355812817616332E+00 a      1309     0    60     1    11
 -4.2347481586672153E-01 a      1310     0    60     1    12
 -1.7940010261210098E+00 a      1311     0    60     1    13
 -9.0604057403255867E-01 a      1312     0    60     1    14
 -7.3606615363071271E-01 a      1313     0    60     1    15
 -5.6945194137212729E-01 a      1314     0    60     1    16
 -5.4631931682898982E-02 a      1315     0    60     1    17
  4.3794733061648006E-01 a      1316     0    60     1    18
 -8.6844269349813918E-01 a      1317     0    60     1    19
 -4.8429869156310462E-01 a      1318     0    60     1    20
 -9.8528636504492173E-02 a      1319     0    60     1    21
  8.1330227318305803E-02 a      1320     0    60     1    22
  6.1680304913912298E-01 a      1321     0    61     1     1
 -5.0791014547047597E-01 a      1322     0    61     1     2
 -1.4162190655639889E-01 a      1323     0    61     1     3
  7.7607801321416869E-01 a      1324     0    61     1     4
  4.5690756117550402E-01 a      1325     0    61     1     5
 -4.2571685492138722E-01 a      1326     0    61     1     6
 -7.5203211016083946E-02 a      1327     0    61     1     7
  1.8534136835974618E-01 a      1328     0    61     1     8
  1.9550786286282626E+00 a      1329     0    61     1     9
 -7.9188293416599997E-01 a      1330     0    61     1    10
  6.4795952104036592E-01 a      1331     0    61     1    11
  9.2138081009746198E-01 a      1332     0    61     1    12
 -4.3330704171430140E-01 a      1333     0    61     1    13
  5.9890205807493158E-01 a      1334     0    61     1    14
 -1.8203586618127060E-01 a      1335     0    61     1    15
  1.2002150222337531E+00 a      1336     0    61     1    16
  6.1161727529416676E-01 a      1337     0    61     1    17
 -1.8281976658128531E+00 a      1338     0    61     1    18
  4.7577936722803416E-01 a      1339     0    61     1    19
 -1.0544917181740292E+00 a      1340     0    61     1    20
  4.0289517714873874E-01 a      1341     0    61     1    21
 -1.5357775058261172E+00 a      1342     0    61     1    22
 -7.2053125339374280E-01 a      1343     0    62     1     1
 -4.6180635534507525E-01 a      1344     0    62     1     2
 -4.6917653167769119E-01 a      1345     0    62     1     3
 -2.5184347166811566E-01 a      1346     0    62     1     4
 -4.0475389414618652E-02 a      1347     0    62     1     5
  5.0155110010274595E-01 a      1348     0    62     1     6
 -6.8162422932812883E-01 a      1349     0    62     1     7
 -1.9597055488568211E+00 a      1350     0    62     1     8
  6.8761661811790631E-01 a      1351     0    62     1     9
 -5.4063478664495024E-01 a      1352     0    62     1    10
 -5.3716495466680073E-02 a      1353     0    62     1    11
 -4.5100654363035636E-01 a      1354     0    62     1    12
  4.5768907891293975E-01 a      1355     0    62     1    13
 -6.4139398842207662E-01 a      1356     0    62     1    14
  5.1187031555458740E-01 a      1357     0    62     1    15
 -1.8428948393631817E+00 a      1358     0    62     1    16
  1.7613318781419431E+00 a      1359     0    62     1    17
  6.8701296862973460E-01 a      1360     0    62     1    18
  2.1676543384015953E-01 a      1361     0    62     1    19
  1.8400800319314516E+00 a      1362     0    62     1    20
  1.6666368536455385E+00 a      1363     0    62     1    21
 -3.2528623737831264E-01 a      1364     0    62     1    22
  1.1808929736847460E+00 a      1365     0    63     1     1
  1.2135256888656654E-01 a      1366     0    63     1     2
 -3.8288326459962141E-01 a      1367     0    63     1     3
  9.3228101744106917E-01 a      1368     0    63     1     4
  5.1262040144136978E-01 a      1369     0    63     1     5
 -6.3643172797755121E-01 a      1370     0    63     1     6
 -3.6431886105381434E-01 a      1371     0    63     1     7
  9.6676555503867079E-01 a      1372     0    63     1     8
 -7.8064092339903179E-01 a      1373     0    63     1     9
 -2.8886488047479120E-01 a      1374     0    63     1    10
 -4.7410045812602059E-01 a      1375     0    63     1    11
 -6.0466166970457376E-02 a      1376     0    63     1    12
 -2.6484177384255042E-01 a      1377     0    63     1    13
  7.7694837940011252E-01 a      1378     0    63     1    14
 -2.5938752049479630E-01 a      1379     0    63     1    15
  2.4147984027106859E-01 a      1380     0    63     1    16
  2.3971302985412737E-02 a      1381     0    63     1    17
  4.6749947914837986E-01 a      1382     0    63     1    18
  7.5053229617975192E-01 a      1383     0    63     1    19
 -4.9903303487058259E-01 a      1384     0    63     1    20
 -4.5431733413478115E-01 a      1385     0    63     1    21
 -6.1938692443713583E-01 a      1386     0    63     1    22
  9.8100971214824673E-01 a      1387     0    64     1     1
  8.2070961625099759E-01 a      1388     0    64     1     2
 -1.6851480050973457E+00 a      1389     0    64     1     3
  1.9769942617838790E-01 a      1390     0    64     1     4
  2.2029813232596865E-01 a      1391     0    64     1     5
 -2.8382617108954972E-01 a      1392     0    64     1     6
  1.1603658951197844E-01 a      1393     0    64     1     7
 -6.3518872676338090E-01 a      1394     0    64     1     8
 -3.7831641673728311E-01 a      1395     0    64     1     9
 -1.9188364607051520E-01 a      1396     0    64     1    10
 -4.4261045104563641E-02 a      1397     0    64     1    11
  1.2419583214010126E+00 a      1398     0    64     1    12
  2.1798019029247689E-01 a      1399     0    64     1    13
  1.9492080954052779E-01 a      1400     0    64     1    14
  6.8090115285571751E-01 a      1401     0    64     1    15
  2.0488717638039322E-01 a      1402     0    64     1    16
 -1.7736331926613355E-01 a      1403     0    64     1    17
 -6.0009681970002715E-01 a      1404     0    64     1    18
 -2.8657748689728487E-03 a      1405     0    64     1    19
  1.8576918962620942E-01 a      1406     0    64     1    20
  2.0685257052781270E-01 a      1407     0    64     1    21
 -6.4202375144590140E-01 a      1408     0    64     1    22
  6.7429850145256431E-01 a      1409     0    65     1     1
 -8.9220828252520035E-01 a      1410     0    65     1     2
  7.3175177456252671E-01 a      1411     0    65     1     3
  1.2952809425674074E+00 a      1412     0    65     1     4
 -1.0930640815474417E+00 a      1413     0    65     1     5
  3.5963044299710550E-01 a      1414     0    65     1     6
 -1.5995952954378063E+00 a      1415     0    65     1     7
  1.5533557571896128E+00 a      1416     0    65     1     8
 -7.2164055690968698E-01 a      1417     0    65     1     9
  1.6556007733802769E+00 a      1418     0    65     1    10
 -9.4322822954706276E-01 a      1419     0    65     1    11
  7.5668775599851601E-01 a      1420     0    65     1    12
  1.8548488333744650E+00 a      1421     0    65     1    13
  6.5461489106548847E-03 a      1422     0    65     1    14
 -8.3857693822426427E-01 a      1423     0    65     1    15
  4.7281279848295993E-01 a      1424     0    65     1    16
 -2.6190955636377605E-01 a      1425     0    65     1    17
  7.0724378805686339E-01 a      1426     0    65     1    18
 -4.8193218886025785E-01 a      1427     0    65     1    19
  8.8202522336752787E-01 a      1428     0    65     1    20
  3.4575249636283112E-01 a      1429     0    65     1    21
 -9.9866988586098115E-01 a      1430     0    65     1    22
  1.1848887118655431E+00 a      1431     0    66     1     1
  7.0470488009041432E-01 a      1432     0    66     1     2
 -4.9205210664727861E-01 a      1433     0    66     1     3
 -2.8207953262788410E-01 a      1434     0    66     1     4
  1.9409127048778921E-01 a      1435     0    66     1     5
 -7.6151524851582414E-02 a      1436     0    66     1     6
 -1.2884181660262701E+00 a      1437     0    66     1     7
  6.3258314568301377E-01 a      1438     0    66     1     8
  9.8793325928841325E-01 a      1439     0    66     1     9
  3.3630793100636031E-01 a      1440     0    66     1    10
  1.0637975206778882E+00 a      1441     0    66     1    11
  4.5350022785343003E-01 a      1442     0    66     1    12
  2.5765843171409238E-02 a      1443     0    66     1    13
  1.4489366512696451E+00 a      1444     0    66     1    14
 -4.5681169331751703E-01 a      1445     0    66     1    15
  2.3259875913246059E-01 a      1446     0    66     1    16
 -1.1079005556051502E+00 a      1447     0    66     1    17
 -8.8434861996282296E-02 a      1448     0    66     1    18
  8.9257180678190839E-01 a      1449     0    66     1    19
  8.3682145288570198E-01 a      1450     0    66     1    20
  2.2123769598042106E-01 a      1451     0    66     1    21
 -2.9792931114257132E-01 a      1452     0    66     1    22
 -3.1673582116732257E-01 a      1453     0    67     1     1
 -5.8388762499479430E-01 a      1454     0    67     1     2
  1.0268570226815867E+00 a      1455     0    67     1     3
 -3.0933814244993479E-01 a      1456     0    67     1     4
  4.8127723283413942E-01 a      1457     0    67     1     5
  1.7235479825726321E-01 a      1458     0    67     1     6
 -1.8827489306219274E+00 a      1459     0    67     1     7
  1.4040252572186010E-01 a      1460     0    67     1     8
  4.8355535683220091E-01 a      1461     0    67     1     9
 -4.1120707219098962E-01 a      1462     0    67     1    10
  9.5659389843672171E-01 a      1463     0    67     1    11
  2.5179892537092900E-02 a      1464     0    67     1    12
  6.6812418061609824E-01 a      1465     0    67     1    13
  7.2601116959231826E-01 a      1466     0    67     1    14
 -8.5417267610721648E-01 a      1467     0    67     1    15
  2.9776885626357213E-01 a      1468     0    67     1    16
 -4.6765235270061617E-01 a      1469     0    67     1    17
  9.3652801055775647E-01 a      1470     0    67     1    18
  6.5951759693238821E-01 a      1471     0    67     1    19
 -2.9373456789792052E-01 a      1472     0    67     1    20
  6.6975626649556286E-01 a      1473     0    67     1    21
 -2.6738874104463189E-01 a      1474     0    67     1    22
  7.0349174086788191E-01 a      1475     0    68     1     1
  5.7837467457061656E-02 a      1476     0    68     1     2
  4.0360810374405381E-01 a      1477     0    68     1     3
 -3.3637900987133748E-02 a      1478     0    68     1     4
  2.8885038998608250E+00 a      1479     0    68     1     5
 -8.8544847813282102E-01 a      1480     0    68     1     6
 -1.6866538071343681E-02 a      1481     0    68     1     7
 -8.4969917057125810E-01 a      1482     0    68     1     8
  1.5106143045044274E+00 a      1483     0    68     1     9
 -2.3914955398688775E-01 a      1484     0    68     1    10
  5.5892794529026613E-01 a      1485     0    68     1    11
  1.8229101491963811E-02 a      1486     0    68     1    12
 -7.8097148977952713E-01 a      1487     0    68     1    13
 -5.5079975206463194E-01 a      1488     0    68     1    14
 -5.3985836274326993E-01 a      1489     0    68     1    15
  3.3476730582544201E-01 a      1490     0    68     1    16
  3.7530231621714549E-01 a      1491     0    68     1    17
  5.5425030612199255E-01 a      1492     0    68     1    18
 -1.3772585349028174E-01 a      1493     0    68     1    19
 -1.8512734287659030E+00 a      1494     0    68     1    20
  4.5696011950673182E-01 a      1495     0    68     1    21
 -8.3163302915757453E-01 a      1496     0    68     1    22
  9.6504555652746099E-02 a      1497     0    69     1     1
 -1.4212892273044542E-01 a      1498     0    69     1     2
  1.5965756454045992E+00 a      1499     0    69     1     3
  2.5648630880210693E-01 a      1500     0    69     1     4
 -1.1668800533832908E-01 a      1501     0    69     1     5
 -3.9711891359847185E-01 a      1502     0    69     1     6
  4.3015675289074434E-01 a      1503     0    69     1     7
 -5.4991614625242735E-01 a      1504     0    69     1     8
 -8.5737802173595973E-02 a      1505     0    69     1     9
 -9.6229932674661192E-02 a      1506     0    69     1    10
 -2.5109463238680224E-01 a      1507     0    69     1    11
 -4.0788369851226858E-01 a      1508     0    69     1    12
  7.8239735454091608E-01 a      1509     0    69     1    13
  4.5026278466672864E-01 a      1510     0    69     1    14
 -9.8529222043770892E-01 a      1511     0    69     1    15
 -3.7708877554850667E-01 a      1512     0    69     1    16
 -1.2334007563461080E-01 a      1513     0    69     1    17
  1.3176805282234307E+00 a      1514     0    69     1    18
  1.0071201512357522E+00 a      1515     0    69     1    19
 -9.0996909233932066E-01 a      1516     0    69     1    20
  1.1768198034352244E-01 a      1517     0    69     1    21
 -6.1085886273241929E-01 a      1518     0    69     1    22
  1.0926360500931984E+00 a      1519     0    70     1     1
  3.1748156618735751E-01 a      1520     0    70     1     2
  1.6329720046854841E+00 a      1521     0    70     1     3
  1.0153488567979438E+00 a      1522     0    70     1     4
 -1.7596357899258730E+00 a      1523     0    70     1     5
  5.0482088887324572E-01 a      1524     0    70     1     6
 -4.5000246200024185E-01 a      1525     0    70     1     7
  2.3687958143467938E-01 a      1526     0    70     1     8
  3.3739496038476630E-01 a      1527     0    70     1     9
  9.8952909508396925E-01 a      1528     0    70     1    10
 -1.1674056834991839E+00 a      1529     0    70     1    11
 -1.7535733825979249E-01 a      1530     0    70     1    12
 -6.5121279387916253E-01 a      1531     0    70     1    13
  2.1510961084799488E-01 a      1532     0    70     1    14
 -1.4339172053336657E+00 a      1533     0    70     1    15
  5.4510933996657152E-01 a      1534     0    70     1    16
 -7.9116313273584915E-01 a      1535     0    70     1    17
 -1.5867548846183988E+00 a      1536     0    70     1    18
 -2.9130745108663136E-01 a      1537     0    70     1    19
  1.1634675741558442E+00 a      1538     0    70     1    20
  2.5447565388632822E-02 a      1539     0    70     1    21
 -1.3189367011116216E-02 a      1540     0    70     1    22
 -3.5737741946730311E-01 a      1541     0    71     1     1
 -1.8882519183075297E+00 a      1542     0    71     1     2
 -1.9371123704611759E+00 a      1543     0    71     1     3
  8.3314257370613731E-01 a      1544     0    71     1     4
 -8.8707806595724026E-01 a      1545     0    71     1     5
 -1.5639556217073094E+00 a      1546     0    71     1     6
 -5.3381614668337296E-01 a      1547     0    71     1     7
 -1.5951869773139640E+00 a      1548     0    71     1     8
  2.8770611604386703E-01 a      1549     0    71     1     9
  4.6118479065408797E+00 a      1550     0    71     1    10
  3.9245011250781736E-01 a      1551     0    71     1    11
 -2.8973522202827923E-01 a      1552     0    71     1    12
 -1.1187204708432334E+00 a      1553     0    71     1    13
  1.8612570045607226E+00 a      1554     0    71     1    14
  4.1551221403441080E-01 a      1555     0    71     1    15
 -2.3377076392050755E+00 a      1556     0    71     1    16
  1.0243289536928464E+00 a      1557     0    71     1    17
  2.5396982161468991E+00 a      1558     0    71     1    18
 -5.8207491054971727E-01 a      1559     0    71     1    19
 -2.6251014696844199E-01 a      1560     0    71     1    20
 -7.8827167397144682E-01 a      1561     0    71     1    21
  4.5043962911334873E-01 a      1562     0    71     1    22
  2.8272426794353205E+00 a      1563     0    72     1     1
  7.3738098632216487E-01 a      1564     0    72     1     2
 -3.7803292285863663E+00 a      1565     0    72     1     3
 -2.9624023874087069E-01 a      1566     0    72     1     4
  2.6854093011645508E-01 a      1567     0    72     1     5
 -1.2413564460066531E+00 a      1568     0    72     1     6
 -2.9867738771240226E-01 a      1569     0    72     1     7
 -2.1457834661660233E+00 a      1570     0    72     1     8
 -2.6466352677890752E+00 a      1571     0    72     1     9
  2.3682812136179114E+00 a      1572     0    72     1    10
  6.1327247107024507E-01 a      1573     0    72     1    11
  1.1799976927019500E+00 a      1574     0    72     1    12
  8.7148897996757313E-01 a      1575     0    72     1    13
  8.5842301114095398E-01 a      1576     0    72     1    14
 -4.7374616255503543E-01 a      1577     0    72     1    15
 -2.9163304550380914E-01 a      1578     0    72     1    16
 -3.2865243533322337E+00 a      1579     0    72     1    17
 -1.4904667491151729E+00 a      1580     0    72     1    18
 -9.2535765386732560E-01 a      1581     0    72     1    19
  7.0511062680394776E-01 a      1582     0    72     1    20
  2.1531302461590212E+00 a      1583     0    72     1    21
  6.3082762276705395E-01 a      1584     0    72     1    22
  1.3258279544786435E+00 a      1585     0    73     1     1
 -1.4606700674681541E+00 a      1586     0    73     1     2
 -8.7665032115951003E-01 a      1587     0    73     1     3
 -3.0896864623869041E-01 a      1588     0    73     1     4
 -1.1648745971631764E+00 a      1589     0    73     1     5
  1.2582246195094793E-01 a      1590     0    73     1     6
 -5.0403175985346682E-01 a      1591     0    73     1     7
  5.2422962584126587E-01 a      1592     0    73     1     8
  2.4530881232189866E-01 a      1593     0    73     1     9
 -7.6464461994817878E-01 a      1594     0    73     1    10
 -2.3978688856172199E+00 a      1595     0    73     1    11
  2.0888558932419266E-01 a      1596     0    73     1    12
 -5.0539583567689983E-01 a      1597     0    73     1    13
  1.2751659082989744E-01 a      1598     0    73     1    14
 -8.2441579479324845E-01 a      1599     0    73     1    15
  4.4538591228884927E-01 a      1600     0    73     1    16
 -4.2839017328349183E-01 a      1601     0    73     1    17
  1.0907499462222062E-01 a      1602     0    73     1    18
 -1.5607144467615170E+00 a      1603     0    73     1    19
  5.0552347621090532E-01 a      1604     0    73     1    20
  1.5122488590203249E+00 a      1605     0    73     1    21
 -4.1401154452031358E-01 a      1606     0    73     1    22
 -1.3228765229893658E+00 a      1607     0    74     1     1
 -3.8188337517590945E-02 a      1608     0    74     1     2
 -4.5302486217837484E-01 a      1609     0    74     1     3
 -1.4069676837550007E+00 a      1610     0    74     1     4
 -7.6738520103346253E-01 a      1611     0    74     1     5
  2.7139034192116512E-01 a      1612     0    74     1     6
 -1.5304141842121007E-02 a      1613     0    74     1     7
 -1.5557840399170655E+00 a      1614     0    74     1     8
 -1.8005996440924135E+00 a      1615     0    74     1     9
 -1.0701718302187213E+00 a      1616     0    74     1    10
  1.9745902966206036E-01 a      1617     0    74     1    11
 -5.3587857358226409E-01 a      1618     0    74     1    12
  7.3610846669951169E-01 a      1619     0    74     1    13
 -1.2058448965017319E+00 a      1620     0    74     1    14
 -4.1391732087094296E-01 a      1621     0    74     1    15
  1.8733766009473135E-01 a      1622     0    74     1    16
  4.2604294267001863E-01 a      1623     0    74     1    17
